FilledLines | Holes | WellSums | LandingHeight | RowTransitions | ColTransitions | Fitness
4.98933480611292 -7.335324226389085 -1.95665261554819 -2.342964223730905 -1.880959605697375 -2.876626181877795 3534685
5.184622840604689 -5.347664318082503 -2.653986107182245 -3.6479888195024475 -2.519443148628503 -8.072491457658547 2199318
8.88586220355063 -7.9036346834227 -3.42413657927332 -3.22370469851948 -2.93743993537614 -6.46474213313206 2164013
3.40877577591215 -7.40208281778478 -2.311485825672305 -2.938213818180885 -2.00383922403368 -4.43540576821633 2139450
3.41812681013926 -7.89926542735165 -3.38559722472636 -4.50015882508276 -3.21788828684877 -9.34869530544519 2000000
5.46929761381319 -7.34127329421442 -3.55865251669756 -3.20991073321908 -2.8769641722514 -6.83309092157359 2000000
5.55038925179594 -7.41146794378565 -1.79797310538765 -2.34693225584963 -2.34928050916088 -3.38413380562948 2000000
8.88586220355063 -7.9036346834227 -3.42413657927332 -3.22370469851948 -2.93743993537614 -6.46474213313206 2000000
3.68812908691088 -7.13063563519121 -2.68211738135261 -3.70791524370609 -2.16272651868459 -6.02282645258367 2000000
7.76395915436323 -7.29179070633966 -3.80016869693878 -3.44504753477481 -2.6116472666098 -6.62456885900091 2000000
7.95967387484209 -7.55758356177552 -2.59614107227491 -3.52850483262922 -2.3420362430353 -7.6423767497648 2000000
4.13669545738103 -8.6775250258051 -3.56095190764583 -2.85285037473182 -3.06083441597422 -6.81069342087812 2000000
3.68812908691088 -7.13063563519121 -2.68211738135261 -3.70791524370609 -2.16272651868459 -6.02282645258367 2000000
3.68812908691088 -7.13063563519121 -2.68211738135261 -3.70791524370609 -2.16272651868459 -6.02282645258367 2000000
4.4282803604299 -7.25918050899252 -2.11533212570873 -2.33899619161218 -1.41263870223387 -2.36911855812611 2000000
3.30128733564148 -6.87720290976673 -3.03498143750535 -3.4586012221648 -2.02610049963905 -6.18564107180828 2000000
4.81510002002968 -6.39619501714593 -1.2766688665935 -1.82781515897398 -1.02770908119234 -1.66796434597248 2000000
1.67337557808559 -8.13719131272949 -2.67295480388645 -2.63401218752651 -2.67136281670385 -4.54890352701537 2000000
4.1006997996959 -5.20114917911606 -2.37693597060166 -2.92298936229972 -2.71406401275558 -7.61374590209684 2000000
6.34039425345881 -7.39061053332802 -2.76966366996561 -2.25169008167755 -1.60507093793791 -3.5692918501432 2000000
1.16328529073674 -7.84970513978389 -3.77346444118337 -2.55821735734033 -3.14775116620646 -7.98828251476124 2000000
1.78410796859225 -7.65243647078118 -3.22722343068574 -3.282223324224 -1.80076060081777 -7.62380201366974 2000000
3.56095990614158 -8.19149500565483 -2.87750862812037 -4.08039914335412 -2.91069709239632 -5.67142561456058 2000000
6.34039425345881 -7.39061053332802 -2.76966366996561 -2.25169008167755 -1.60507093793791 -3.5692918501432 2000000
9.72567855796055 -9.66237652500159 -3.33881074178693 -2.86073999529125 -3.16842062512207 -6.20120062780752 2000000
3.79624715898809 -7.64343312728075 -2.82702089716586 -3.43120171496915 -2.99364699458121 -5.9436314590593 2000000
5.27973052560096 -6.64276572292883 -1.8287676946147 -3.10984405223435 -1.22640286993557 -3.96475480069313 2000000
8.88586220355063 -7.9036346834227 -3.42413657927332 -3.22370469851948 -2.93743993537614 -6.46474213313206 2000000
4.66951746919377 -8.72966956734646 -2.60059003893038 -2.22714639370397 -2.94102947993608 -5.51265384897289 2000000
3.12942246491342 -7.67353000037835 -1.940854269992 -2.16851239265568 -1.84495192938277 -2.84798508384899 2000000
8.30965928318884 -7.61694693580039 -4.00573226049955 -3.0873129295747 -3.08545491525598 -6.71027885341061 1989492
7.94335055168061 -8.15011368252122 -2.46993272781812 -2.99630429258423 -2.80790556249805 -5.55539513262886 1978480
5.929055749181372 -7.904977627354322 -3.440134619306546 -3.5851638909399166 -2.997845854824396 -6.189484106184633 1934118
6.31394461692141 -5.50031605695148 -2.94264013570963 -4.40335395515855 -2.316670837598 -8.55045098627045 1919600
7.66973117053056 -7.01642165988142 -4.08654060003641 -2.66884261379916 -2.58489496791744 -6.55705884102614 1918349
2.8391553276128 -7.54186488773103 -1.88692949515328 -1.70227128180716 -1.87410602360516 -3.82724871804086 1906848
7.31885245063716 -6.20065614885055 -2.42397868416546 -4.2302246411948 -1.83301370628157 -7.23605293039925 1905460
3.79624715898809 -7.64343312728075 -2.82702089716586 -3.43120171496915 -2.99364699458121 -5.9436314590593 1880577
3.34019654682029 -8.16015061488406 -3.01935531059427 -3.98599698708735 -3.16966036071727 -7.52983686362141 1880136
5.3283823771011 -7.50196723829485 -3.34179046801384 -3.42147371152529 -2.6869083572475 -5.39392040351561 1855726
4.24578972545311 -8.59677480818811 -3.24010285835779 -3.25032305056784 -2.73635508974067 -4.69039389837452 1849855
8.66265126260527 -8.29081197536116 -3.6121443259561 -2.3292171457199 -2.75428529029549 -6.24036455875585 1838391
4.46117501066391 -7.24944878522262 -1.271248944381 -1.74274963564986 -1.08908698232499 -1.29226425693537 1795744
3.79624715898809 -7.64343312728075 -2.82702089716586 -3.43120171496915 -2.99364699458121 -5.9436314590593 1785343
7.44353130350828 -6.91087765448746 -2.96885475559229 -4.40032807514062 -3.18312136336082 -9.36804283369591 1781279
4.57571175467063 -2.76862474268942 -1.5274844978689 -1.37426065048066 -1.17162645532496 -5.93249650679782 1759796
6.29518987775016 -8.12722976900853 -1.70460272681625 -1.6772180356762 -1.91036288594371 -3.36893540330239 1736669
6.34039425345881 -7.39061053332802 -2.76966366996561 -2.25169008167755 -1.60507093793791 -3.5692918501432 1716216
4.24578972545311 -8.59677480818811 -3.24010285835779 -3.25032305056784 -2.73635508974067 -4.69039389837452 1705555
4.32932918107373 -6.97760463033223 -1.5956011607497 -1.81393750821257 -1.2333662659784 -1.65561977777078 1700004
3.47342548559577 -7.18251834255405 -3.64145863160453 -4.01836870922312 -1.90835535547713 -9.23731441912098 1698758
2.8391553276128 -7.54186488773103 -1.88692949515328 -1.70227128180716 -1.87410602360516 -3.82724871804086 1696100
7.08734979047541 -8.80983661974598 -2.85428594324856 -4.02321027224577 -3.24528630267864 -6.93336675182773 1685599
5.41035632119465 -5.18602965009889 -3.45262026673438 -2.08763461689135 -1.73896786773479 -6.28613517005289 1684512
7.54416132084664 -6.8250734769153 -3.63607381871615 -3.70217869410665 -1.84975355722812 -6.67782675952553 1648099
3.75739266089515 -7.37602791793748 -3.15634989202564 -4.90947290379544 -3.56206901805942 -7.20089037936534 1645687
7.31255376793587 -6.45665889479398 -2.92022524026491 -4.84972228285229 -3.03532930278814 -8.60679238098687 1634245
3.68812908691088 -7.13063563519121 -2.68211738135261 -3.70791524370609 -2.16272651868459 -6.02282645258367 1613662
8.77006535473593 -9.55742229488968 -2.75871767197861 -2.39211280758187 -3.20249453045713 -7.21624672572234 1608911
6.74284745290992 -6.88191151129704 -2.82208195895208 -4.74208238205396 -3.53232749216433 -8.02417894103859 1582997
1.07346828306938 -8.04332586140313 -2.327654274708 -3.53841603533069 -1.88956661881075 -3.8222655396885 1578893
8.88586220355063 -7.9036346834227 -3.42413657927332 -3.22370469851948 -2.93743993537614 -6.46474213313206 1575635
4.62107159596971 -7.40935110020654 -3.87899912872814 -3.29911808445645 -1.59595027562567 -8.01087592670682 1543425
6.45968085907031 -8.18968656715835 -4.14591687622857 -3.74334600099434 -2.91824477194424 -6.67829691917681 1530879
6.08917580713458 -5.75215365535078 -2.56995227614987 -3.99406540100459 -3.07766991173496 -7.21655697748533 1527079
3.32422953487167 -7.69006424326043 -3.40154694246258 -4.47007454682222 -1.98392812740724 -8.58088571115309 1506519
7.48210540085227 -6.2060083802758 -1.96606351724427 -1.73840511456161 -1.74183673696393 -6.45271909837988 1501220
1.78410796859225 -7.65243647078118 -3.22722343068574 -3.282223324224 -1.80076060081777 -7.62380201366974 1498369
1.16328529073674 -7.84970513978389 -3.77346444118337 -2.55821735734033 -3.14775116620646 -7.98828251476124 1489933
4.80404362979564 -7.15400124708841 -3.74954319286237 -3.89743024808159 -1.86303581187055 -8.14895562004278 1486053
3.27065699404475 -7.43394062632153 -3.55635334245797 -3.81067516446218 -2.19196460700657 -9.7053850148859 1456593
7.99251972125314 -6.92436780035298 -3.61411282727758 -4.30742914041738 -2.98582347084864 -6.83970889609832 1449348
0.924109629995445 -6.80893460230498 -2.68299483881456 -1.90650685443359 -2.9621044821257 -7.06877214516169 1427571
7.68241310655054 -7.24866120310607 -3.16710797652613 -4.46425675345119 -4.42448714836984 -8.6180498088335 1412232
6.29518987775016 -8.12722976900853 -1.70460272681625 -1.6772180356762 -1.91036288594371 -3.36893540330239 1408562
8.2933175619088 -7.82710292146327 -4.12519690655502 -3.74006102890974 -3.49398539007107 -6.78851009796437 1398473
8.51451236583113 -6.94823188719655 -3.92482559877815 -4.10791696992343 -2.7004596625229 -6.13053561635888 1390733
4.44693605831231 -4.28786326884694 -2.37282366009765 -2.33136257831621 -2.01261055984297 -6.02756086716655 1380656
0.0262161261020676 -9.34974679110082 -1.66156804442608 -4.08895103519012 -1.74055379663487 -3.67601824232877 1377864
1.32091612425191 -7.53941474682994 -3.39433311015883 -3.07783283039174 -1.81773480413146 -9.22553905564662 1376261
8.24546005830478 -7.40187813030915 -4.12193605308999 -2.97873137099774 -2.04674727793544 -6.0285477990984 1371728
8.16383074818956 -7.5275820357976 -4.22359944959787 -2.74552313840553 -2.10573842469736 -5.77872815135354 1366022
4.1237948200084 -5.12458237161145 -1.12800982691999 -3.11684332499781 -1.69283283011567 -4.84992170452712 1352139
4.24578972545311 -8.59677480818811 -3.24010285835779 -3.25032305056784 -2.73635508974067 -4.69039389837452 1351510
9.27734932205621 -9.63777007562341 -2.43287501757464 -1.69451413422824 -3.49200312787967 -7.04299353374675 1347257
6.84057319074708 -5.47904884091905 -2.39553628947268 -4.30286607900062 -2.82481383821811 -8.64200876863118 1336865
0.0915572894934106 -8.49688055030267 -2.47288611519259 -2.50194536063646 -2.67557513799718 -6.51431653516593 1334220
6.53653675420022 -7.09522179351342 -2.62991490023991 -2.95374624720888 -1.91413087135611 -3.76952247759505 1333670
6.13781349477466 -7.69945223030845 -3.07921812066599 -5.20849716139271 -3.29162957392954 -7.33883572470877 1327695
4.46117501066391 -7.24944878522262 -1.271248944381 -1.74274963564986 -1.08908698232499 -1.29226425693537 1325473
3.68812908691088 -7.33063563519121 -2.68211738135261 -3.70791524370609 -2.16272651868459 -6.02282645258367 1318444
1.72064169680552 -6.55332738350576 -2.52219714907999 -1.78928817844639 -2.58114684843602 -6.97564687278911 1302226
7.08596170820975 -7.95409193849843 -3.05975446816404 -5.4538220493898 -4.34378176472283 -9.52970087068728 1289663
2.4874748692486 -6.61181956097788 -1.52881372137435 -3.41133009922826 -1.35748065045779 -3.65091826161105 1285513
0.47158183772057 -9.09861782094296 -1.60826679397839 -4.08078706752951 -2.10407655710287 -4.56329331480178 1274841
8.16202877928043 -7.66623162306637 -4.15732347536544 -2.93988180956807 -1.98473096367783 -5.89242324616602 1266081
8.05532727460539 -9.12343185573131 -2.5676485550804 -3.43863038150444 -3.03368894044218 -7.93591137794873 1255391
1.04196096518739 -8.12849510236429 -2.92582709402922 -2.42355457846153 -3.51285908150049 -8.27843078149478 1243997
4.24578972545311 -8.59677480818811 -3.24010285835779 -3.25032305056784 -2.73635508974067 -4.69039389837452 1227734
3.8579227936534 -8.01099840695387 -2.09853572695644 -3.06965863207208 -2.23101283918021 -3.588617782939 1226663
7.62182403813776 -9.44626308045843 -2.11388458040943 -2.15415408577986 -3.24247178962613 -6.89016600254724 1224743
3.45694971428174 -6.82276994071797 -2.80167640015202 -3.70024082458248 -2.28125992192472 -8.0925993479668 1211370
6.97070466693686 -6.86707479195817 -3.18310796502447 -4.57987788285304 -3.43623687713024 -7.75786682382096 1196455
2.50210028550016 -6.93510330767836 -3.60028792192469 -3.50469424849265 -1.73991497130647 -9.72692787303889 1193881
5.11205336364966 -7.81421706461896 -3.49449461223032 -2.69309128438262 -2.371691995353 -5.20047117597328 1193333
1.67337557808559 -8.13719131272949 -2.67295480388645 -2.63401218752651 -2.67136281670385 -4.54890352701537 1193088
8.34074327692262 -7.23531037211534 -4.07287344969144 -3.43282616696207 -2.40576452467535 -5.95620864970369 1187506
7.9414294289863 -8.95360396569161 -3.75860536786764 -5.59782231076324 -2.66900847075068 -6.88251195443984 1178750
5.32756298432221 -6.05368899114682 -3.75351406108932 -3.65034765366359 -3.83655645983044 -9.13277423136017 1175270
5.27973052560096 -6.64276572292883 -1.8287676946147 -3.10984405223435 -1.22640286993557 -3.96475480069313 1161581
3.5840360646624 -7.45881605892224 -2.99012450225069 -3.14124394509722 -3.33794553872819 -8.07971876201848 1161369
3.79624715898809 -7.64343312728075 -2.82702089716586 -3.43120171496915 -2.99364699458121 -5.9436314590593 1158113
3.99563616917944 -7.45277189573079 -1.22093382550409 -2.08600602598482 -1.34035886090611 -2.02285527709207 1153819
3.56095990614158 -8.19149500565483 -2.87750862812037 -4.08039914335412 -2.91069709239632 -5.67142561456058 1148679
1.79697692420567 -7.46884234117859 -3.29989080416596 -3.76928273247841 -1.38310729320931 -9.34274342199073 1145376
6.53653675420022 -7.09522179351342 -2.62991490023991 -2.95374624720888 -1.91413087135611 -3.76952247759505 1144987
6.44571325960487 -9.71393039969327 -3.13881240053939 -3.55436456580475 -4.01418427373775 -7.83616634325102 1136431
4.80111736146656 -7.73883303297247 -4.18719315558818 -6.31610337064974 -2.63881180796041 -8.81250349880781 1134408
7.95967387484209 -7.55758356177552 -2.59614107227491 -3.52850483262922 -2.3420362430353 -7.6423767497648 1133475
4.5061324388423 -8.74228533007244 -3.38154691767677 -5.73895679751257 -3.70884068206031 -7.47921097263985 1133218
3.57831462302778 -9.15048824327513 -4.61640128742767 -2.57747356374634 -2.57620920593942 -4.8500488645314 1132092
1.06207216000685 -8.09511072303502 -2.76916841425683 -2.23886021130393 -2.87507648676984 -5.93931919043633 1129150
5.56305351262158 -7.50645037875234 -3.19435997714765 -4.84147133470537 -3.45738497878037 -7.4685180201655 1123522
1.50624294701136 -8.24001022329665 -1.85122531717576 -4.42560215178887 -3.00175739397726 -6.89081524433068 1108759
5.21254047599073 -7.71236598332517 -3.74351533686312 -2.33755364959237 -2.50266452814379 -6.61852060898226 1103432
4.80404362979564 -7.15400124708841 -3.74954319286237 -3.89743024808159 -1.86303581187055 -8.14895562004278 1096623
7.68241310655054 -7.24866120310607 -3.16710797652613 -4.46425675345119 -4.42448714836984 -8.6180498088335 1080935
7.54416132084664 -6.8250734769153 -3.63607381871615 -3.70217869410665 -1.84975355722812 -6.67782675952553 1078719
3.74574664429262 -5.73948962918448 -2.83042296541197 -3.38407578270564 -2.79853437595037 -5.3432188039555 1074691
0.772830507825919 -7.45903302569508 -3.09378520697164 -1.76542725245299 -2.99810842878891 -7.2989140713836 1073034
2.02030310930886 -7.92260518702091 -3.69953416388523 -4.31604278265891 -2.10447536085484 -9.50417350772969 1065468
7.49645063929678 -7.63957366163087 -3.89112505443396 -3.69003186604871 -2.16517327737884 -6.61305149152552 1064023
6.93959728595535 -7.86013674969567 -3.69962462517852 -4.05282991239378 -2.59180611766105 -6.26530356573032 1055309
7.95721083090765 -6.56034885399219 -3.8495432121566 -3.75950965977328 -3.05371561819609 -6.82735733728209 1041121
8.24771002516243 -4.93800784334193 -1.42250037328407 -1.60320363585554 -1.92455227018143 -3.98563775113088 1039031
3.32422953487167 -7.69006424326043 -3.40154694246258 -4.47007454682222 -1.98392812740724 -8.58088571115309 1038634
7.92334782325461 -6.65166480259928 -3.76197887087145 -2.66987739709381 -1.88511406402302 -5.43551933151178 1032064
0.29559555179742 -9.03629421108618 -2.11387643270287 -4.29757868539591 -1.99163627890847 -4.36898217591793 1021705
2.53001906894576 -7.98249159808784 -2.57485735051919 -1.46514426374666 -3.16944677112477 -7.14644263284463 1013612
3.78429732661152 -7.86472314368434 -3.82055446692607 -3.94018281144085 -1.60017695370564 -8.61615732299346 1007058
5.3283823771011 -7.50196723829485 -3.34179046801384 -3.42147371152529 -2.6869083572475 -5.39392040351561 991771
6.06075907671006 -7.94167567021926 -2.21529327383113 -2.58328131965558 -1.81422928392597 -2.38036924136791 985525
4.35355187772508 -6.9294522818857 -2.34697023768868 -4.84846387776381 -1.54110487078916 -6.62150423045487 978793
1.94210399263169 -8.6568696307192 -3.0947512364188 -3.75344460800807 -3.36864337346006 -5.92669606750232 970660
4.03233547145162 -8.54506938870715 -2.70382415501136 -5.17484441479796 -2.77563368342877 -5.9805301054703 970024
6.08917580713458 -5.75215365535078 -2.56995227614987 -3.99406540100459 -3.07766991173496 -7.21655697748533 961371
4.62107159596971 -7.40935110020654 -3.87899912872814 -3.29911808445645 -1.59595027562567 -8.01087592670682 956504
5.21254047599073 -7.71236598332517 -3.74351533686312 -2.33755364959237 -2.50266452814379 -6.61852060898226 953382
6.20424631069734 -7.96636979644521 -3.60664754131825 -3.06902830812524 -2.01779986441947 -5.27238350299655 952400
5.35517807153288 -8.66328526822246 -4.18836665290369 -4.17435355699955 -1.76521270185047 -5.65564895009368 938182
0.706281083982165 -8.0135049195707 -2.66640126325151 -1.63436062447154 -3.16113167361276 -7.47215882408045 919242
3.26398785032274 -9.69851225292782 -3.99211926745035 -5.17387818240224 -4.12008718296912 -7.74011807417315 912565
6.29518987775016 -8.12722976900853 -1.70460272681625 -1.6772180356762 -1.91036288594371 -3.36893540330239 886786
6.05181496764884 -9.57157464752252 -2.17868267196204 -2.49451920265096 -2.77620304999571 -5.8304933539304 872942
6.55174898620981 -5.69999270278032 -2.69514038344495 -5.2342807013778 -1.43978893940575 -8.117750224252 852954
4.24578972545311 -8.59677480818811 -3.24010285835779 -3.25032305056784 -2.73635508974067 -4.69039389837452 850380
1.94210399263169 -8.6568696307192 -3.0947512364188 -3.75344460800807 -3.36864337346006 -5.92669606750232 839205
4.80404362979564 -7.15400124708841 -3.74954319286237 -4.0974302480816 -1.86303581187055 -8.14895562004278 823078
3.11797589079872 -8.08380301584913 -2.47186001857935 -2.335683541739 -2.7504113409053 -4.5147511602612 813186
5.16442046435058 -8.04667829261307 -4.47914692615484 -2.82106065632278 -2.0727142874042 -5.28720655939123 808030
8.66658152424557 -8.12531161178072 -4.30008564939294 -3.28038459259921 -2.3279006358223 -5.55580304323708 803317
3.56095990614158 -8.19149500565483 -2.87750862812037 -4.08039914335412 -2.91069709239632 -5.67142561456058 793009
0.127268377994947 -8.03076118198497 -2.91629804611449 -1.63459471741335 -3.18659496285446 -8.06553962744866 792785
7.95721083090765 -6.56034885399219 -3.8495432121566 -3.75950965977328 -3.05371561819609 -6.82735733728209 787544
7.06927794249483 -6.88215969222205 -3.06455908390054 -4.66030378929232 -3.49054282413551 -8.0940146933837 786308
0.772830507825919 -7.45903302569508 -3.09378520697164 -1.76542725245299 -2.99810842878891 -7.2989140713836 762958
2.4874748692486 -6.61181956097788 -1.52881372137435 -3.41133009922826 -1.35748065045779 -3.65091826161105 748165
3.12942246491342 -7.67353000037835 -1.940854269992 -2.16851239265568 -1.84495192938277 -2.84798508384899 747944
9.58471655516308 -9.70163574297804 -2.48187495817134 -1.55967921404747 -3.38342018932443 -7.09369535960581 738993
4.78256690419638 -7.8617627218812 -3.08367969011396 -6.83530430805516 -2.56409006479579 -9.51425997552488 737494
8.51451236583113 -6.94823188719655 -3.92482559877815 -4.10791696992343 -2.7004596625229 -6.13053561635888 730684
5.05279236630894 -7.64718393181909 -3.28192509860399 -6.2466153100694 -2.41869173033491 -9.04248813439012 724314
2.85370302242463 -3.85021667834463 -2.11803873732219 -2.56495652881771 -2.41848886585337 -4.65504677291149 717559
3.68812908691088 -7.13063563519121 -2.68211738135261 -3.70791524370609 -2.16272651868459 -6.02282645258367 711890
4.15104631959353 -8.02426480266942 -3.27583402888692 -3.08676983456378 -1.84655242970789 -8.96240109665232 706207
6.08417162410554 -9.67148144962338 -4.2190351726821 -5.36005103054212 -3.87528461581735 -6.94804295906615 704408
6.91894867683427 -8.68264418778749 -3.53649338525832 -5.26716407913403 -3.06922256894857 -6.24780610946377 697484
7.02102527661622 -7.14098446966112 -3.05345152259184 -5.03232515092068 -3.77667388648098 -8.30443814760138 691888
7.1416865221745 -7.54256504793828 -3.54255661957034 -4.77948409222552 -2.90982577053156 -6.45150911013714 679776
8.34074327692262 -7.23531037211534 -4.07287344969144 -3.43282616696207 -2.40576452467535 -5.95620864970369 675762
7.31885245063716 -6.20065614885055 -2.42397868416546 -4.2302246411948 -1.83301370628157 -7.23605293039925 675427
4.32932918107373 -6.97760463033223 -1.5956011607497 -1.81393750821257 -1.2333662659784 -1.65561977777078 671038
4.13669545738103 -8.6775250258051 -3.56095190764583 -2.85285037473182 -3.06083441597422 -6.81069342087812 664320
6.93959728595535 -7.86013674969567 -3.69962462517852 -4.05282991239378 -2.59180611766105 -6.26530356573032 664140
5.95050142957892 -7.17467067917323 -2.92314985958322 -5.43219570802394 -2.43447164296735 -7.37368360546432 652858
6.79999310982065 -6.2670450477587 -2.87234017183621 -4.95896007673811 -2.42347805413792 -8.10636495587758 652317
2.65538933525436 -3.82113231871664 -3.00818315170266 -3.00649440421719 -2.05926837433395 -8.64742405492782 620627
7.10406040611094 -6.67778583095606 -2.50923266548114 -1.72536510429982 -2.73768274033438 -4.26878056485162 611708
2.85370302242463 -3.85021667834463 -2.11803873732219 -2.56495652881771 -2.41848886585337 -4.65504677291149 591879
1.86067913227863 -7.3172297423727 -3.61049876281467 -3.73045966071317 -1.19874140414628 -9.75008642117953 589108
6.22496000658954 -6.15502517447014 -2.78452610320136 -4.34999693420493 -3.23407828354865 -8.32703486236145 584552
1.79697692420567 -7.46884234117859 -3.29989080416596 -3.76928273247841 -1.38310729320931 -9.34274342199073 584006
0.924109629995445 -6.80893460230498 -2.68299483881456 -1.90650685443359 -2.9621044821257 -7.06877214516169 579766
8.88586220355063 -7.9036346834227 -3.42413657927332 -3.22370469851948 -2.93743993537614 -6.46474213313206 579125
4.89801411775729 -7.3432749988323 -3.21312693360635 -5.57256247179464 -2.81330411388499 -8.38384472098078 575300
6.00952400346065 -6.08102931662396 -3.55858006063583 -5.25513309789323 -1.81699536741809 -8.03227855418193 571511
4.11186602346107 -6.12574001027214 -2.45099306298737 -4.97320208515105 -2.39361387307476 -7.30716187603134 565971
6.08832418309426 -7.54835294952196 -2.77344271789072 -6.70261087692773 -2.13933839855744 -9.40231184513198 552999
3.43362259349483 -3.00066712169756 -1.75952489113194 -2.14667889677716 -1.91877610357255 -4.05887343873309 552860
1.83760020353977 -7.1092316417668 -3.109354529393 -1.85843259692804 -3.77661290651792 -8.53699216801881 550300
9.91504744911165 -9.60963554212594 -4.49002153555058 -4.60859000149693 -2.87958939214457 -5.00221980769478 550090
5.66345066946742 -5.51109464912765 -3.36798271360632 -3.10518893097291 -4.3691284149358 -9.52861613505606 547017
4.82279776835118 -7.74809536547941 -1.33280724235299 -5.20935103455817 -5.02297420200934 -9.7524402232213 542958
9.40358913256201 -8.33847472233908 -1.92972817107222 -2.20943838844666 -2.36004034402665 -5.18525919335577 530893
5.83896918991349 -8.20544995954759 -1.25389638304061 -2.4088318584804 -2.96380561119947 -5.23612923352688 506615
3.11567603294502 -4.51348067245369 -2.77736670125578 -2.90467437400163 -2.71338701867601 -5.05534018572258 504137
7.9414294289863 -8.95360396569161 -3.75860536786764 -5.59782231076324 -2.66900847075068 -6.88251195443984 499056
5.00321340627328 -7.75828773726145 -5.54139976622268 -3.99885952092252 -2.43735681061775 -6.28026039462893 497805
3.39600099739189 -6.7879305706973 -3.31091470672067 -4.22263935465121 -1.27763290713795 -9.21584550548341 473903
6.13781349477466 -7.69945223030845 -3.07921812066599 -5.20849716139271 -3.29162957392954 -7.33883572470877 471505
7.09081744721309 -7.6730917222115 -4.45326178065782 -4.56642410903635 -4.93479053079673 -8.87501253684005 465925
7.31255376793587 -6.45665889479398 -2.92022524026491 -4.84972228285229 -3.03532930278814 -8.60679238098687 452918
8.75132414740423 -7.88760271949558 -3.34588689833798 -4.12247756115846 -6.05268180795066 -9.53162801073294 451032
6.49817344137075 -7.51869595226416 -3.38720365745619 -4.10341173691065 -2.47244033961698 -5.54748116323353 449926
2.89311067991888 -7.38447781564843 -3.34185471514134 -3.37008928130178 -1.44747790203601 -9.05081413080555 441415
3.39600099739189 -6.7879305706973 -3.31091470672067 -4.22263935465121 -1.27763290713795 -9.21584550548341 439164
2.49671389391886 -9.72939759962852 -3.96526758358356 -6.06376339312645 -4.80771226167277 -8.77022635128099 427306
7.43561554555074 -6.63440820314567 -3.43432750610121 -3.35809608515309 -5.36075997893576 -9.56591801110116 426670
3.07494924455352 -9.27098030414896 -3.97888769394371 -5.74390702238642 -4.53476115496682 -8.23354700882165 425676
6.23962644564997 -8.1366159721645 -2.53059002906045 -4.10320839952718 -4.95102452619068 -8.41901596533886 419756
7.31885245063716 -6.20065614885055 -2.42397868416546 -4.2302246411948 -1.83301370628157 -7.23605293039925 412969
7.49645063929678 -7.63957366163087 -3.89112505443396 -3.69003186604871 -2.16517327737884 -6.61305149152552 402975
7.87039391214062 -7.23284229943989 -3.39885756762577 -4.9889668002475 -2.0042900035542 -6.89624745823471 401745
6.80585978115668 -6.23496295833223 -3.98901339825882 -3.327428791145 -3.2787495857561 -6.31836156955321 398004
2.4874748692486 -6.61181956097788 -1.52881372137435 -3.41133009922826 -1.35748065045779 -3.65091826161105 393607
5.16518373350853 -8.03077856503094 -2.72973809647759 -6.98935396097268 -2.37278885246183 -9.5274781664478 391056
3.59312451301957 -8.85766214414501 -3.76691952836028 -5.22671440304955 -4.07741054617418 -8.84688004268209 390710
5.11205336364966 -7.81421706461896 -3.49449461223032 -2.69309128438262 -2.371691995353 -5.20047117597328 387682
0.0262161261020676 -9.34974679110082 -1.66156804442608 -4.08895103519012 -1.74055379663487 -3.67601824232877 374139
6.55174898620981 -5.69999270278032 -2.69514038344495 -5.2342807013778 -1.43978893940575 -8.317750224252 371380
5.83004778849663 -5.99087551883141 -2.78631552825447 -4.04434569163991 -3.17539681985236 -7.08307957148799 366705
4.80404362979564 -7.15400124708841 -3.74954319286237 -3.89743024808159 -1.86303581187055 -8.14895562004278 365730
9.16964706373221 -9.33094668990751 -4.58015530923434 -4.72662037557528 -2.97160982751877 -5.43320113583326 357507
6.41278225592095 -8.14761459535359 -3.1604119976209 -5.17228668358853 -3.96243008207221 -7.5822992115204 354155
1.94210399263169 -8.6568696307192 -3.0947512364188 -3.75344460800807 -3.36864337346006 -5.92669606750232 351759
2.19067589990919 -7.61347635098988 -3.56805506311588 -3.97433139596185 -1.49329627300435 -9.73995914003069 349488
6.93959728595535 -7.86013674969567 -3.69962462517852 -4.05282991239378 -2.59180611766105 -6.26530356573032 348418
5.73145359681923 -5.01121716668521 -3.5488795568064 -2.36803656597953 -4.46455328784718 -9.61033188341848 348222
1.68049705254602 -7.1940396620368 -2.37987032290529 -2.42995029632263 -2.48935517957061 -4.39167319321117 341134
7.99251972125314 -6.92436780035298 -3.61411282727758 -4.30742914041738 -2.98582347084864 -6.83970889609832 331137
3.36858894961871 -7.76687327212184 -1.36740704170936 -2.32075430542611 -1.24958081757253 -1.8795202936188 324167
6.53317502047288 -4.38165663749537 -2.32047490072182 -2.02682700515689 -0.947741082600882 -3.60899371463673 323980
5.11205336364966 -7.81421706461896 -3.49449461223032 -2.69309128438262 -2.371691995353 -5.20047117597328 320457
7.48548016633861 -6.22175041898477 -2.88724832086071 -1.76064823323281 -3.88722870453013 -7.3586874388899 318056
4.80111736146656 -7.73883303297247 -4.18719315558818 -6.31610337064974 -2.63881180796041 -8.81250349880781 312847
5.21329872862878 -8.92944495074406 -3.69624999363657 -5.22059852157866 -5.34844385837131 -9.10092836425414 311004
6.24551564396641 -6.9658231892168 -3.59732528090556 -4.30239329434869 -1.62653872586664 -8.5478821951395 307856
3.23611287601605 -5.00908223280235 -3.22452171785393 -2.17335189580829 -3.03562061497942 -5.14371369583769 294069
6.29848112702132 -8.17264980122399 -2.80653276821555 -4.73352591232505 -3.15077115769015 -6.3812000194182 292603
5.83413110620733 -2.54541796190549 -1.33921467714184 -2.17058115884532 -1.67173141975365 -4.51679737629345 289435
7.68241310655054 -7.24866120310607 -3.16710797652613 -4.46425675345119 -4.42448714836984 -8.6180498088335 289007
6.81614398563372 -6.85941963135766 -3.37351369575633 -4.62670493698298 -3.35048842109567 -8.18767233018319 285516
5.71599823990878 -7.12365147262157 -2.76859211882395 -4.98193486684108 -2.71865529672106 -6.2533410304046 283803
3.04591103001344 -8.97676072388209 -4.70293842702882 -5.83329983639277 -4.25564773603375 -8.45532954201759 273864
8.57231792366846 -8.10074982887625 -2.4588630255224 -1.18614336733282 -2.48687551840828 -4.087950950272 266605
4.2636943615185 -7.30787248371799 -6.33864116152052 -5.32227263056024 -3.03150628835756 -7.75708102566144 264913
7.43584766923845 -6.35790647035698 -3.58054316785861 -3.81390654577828 -2.64673025293029 -5.84938187506624 262833
9.82441062954116 -7.83595236422608 -1.53829449038798 -0.950718042241253 -3.11738742701403 -4.35620168689143 261141
4.49197611174003 -5.66140580040939 -2.93756743268794 -3.89935103653198 -0.395706051316234 -6.19879794808152 251281
7.1416865221745 -7.54256504793828 -3.54255661957034 -4.77948409222552 -2.90982577053156 -6.65150911013714 247255
4.46881051167515 -7.89669883559621 -5.92235289355229 -4.43508728683341 -2.79236238501705 -7.00459305085154 246191
7.1416865221745 -7.54256504793828 -3.54255661957034 -4.77948409222552 -2.90982577053156 -6.45150911013714 230708
5.3283823771011 -7.50196723829485 -3.34179046801384 -3.42147371152529 -2.6869083572475 -5.39392040351561 229967
6.29324692471711 -8.3396997242128 -5.07189690255829 -3.45380569905335 -2.87404920537756 -6.23639828357065 226922
5.54138945217543 -2.95947528911926 -2.48763295884086 -2.68274353801526 -0.927733641661933 -4.79928006052397 226882
0.874402314758327 -8.86298411808936 -1.53699147615035 -4.33683903198866 -2.1545894173713 -4.43126781840414 217968
9.82441062954116 -7.83595236422608 -1.53829449038798 -0.950718042241253 -3.11738742701403 -4.35620168689143 214205
4.76371481793717 -7.43269510058647 -4.90933602633229 -4.46235786794608 -3.00326727452302 -6.32871989816601 209725
6.20135275073497 -5.12170286072564 -2.3435145539831 -2.05137003364918 -4.27524169063307 -9.1022457210919 209326
1.55015137618656 -9.21000283089653 -1.96270198587815 -4.82511831388804 -2.60495666660465 -5.02413518264395 208165
3.848177494257 -6.47849654972969 -5.25064762155971 -4.43207222539364 -3.00136054113 -8.08379351090089 200642
3.75739266089515 -7.37602791793748 -3.15634989202564 -4.90947290379544 -3.56206901805942 -7.20089037936534 199580
5.83896918991349 -8.20544995954759 -1.25389638304061 -2.4088318584804 -2.96380561119947 -5.23612923352688 189491
5.21329872862878 -8.92944495074406 -3.69624999363657 -5.22059852157866 -5.34844385837131 -9.10092836425414 186776
7.90550689164648 -7.39573047997941 -2.95468525793689 -6.56785457143733 -3.54781808025605 -9.30527082042487 179843
6.91894867683427 -8.68264418778749 -3.53649338525832 -5.26716407913403 -3.06922256894857 -6.24780610946377 179417
1.72933924623502 -0.725492192382226 -0.369768472950068 -1.03040439187521 -1.24106701745869 -3.31331863895142 176764
4.27817185389081 -8.76224584408117 -4.28519671755685 -6.98205638922972 -2.2048911502915 -7.89198093527105 171946
9.6473021189747 -9.21449459668098 -2.23550042542131 -1.40067579113949 -3.31395743575091 -6.3789193044109 156888
7.28045717743526 -7.46079418952437 -3.60503385796632 -3.84610958124656 -2.70755261169232 -4.87268941733857 156719
7.83435673475029 -7.00577647664761 -4.31105014325975 -4.30222094621201 -2.75342905017566 -6.39079235240908 146144
3.85688697869302 -7.18692800421237 -3.60959150714706 -5.89954049569287 -2.4154717825372 -7.85425927888669 144040
4.5061324388423 -8.74228533007244 -3.38154691767677 -5.73895679751257 -3.70884068206031 -7.47921097263985 143468
8.08411213457086 -5.28696237925687 -2.95446966218043 -1.7980932390639 -1.08603495461716 -9.16085983568235 143409
6.41772522786044 -5.09165217828881 -3.37548990363478 -2.20178382241852 -3.47903785930385 -9.4792206701431 139927
2.8255919088123 -3.99448165542673 -2.00999427435685 -2.43579888992939 -2.92027395356465 -5.22441784309333 139889
5.31159925021879 -6.8346742562976 -2.6341112766816 -4.51435091140113 -0.461068503525167 -8.42977405907475 139810
4.27817185389081 -8.76224584408117 -4.28519671755685 -6.98205638922972 -2.2048911502915 -7.89198093527105 134024
6.00952400346065 -6.08102931662396 -3.55858006063583 -5.25513309789323 -1.81699536741809 -8.03227855418193 133595
6.08634006840895 -6.63384024783156 -2.74950819201351 -3.94533764468756 -4.95069317068704 -8.70024929453715 127931
6.7237436675518 -8.73558748074457 -2.98501854301435 -7.32432512599878 -5.53950918414874 -9.60084368117551 127628
3.06525632472081 -4.31789330243979 -2.75034182836982 -2.46769070194575 -2.34635793350438 -4.4679037784902 124532
5.48548262557693 -8.17848430992186 -3.10312003514925 -5.52215832148878 -2.09758397114535 -7.91471660055961 119367
2.70619002812656 -3.03758618923041 -0.617613121036707 -2.65188972387795 -2.21787121544492 -4.88909801878801 118149
9.2095651730146 -5.91721804866274 -2.92121292540881 -5.73310047588429 -1.35001633367674 -8.97911052964005 115659
4.66944695156171 -6.33881615031252 -5.16532914130312 -3.71327611086106 -2.57525764989613 -7.38828007891488 114652
9.46606438974937 -9.52683835177243 -4.69934639533359 -4.64500140741991 -3.02538009601442 -5.22435578568586 110250
6.24689013668553 -6.75630775153485 -4.05360153660188 -3.98931782121486 -3.03747328427024 -5.2895638185154 107084
4.32962745512377 -6.88007677100655 -1.02950845371554 -5.34665132319098 -3.84123122421532 -7.50790046982725 106362
2.27587940223248 -8.16486294769658 -2.93884023665268 -5.27526843104715 -4.98665264283105 -7.04388848663467 104808
5.43451741799471 -4.6907264343816 -3.86170021125911 -3.81903953535899 -1.8895557678396 -5.7158131500304 103612
5.95050142957892 -7.17467067917323 -2.92314985958322 -5.43219570802394 -2.43447164296735 -7.37368360546432 101518
2.62447225016875 -7.62537136851362 -3.30418604868205 -4.81161934131475 -3.95266310361767 -7.29749640903812 98968
6.08917580713458 -5.75215365535078 -2.56995227614987 -3.99406540100459 -3.07766991173496 -7.21655697748533 97065
7.15463492494064 -7.05541595084478 -3.48879491686552 -3.5770653526799 -4.9051609576807 -7.91880683513487 96480
5.12245899260655 -5.55543783878312 -3.02934941920996 -3.73795394231776 -0.421568406346396 -7.29805434539193 91311
0.519704095401452 -6.85082828172712 -1.28726301636695 -3.20272269727695 -1.59582514288475 -3.57092431892386 91309
4.43122675737143 -5.69807296024749 -3.90508093595876 -2.90450320066356 -2.71426352841473 -4.5569282190115 90181
5.07869125476631 -9.64748175912943 -4.68458493615501 -1.7971806359994 -2.08130544794191 -4.76718792749231 89096
2.1131653381646 -7.28494103917937 -3.63600536476762 -3.74536047481948 -1.30458547676104 -9.49332257031058 88281
7.52800869438251 -7.01016061808382 -5.4656524305104 -5.13799140180621 -3.67998153852627 -7.73005133230699 87638
2.73326702577904 -6.58726164492972 -1.76981194812537 -3.97453253946249 -5.01781311348521 -6.97902467146716 87535
8.35056237785647 -8.19935060390817 -2.82362380761317 -1.81858643461055 -3.72969422880492 -7.89974402853982 80780
6.40947027125558 -7.84353329684772 -0.204955054521727 -1.63205484375081 -2.91032205514659 -1.62744601085258 80487
0.41935104215487 -6.69889598726233 -2.45202573654495 -1.52444133815823 -2.83189468288931 -7.19913515401748 66961
2.68604568279299 -4.71062664264415 -1.4736513440475 -1.79464815798096 -5.41118257527669 -8.05082967238511 65951
4.76757445192798 -7.56591965991122 -2.34859351204997 -4.85428841707004 -0.454243223472317 -7.87262783436849 63817
4.68237874527892 -6.60466336833673 -3.94224910470181 -2.00202476255706 -1.85251434771241 -3.91721270735705 62249
8.07810095873853 -8.86145798070344 -5.09090689545057 -4.84056927803094 -2.9289692848891 -5.89767485489731 61993
0.589177653359216 -8.84559058646222 -3.04336870363224 -3.04258595298293 -4.41558806337788 -4.52902248868512 61315
6.67581051574348 -2.27860954244675 -1.47567358508967 -2.41982617916571 -0.909797693817768 -3.74318255022807 59555
2.26189427151236 -6.74828945651682 -5.41544039769102 -5.82042802861455 -3.82437893237219 -9.42717877689357 59359
5.43451741799471 -4.6907264343816 -3.86170021125911 -3.81903953535899 -1.8895557678396 -5.7158131500304 58480
6.31006506154591 -6.17038091068313 -4.40891123270004 -5.17827119992202 -1.49556675342829 -9.08488640368247 58055
3.82343451642549 -4.08403131779652 -1.46631219270014 -3.66937162969592 -3.04335346667653 -5.94960423807681 54656
5.57655989128152 -7.129992350093 -3.60837050838016 -6.02409039736872 -1.34409309881499 -5.78500282150474 52023
8.04584787795293 -5.0784398013197 -3.84573455739191 -1.85912988295805 -3.81398391348877 -8.60059098561496 48272
0.559545156925568 -5.42163795202691 -3.66078011321905 -2.87886548863578 -0.20252165166873 -5.84378293276778 47236
2.63075160087528 -9.68474487851898 -4.13732402631046 -7.59661922669942 -6.64207660712855 -8.33751128951314 45820
5.12145997645734 -9.4951723010714 -1.92621528935829 -8.98037308429336 -3.60858184710838 -8.87733277403761 43691
3.76267882792969 -9.13678124018359 -5.6095221998643 -6.22589980449135 -5.52914765828422 -7.9208021124129 43530
5.15291494875988 -5.81004614419311 -0.438177092344853 -1.64960158128797 -3.00744854382715 -3.45058549843383 41987
0.266923298462482 -8.05360364646682 -4.4659172435571 -4.29961131029794 -3.66848162345153 -5.03292627161195 40369
5.67810116265194 -8.03948207530098 -2.91106655870253 -8.43865904457985 -1.55517872559929 -8.70239011424696 40089
6.09268540437269 -5.41314302864472 -3.93428345050087 -2.92498903214339 -4.3068001125914 -9.23226547003274 38984
2.89697753189242 -5.50030966407014 -4.6341684709862 -2.81000775025172 -2.09772926554049 -5.48889581662056 38280
2.96626505945317 -8.32643443295171 -1.42677312817519 -4.46304132628033 -5.72150582332445 -6.00194731671856 35991
2.21887467484887 -1.06188018957425 -0.982747505987728 -1.69057298436758 -3.23423762692645 -7.70759240115945 34470
4.12173691146478 -2.63629136114632 -1.45052420539808 -4.28151236619977 -3.03038188537337 -7.14100948045372 34270
8.3005784719884 -6.46348151634066 -2.91860128548478 -6.42950195430094 -1.40282442835393 -8.90788364561782 32945
0.00308769473787551 -4.34758812671343 -1.63274600270857 -4.11305547648792 -0.756931173641476 -3.68448259689418 32861
2.68091463147068 -5.96579867017333 -2.67392376302288 -3.58846422609392 -0.321416460899752 -3.04118498423317 31788
9.26885206117658 -9.01409813440062 -2.80934457721064 -2.53100676102687 -4.39509843673286 -8.01769749359726 30705
3.99454970548658 -8.91990115040597 -1.27590352254711 -3.07463260858841 -1.47675842161668 -8.83019629645346 30460
8.5229939539853 -8.18317962719531 -4.20875707052215 -7.18289577424427 -2.31664618653132 -6.54762361323812 29422
4.49243234744949 -8.21708260276905 -5.36305388226925 -2.41088357693229 -6.17970236670525 -9.86436824197468 29273
5.09631352272739 -6.4816618848089 -1.65760060735998 -2.87698473159345 -0.998146690492135 -9.08224787120099 27369
0.901857145606465 -3.56041087291684 -3.2862022920539 -2.44967225643176 -5.16198328279832 -9.10431297980124 24936
0.469898010832218 -3.66569904003503 -2.56298632049116 -4.65722173644043 -0.834810987478277 -8.77012179758777 23104
4.29407240683352 -5.1886884770527 -2.67653463039666 -6.40337049474865 -3.14589470750283 -7.11153890606867 22490
0.477836695330387 -9.02646450338967 -5.6226695479722 -7.22608104496415 -6.97743054977045 -9.5030282000992 22197
1.05258288495583 -9.75618638363765 -3.67253146567716 -6.04788911289352 -3.10841614921764 -4.30645622337791 21725
5.47737777064367 -4.6024772096282 -0.466317071149705 -3.0271019602997 -2.48891797697682 -5.39873776691736 18213
0.674471424688232 -6.49689550391367 -1.66620562474949 -1.42457795763211 -5.45290958582097 -8.72247758198072 18103
5.88318145542678 -9.6214460572949 -0.875194043551705 -0.291779478976415 -6.44459265538591 -9.87704155117589 17432
0.425755278756821 -8.21656476283015 -5.97409245112401 -4.2198238322387 -3.03294489531981 -4.02057723882719 17002
2.81702648964327 -5.22290649313943 -2.44813839944209 -3.60201896540015 -6.85046535226781 -9.33478570854985 16215
5.15308859454515 -3.8757129469453 -2.28979226549855 -1.39680915188725 -3.90127375903222 -6.63764221129312 14572
6.71987931785507 -8.63185610492428 -2.06272883884856 -7.23287752715513 -4.83313643815132 -6.93403984355403 13912
0.684336351052302 -5.69606785814744 -1.37169044551873 -0.889100985185256 -5.64979541370104 -6.57183860377404 13713
5.3402730500138 -4.4766080393657 -2.74915573036309 -0.272769104520833 -2.23992907181045 -9.22734932492537 12435
4.37890949595854 -7.37150762493148 -6.17669832223591 -5.49515923126995 -3.25316099888704 -7.99429362284064 12406
2.05671743078382 -1.53727634330008 -2.76588376489235 -2.55606382253139 -2.97452111511296 -9.81613569000338 12395
8.30412537527102 -8.07463240723741 -3.46629455317287 -4.82867014575985 -5.93949756222676 -9.54689406953646 12104
3.74585930090277 -7.99086178454615 -4.63858362322739 -2.35300313868252 -4.81488301418867 -6.33670987874089 11690
6.3859088821419 -4.9378515662118 -3.89547606035497 -5.36085832413884 -1.04525378630726 -6.95277224229741 11116
8.77553572405763 -8.37403432658046 -3.30037341282896 -2.10163794729572 -4.58891035527232 -3.27037198748498 11010
6.83038569192578 -7.95623812983333 -1.47336483031593 -8.28585537220281 -2.82867978960019 -8.79889714094847 10282
4.20059280214615 -9.23076654645698 -1.80148690918528 -1.64969456741703 -3.87239767750268 -2.1723916580111 10065
7.52347865984005 -9.80804989333719 -5.92093647833592 -6.38729513677414 -6.08574178588249 -7.24316182178139 9872
6.20195918905079 -8.18119927769136 -0.505717939857489 -4.07356445702141 -2.01712563864324 -9.82886064934997 9825
9.30106326102352 -9.98168917988518 -0.981815506245334 -5.9147323482807 -1.1942707844462 -4.30640475582706 9576
0.325309280389567 -7.12298339231908 -0.768231159446093 -1.42290204492573 -6.42718207269889 -8.31847852626676 9567
8.81041465706513 -4.61873451771062 -2.33161209593326 -0.515312281481594 -2.60835143566323 -5.2950716130526 8972
3.83038357713195 -4.73966514587232 -1.35618328766329 -3.46296245114193 -2.88843172596531 -3.22617507827017 8919
8.03674277518524 -9.37912673115338 -1.95273014318809 -8.01839684539867 -2.9234526589187 -5.80560291374891 8621
7.4991760183345 -6.57135806333759 -6.36570333969185 -4.89989597337387 -4.01299094269383 -7.02914126052302 8537
6.5767266709425 -7.37012547046077 -0.447848966775328 -6.29677976734925 -6.87876463994477 -8.91075134829245 8329
3.77359968405189 -9.48470770715297 -3.27047900519222 -5.40347155576965 -4.07124703909355 -3.14100626329348 8206
3.26147002685969 -5.85872378369684 -5.15356513226207 -8.28213223397338 -3.17052028197426 -9.92147769622795 8063
8.16144327785224 -9.63637551793861 -6.65625557348763 -4.71102907867323 -3.87693220880876 -3.43963201026205 7080
7.07055971112868 -9.19138574118978 -4.53517789331328 -6.58352591868051 -5.58401048427143 -7.29548437014732 6709
9.52727997725685 -5.32202404967432 -0.239915020691058 -4.22777997276811 -1.34754304501593 -7.33890886900644 6471
5.50204896935557 -8.15244955220493 -0.411753589930924 -4.44251423972692 -8.0658862885897 -8.84859379858732 6224
8.41159496619619 -8.29307085333173 -3.96071979542754 -4.70713097737389 -6.19456096981187 -6.2961625532841 6171
9.17549223227397 -8.58582827114844 -6.92571798120226 -2.97643876075076 -0.878272990194909 -9.43006850361327 6170
0.0166012827234829 -8.01555141645973 -2.88999005852253 -3.88142313725448 -3.33606992000913 -3.63371629800316 5686
8.8335867223454 -1.99091511627273 -2.09260520435973 -4.81961133616906 -4.76781536139314 -9.98077244783307 5680
0.850594508207271 -7.69929574710386 -6.93659444633558 -7.10291418426064 -5.54278474513637 -8.05146965145551 5679
8.61715423766495 -3.77672345726852 -7.18213015225923 -4.24848783597621 -3.86290925042445 -9.11932818060778 5318
2.74516204218018 -7.67354996723932 -5.83752491297009 -2.11724992848654 -1.1349149616721 -4.019709917259 5193
3.44692467072479 -5.07983103657845 -1.96275619463366 -5.94562718556084 -2.83773445437962 -5.25978190759804 4758
4.9590177688453 -7.0145226283046 -8.10523698428689 -5.28800376867428 -6.73471174902355 -8.96750293733423 4694
0.166507230253971 -7.51163124661155 -1.53018497130471 -0.677433893651774 -7.090328306922 -5.76401552439533 4463
9.08983413460678 -8.15342156267293 -0.867788688022046 -9.24318356311291 -4.19447714256079 -9.12871967465998 4260
8.06079685796593 -9.8311175425721 -1.26176047634829 -3.51852500870079 -0.0155596180146699 -7.82098363939368 4085
4.65610303087819 -1.45926121016532 -2.66805342789096 -2.69531601907375 -4.36454570646275 -9.24580917870307 4043
8.15817546218194 -5.02206794194969 -5.59055708915621 -4.74168015459076 -2.34123629190243 -6.13084807505844 4023
1.40424005225963 -8.00510521379611 -6.34525900531905 -7.95355517361695 -1.48911784765181 -7.13307970935626 3911
2.05726682105236 -1.57906420114222 -1.67522057116892 -4.19502958223344 -1.06257233248579 -7.5425762697025 3678
2.94660186089035 -9.65842771159269 -1.03883633829783 -3.47458055819748 -9.76449798282359 -9.02187711247068 3508
5.12279775226258 -8.16403510457817 -3.82440081206033 -9.56202449512654 -0.728954445059789 -8.66023503640269 3471
0.607144560396063 -4.32096476861113 -7.03808686173809 -5.40832928310847 -1.70946491292614 -9.15824462003426 3424
4.78497793337363 -5.61449479603189 -4.75828181843929 -4.26757096997685 -5.50208852300708 -7.90231934385827 3383
4.13456768544156 -5.83473708611597 -1.80054578210568 -2.53916230739905 -3.18401278746263 -2.77486668982517 3317
4.84660065339142 -8.01938998222062 -0.0534976955638666 -6.1907532937632 -7.81347888806268 -8.9199076143125 3258
7.3677950973515 -8.7656716198487 -7.15553210189349 -3.03752044341478 -2.19664551090986 -4.34937251205988 2807
7.20055546973275 -5.87509846547591 -2.45690755455024 -4.54856018290373 -4.70901473641848 -5.23413780654451 2773
3.4137734956013 -9.284822197958 -8.66013019425043 -3.74078208518362 -2.96172176275303 -4.93519130657272 2728
0.643288283150206 -8.16094345376511 -6.32587536081818 -9.17025642767077 -2.15199276548713 -7.35263619380937 2705
6.6409181195858 -8.99771404924392 -2.09546142995207 -6.58641670838828 -4.89991829301136 -3.77143140551313 2692
4.76914062872435 -9.29203912932586 -1.40475434937774 -6.59073575849407 -0.00589457906474244 -9.20298136142664 2690
5.30483062328211 -6.48388661808032 -1.665698446856 -1.68069182734858 -3.27469270485956 -1.02836078126777 2601
9.05395411269339 -6.07791778174775 -2.62138293163647 -1.59605219576737 -9.26619023517314 -9.49867212046607 2539
7.71951595740295 -6.86079894408165 -4.4820123148022 -4.71469022175427 -2.85494972150157 -2.57945132628665 2446
3.03045599316011 -7.22378746346225 -3.08115804211351 -6.81374251135208 -7.93607448185969 -9.0942290254177 2345
0.903915160758332 -8.63697708339315 -6.59638947087128 -6.52694264841957 -4.92402420194148 -5.78870340645854 2294
3.19852481500662 -7.40505346425404 -7.13463031484645 -6.25179341929554 -2.1166001038562 -4.78048336805705 2255
2.6285265841859 -3.29783839005771 -3.61566328318658 -2.82340820468079 -5.5633433854334 -7.13109860906566 2227
0.81037414777994 -7.49291077474457 -1.11177983918646 -7.73572908409656 -1.69658103900106 -7.48725533822639 2215
9.08233024393184 -8.14484603123743 -8.73883830148521 -5.755298153419 -6.66221585195041 -7.61148842979884 2099
8.45472620537326 -9.18198086846448 -6.92159025060824 -5.51462171611867 -4.75373800116774 -4.60102124160824 2017
8.74385609527738 -1.91715694205992 -1.23097071035337 -4.08855811819173 -4.58173815628632 -7.00530911887295 2007
2.31202506385861 -9.83728094631422 -6.38688458778468 -2.98404296903301 -7.7985491032025 -8.42198944968945 2000
3.10921743395049 -9.73615241236068 -1.93004326397535 -9.41297879031132 -6.9309458504636 -8.74234232355142 1971
3.75299113455043 -7.11730130940289 -6.47986359477723 -4.29058087900724 -6.148415699401 -5.84602492128037 1948
1.76928228201035 -9.07484774129533 -8.55139662380198 -6.18901182500583 -2.82755566979896 -8.00334502447587 1833
2.59409240599303 -3.27361361916247 -0.315088435622349 -1.16429931057483 -5.18715268167931 -7.60630240602319 1796
2.45347331048773 -2.85530186965937 -4.14271370198861 -6.03332927943726 -5.27330016194227 -9.96934552878977 1750
2.63311068188442 -7.98650696625916 -2.59048508701567 -9.64885497075888 -7.40014756410649 -9.12495351319832 1606
0.11457697067017 -8.78375201532945 -4.84022003030196 -2.72724375187665 -2.10484886276343 -0.407824842720734 1493
7.76870626037299 -2.96145762842588 -4.61522060858413 -3.88555354220515 -2.96157541547284 -5.73550960050209 1446
3.28927347673105 -4.00845601969865 -4.87019289953226 -4.55696830441426 -0.538116412199782 -9.63921356123498 1444
0.0372280574506123 -7.66357829835869 -6.01245319022657 -2.60215351518999 -3.79486216297509 -3.78829564791781 1442
6.57557137414414 -3.32168445554928 -3.36304837711294 -2.84698654726231 -2.45588478357762 -2.71287520918212 1412
5.43108317101394 -6.08879637539964 -1.8570903288889 -3.13557607859835 -0.669259377508257 -0.0565451380393444 1377
9.94025539008162 -9.66568570249524 -8.08410742700758 -6.91928814479024 -7.70583213799923 -7.23299689015629 1341
0.0224588028939898 -4.70363686470215 -5.75485175963233 -7.27301118297318 -4.38203189341067 -8.44944234545035 1242
0.47830995356621 -9.58130157627561 -6.54630818903875 -7.46948787441931 -9.80571471279155 -9.83137601913251 1206
3.24460092677468 -8.07534691324094 -9.84890441866542 -6.71652567174401 -6.77684626189988 -9.89228671138244 1202
4.93584793959636 -9.18885431915678 -1.45510038271096 -5.34566429974353 -7.54992724956382 -4.68910534285465 1158
6.49408064018265 -5.55484302806056 -3.29053330088665 -3.99736486104795 -3.71743377638217 -3.07006414353435 1133
3.89315694326425 -6.48227789187117 -0.40317909688621 -1.96680333864905 -8.82053225047242 -6.09526323753846 1119
2.56002893769739 -9.46222271899168 -2.31557670181894 -0.622641143073624 -0.22668519340527 -7.52485282963335 1106
8.84070066222708 -8.4088024723749 -8.80622907587489 -7.69367071241446 -0.0672588896109027 -8.49345116017937 1100
4.30046079692074 -8.41797195064699 -5.29506868834054 -6.93508690398077 -0.0961182887661094 -2.89086064898736 1051
5.75263625114744 -7.21249395991848 -4.09624867344621 -9.94569076739922 -7.80642321186157 -9.93830024567403 1048
9.39203750192632 -2.73880826359245 -1.30350796116958 -4.06361392759331 -7.17949982044229 -8.61818034010439 997
1.72955529722687 -9.57135939483679 -2.29831240055376 -8.14309949558813 -6.84833700196395 -6.57445875757091 961
4.59636308457033 -6.54233960413461 -8.35646302262678 -8.00116924220322 -5.41897466928176 -7.99069617445129 960
2.88445149042236 -5.5473486803051 -2.18527471791841 -5.36859404750956 -8.24225980923692 -7.2578213136494 955
9.95364362676353 -8.63279438082791 -5.21260731015603 -6.94890188982831 -4.81716474861424 -4.82391903264191 952
3.80515159231796 -3.80792387246886 -4.92210753588165 -2.77403925721528 -0.924143450011187 -6.86387979336717 943
8.66861033099022 -7.41073630371242 -1.38661748372367 -0.445366777539824 -6.54391031733229 -4.09819233696737 925
5.44093282663974 -7.72771490704678 -0.058311579037531 -9.28110460781649 -5.38240286721545 -6.30535556462284 924
8.60612146525861 -6.31385067741782 -5.73697811292824 -1.90934050105913 -0.0450064056314869 -9.20385752184318 908
9.99750495827255 -9.61732156000547 -8.02899880589726 -3.75042519006846 -9.42750318840948 -8.00621523155254 892
5.15231388655264 -5.25739963010409 -9.61581863793946 -5.88045500492679 -4.10730253592763 -9.23712102363616 883
8.95299380297695 -6.25799898730265 -7.32893276979002 -7.82301017774836 -3.82740778014576 -6.52521455169809 881
7.48573562328175 -2.04698014438134 -3.53862945220869 -6.26359899878934 -2.43420097776206 -7.8027955557712 868
6.75073877112495 -9.13931050769009 -8.06846795015629 -9.28140049236776 -4.47361737850486 -6.77374091056388 856
8.42994242294016 -9.54490449599466 -1.46074361949431 -9.18532711014717 -0.674303340809989 -9.87074299348698 851
7.61701827952031 -5.1917299750776 -2.61017123413524 -3.37727466682007 -4.32238344555347 -3.24986094601548 847
6.05920873424928 -7.77812191550329 -5.33958998124554 -1.79266052774861 -4.92227937083367 -3.74312535798886 839
0.931448889131907 -8.80483563651282 -1.00021377805921 -6.5717689175095 -2.8242394038634 -3.33278082800617 828
9.63499699055242 -4.89978414605767 -1.55717281788549 -5.97882901298204 -6.20215859736477 -6.97345617291284 820
7.77274033367083 -5.8977862738754 -0.65703153352429 -5.68627869847414 -6.51107398451167 -5.59968065961355 784
9.24901010427644 -4.00887609336228 -0.986594534721742 -5.68725985974556 -0.473780381401731 -7.14778279226349 775
3.72253141407639 -2.9833173402 -2.9965505765235 -6.86336001415547 -1.3705707496659 -7.36256720950194 753
6.6723602428108 -8.93834952637464 -8.2289311844344 -9.16836679302537 -5.53677727667318 -8.57964073303253 753
1.55483471001506 -8.46210036172314 -4.34143614065658 -4.64092929105482 -6.79164136225027 -4.62307839070672 752
8.60419061115517 -4.28147128978894 -1.11470462766733 -0.0437673666567672 -6.53804204156903 -7.19137985613278 749
7.74149470375427 -6.4146604625522 -1.30951463911206 -3.81960515286062 -7.705880445759 -5.80695322305015 739
5.69549915831718 -2.8342737916305 -2.24774956381416 -4.65465402053014 -6.24041360514558 -8.43051379450334 734
0.641403765596422 -8.49622299256892 -2.81595928908613 -5.97212756062577 -4.34525319138417 -3.64605203550054 709
8.06394620337846 -0.528309562799247 -0.850888098546088 -0.143633138616482 -0.217134801062348 -3.10100835455195 706
5.50480153051037 -6.15266622879149 -3.47044206991594 -8.52990372558852 -1.01228886189294 -4.63049131704308 699
1.40735124306339 -7.13505639568751 -2.88627822420045 -9.48859480263908 -3.34995129912834 -4.89175385881746 698
3.0849906004786 -5.94645801408144 -1.03297735832235 -9.67854701952005 -1.35803133944303 -9.56694759925574 681
9.51357302858768 -3.44666799704123 -6.62330652132079 -4.69605206113849 -5.85930828312216 -9.64213794823976 667
1.47099587930451 -7.95122050326873 -7.47810019991391 -1.2240987610905 -4.39333535097604 -5.08686905728131 638
9.1596794717777 -4.13186125513808 -6.46234500381879 -2.3376526278387 -7.69721127357524 -9.67582594622323 632
9.8234242732004 -7.50372695432136 -4.69465554969817 -2.64780412108325 -9.43686870323374 -8.37922048812709 627
6.56161316200483 -7.09135527521444 -4.74239637758364 -4.6015062996698 -8.13307155980463 -6.91082768907108 624
0.912315435194459 -5.13197201805032 -1.43608524791401 -4.92337038444774 -6.62405184064254 -5.45318094403876 613
9.12130421177547 -8.42992497201143 -5.77317561039361 -8.78613303923843 -4.87310115857499 -4.68040602364286 608
6.9423434724657 -6.83801596545485 -8.26252416523693 -6.11979871953868 -7.71619859321093 -8.50397752600817 607
0.762151116920752 -4.956123335944 -5.77426355809365 -9.79304013340193 -4.76964379379592 -7.46492861040279 603
1.64863462111491 -5.28229178628419 -2.37893605619318 -9.08386598587479 -7.87674755573021 -9.9859376511254 597
0.793289192629042 -7.75906502328506 -3.61687158942394 -6.22632842608656 -4.22173314536166 -2.80649567821327 590
6.22059286251415 -1.02537236172228 -4.26009202592093 -3.89784465294635 -1.40394477875943 -9.15311071656328 583
6.22652551672563 -5.07923073643079 -9.06312553562004 -6.17255802451917 -3.73204037290868 -9.36054211420646 583
7.53332961136384 -9.68044817565985 -3.62742485325996 -4.60139441005901 -4.57887948192773 -1.68872985375316 580
8.4139537119749 -3.43714785519278 -4.8167983918304 -0.608836881307204 -4.30915285790005 -8.84250765067833 574
2.50118811301482 -5.03241583135526 -6.87173632931837 -5.14918517899876 -1.10265021112727 -6.21604634288585 568
3.21264397553712 -9.34810263690382 -6.14530510090955 -4.5673779105286 -3.61838450372045 -1.93648213802301 561
3.58163336597251 -5.22653973958067 -3.90572217476964 -1.91954923416342 -4.27290377793462 -2.67406368110669 560
6.83373170011999 -4.32470533317256 -2.97829584618348 -4.11280250932796 -5.27375045858881 -4.68664955570628 556
3.25991671799554 -4.53649207081211 -5.69816689994046 -0.73512478051535 -1.35814374805541 -6.78862465144458 552
6.12246583064763 -7.4908809149817 -5.73120360288915 -8.06129224759642 -5.87829706029307 -4.55524979273786 550
4.16950500624812 -7.19221111956038 -1.28847316701225 -3.93530323700907 -6.13534675660004 -3.04970684842594 538
2.05117707076768 -4.97828388365969 -2.91883944039541 -7.61997921941943 -8.6771461713551 -8.55063056279851 530
9.43694643970455 -6.83300019577859 -3.4009025125005 -0.456029018060673 -4.39986958047242 -3.01591329567954 522
3.38277322583925 -6.2368228175156 -0.584519630919789 -8.27648252091962 -7.10212345302183 -8.62013556643542 508
8.62041659848838 -6.66315069703245 -7.17412617481451 -0.726816307314067 -4.51046875234587 -9.86943681999068 479
3.29409401958326 -5.37151553567433 -7.08406127447611 -7.16485114691839 -3.30510546654994 -5.09266388426894 479
2.17066988397181 -9.6218642409776 -1.66912699119984 -8.24837216190672 -0.355999720102013 -2.66433366629318 477
2.32650291027406 -1.681565145246 -2.54690822600317 -6.42247289528059 -1.4351060782761 -8.51490768827338 470
2.41373888072356 -8.82496676233566 -3.90994713368654 -1.42403667259391 -6.41624848508671 -3.5486437954119 467
3.29283160246027 -6.90063111068403 -4.66852722709273 -1.11760854899109 -9.2609729098192 -8.67972826745299 455
1.21416906180006 -9.74190201989118 -2.18459686077861 -7.39181061030286 -7.39972120812716 -4.40183913245851 452
6.39108513928383 -9.19363445799476 -8.48574519679193 -2.60347606120351 -3.49693091782456 -2.46260763743592 443
7.38091365679734 -2.86437059765485 -8.33255890160284 -2.84838059520071 -3.31181513772979 -9.5106341520328 440
0.321235271937966 -9.62276340860613 -0.190122863539622 -1.38879173409397 -1.69171619852351 -7.62836523748255 435
3.38495448526268 -8.36165262281239 -2.64889060670094 -7.16726872695451 -6.58950283514971 -6.63626723475308 431
3.53985080142939 -2.27468210949894 -1.84490855918251 -0.712732674561078 -6.03734002979372 -6.02278697270942 430
6.35715110699004 -9.53935694997008 -9.32394812799417 -7.715985498689 -9.30414799516125 -8.37285616946806 425
2.38947368608688 -2.56451676263968 -6.16110268631107 -3.61293877035548 -4.54389441723432 -8.11682012709669 414
2.70220220537438 -7.55879306490709 -4.42606897442162 -9.66462911432017 -7.32809456706514 -8.57668986714088 409
4.82035342033325 -8.25070404719607 -9.9001667706781 -6.9463695109426 -8.72173337193264 -7.13668793673135 402
2.40124672513929 -1.80871837197129 -6.68675563969946 -3.65668626979545 -5.38398999930763 -9.02634042435957 396
9.80149685981482 -7.00405560520938 -1.7094281336618 -5.65844895703209 -9.72004479662653 -6.7553425103847 396
7.84715827796383 -2.28159476693804 -4.08486394963477 -7.01713309837524 -4.08788554082938 -8.0329107526482 392
2.77699206961776 -7.43076864047809 -6.60417904266196 -0.537004741792973 -7.34756268367355 -8.29511832656951 384
1.17854607978204 -2.27455534307462 -1.55469222404225 -3.27520724664328 -9.33853697199098 -9.80894764338539 381
4.62216695482973 -5.04226926473852 -8.61670171962044 -6.50789263330865 -3.6997630915558 -5.61186072034566 381
7.48779187089382 -5.6915672826542 -0.832360674477197 -0.203685954241048 -8.21445008414244 -6.64705437850251 380
3.18579004774392 -7.78363688110361 -7.5604516046789 -8.7399197632443 -2.58267666876276 -4.41686884612294 368
0.66784293220667 -9.51827497693082 -8.63214248544597 -9.12847826913046 -2.29954123392296 -3.78318367168642 361
9.53245618896833 -9.20053392704987 -8.52681827399701 -1.68409995972234 -1.12219804362477 -3.73833292668182 356
0.921910375140706 -7.48816921109662 -9.23860514580442 -9.62264929798232 -6.56971666137071 -8.57089202550884 354
7.77746595411971 -5.1141975328627 -1.54727858869543 -4.22807593810966 -9.49197229735868 -7.78177831948097 352
5.15349272893745 -4.42784642922563 -5.3941646883731 -2.37524438281129 -6.84236944140911 -5.49434060834803 351
4.66501613646016 -2.95603096075723 -3.60245756047543 -0.177478969987233 -1.96193477982356 -9.87844994741082 348
2.2258927043174 -9.1541194589559 -8.66304665973155 -3.9042154294759 -8.72325965200852 -7.73592991424199 348
1.14338281199103 -1.67771428674418 -1.65051973609854 -3.59710204455684 -0.0657787888519123 -4.92922693716179 338
2.59086363478446 -8.69104516145516 -2.88437105943607 -9.64583126246209 -3.51587273212756 -2.54354712430537 330
2.46163058660677 -4.98299929770565 -2.8187774874947 -7.62914373141134 -7.41898549461989 -7.17906500308016 327
6.93600087217561 -3.17524277122264 -4.42313648952486 -8.30503524142838 -2.41321453431432 -7.7001207366063 322
0.374707483810282 -4.40776462851252 -4.50449300235709 -9.36347008527763 -1.49343660565803 -7.79646255808739 320
6.1366210444753 -7.06471427475058 -4.56918564320869 -9.174839468294 -8.03606293085885 -6.76432155852321 313
3.89877336010822 -3.47604675571402 -5.28515017337513 -1.1135816151115 -1.78253992917516 -3.47346117271696 312
5.77001157817428 -6.16809935435176 -6.93699378380946 -4.19419439063765 -4.61436583177233 -4.96890940558207 310
0.0733734670625596 -8.49155827497224 -1.85746766829558 -7.92951574611229 -6.42042897014695 -3.78983527512746 310
7.49915685953241 -3.01028614661265 -1.28074575547868 -4.43152823364112 -8.2826220157497 -7.18939617591475 308
4.65141366155077 -3.98099305006383 -2.04151175634455 -5.68075060702046 -0.691466524918346 -3.12083571525822 305
4.24890204776778 -5.90127844684057 -2.78232698915418 -7.31291366866249 -0.0888067587352547 -3.04523389420666 299
1.6904354850678 -5.53116993890377 -2.86959977935505 -3.46481565294594 -6.27948104599993 -4.84279372220256 291
5.9888239558418 -8.44978012289975 -2.46893863233999 -8.75554201783047 -8.55227679881706 -5.91294363699759 287
8.98638816194552 -6.35991882388358 -8.72679404114551 -9.50129876223965 -6.79492498186432 -8.33901043297377 287
8.20043532658808 -4.60307105439114 -5.23937275903419 -9.9410407986674 -7.17704431524064 -8.60341939221375 284
3.96319693030779 -5.32474629220286 -4.4330092218455 -4.74176466851858 -2.32395412768325 -2.18551330883038 283
7.12212703880856 -7.12341547148654 -5.6467010976956 -6.38759277779471 -8.98984830194961 -6.76304620998207 278
8.82592908859105 -7.07153304042532 -4.3171590508482 -7.29673198985316 -1.80615258615495 -2.46896453706388 275
1.61602876660237 -7.50585707276926 -5.34195432241931 -7.97849687587566 -0.85143184289479 -2.67586594781408 273
7.50615258367687 -4.90572560581619 -8.57039259605559 -1.94284762022433 -2.37804445180777 -6.5254765602119 273
3.46157205718227 -9.33965198383604 -9.84349108325734 -6.51955842729886 -2.17810583502143 -3.2415875659398 272
4.78617171676779 -0.797842836337375 -2.25492697800985 -5.96376071320099 -5.09758935920308 -8.52713307324933 271
3.90387842886817 -6.67614405963379 -8.1067091011335 -2.05304152684059 -6.35034911947127 -7.98979377395299 271
0.157284631395375 -6.35835551469722 -7.66969639364926 -9.89327182525892 -7.7950127477722 -9.53749601828501 270
0.107440622259152 -8.75280626785936 -9.64353793188149 -3.33649442802068 -9.6749872298897 -8.67066846122578 266
0.0335341447895609 -5.61894259536161 -2.85795816364001 -7.26900697850502 -0.6729322747097 -5.08173444330949 261
1.02995463684139 -7.38396109826711 -2.81864925798753 -9.20011387940338 -9.87690206391705 -6.75888375721945 259
3.45477448550207 -2.97816470557757 -3.21583452604787 -7.1342944427085 -9.12674362821868 -8.19265869916639 259
6.8387290572375 -1.66639673506181 -2.03950719742246 -0.960949666260559 -2.84340257933767 -2.3636604177928 255
4.94548828252968 -4.54925737925828 -8.57172946946038 -3.6442272450974 -3.12373598108178 -6.10693386051187 253
7.6317006277984 -8.09301927581566 -4.53912339943728 -6.43303931491833 -4.68957383077697 -2.46017477365485 251
7.9251312138537 -4.92011082610632 -5.31372857961867 -3.25732067101 -0.842125640417336 -2.39126007225219 250
8.58490245244606 -8.94592403401702 -7.35622630459518 -1.93165813650709 -3.73758020614801 -1.32987850702259 247
4.59584052015234 -7.5518751399635 -2.84026505164377 -3.57558253510021 -8.78290177413173 -5.84192902447144 246
3.87742222992992 -2.51561833044606 -0.455730025587871 -2.08001253426884 -5.02194393723557 -3.88804483568519 240
3.70162761885689 -6.37150212728911 -8.96432346569669 -2.83844670265235 -6.30005254314149 -9.12329950826611 232
6.42702671970706 -5.827623807928 -7.81463797017928 -1.5832909436199 -6.94890636860521 -7.42119507916008 228
2.6240206107041 -9.70568243258018 -2.94851303413948 -9.62730846369863 -4.71600270588292 -2.9636298773221 224
2.21494926241149 -8.56435657991031 -7.29220603621953 -4.37865752976584 -5.26766314553231 -3.05701411617757 220
7.57914848042113 -4.54278020097155 -5.9040668147554 -0.582679853379183 -4.18197828103287 -7.72089500158598 220
6.80314435088865 -7.21848200086892 -4.73720008691086 -5.9011934772049 -2.71720120244747 -1.6642566025137 220
8.49275150010644 -9.29953674853715 -4.07503542504888 -5.46412883167292 -3.10360298100171 -0.921153255586839 217
4.8458140795662 -2.61358387250366 -3.27612166720969 -2.99816886539408 -9.03062565217259 -8.34868647421633 216
8.05765898783247 -5.93119142991954 -6.43936790210635 -4.71465208594587 -7.73475008499665 -7.79568784673067 213
8.85223986927721 -6.4215976423447 -6.4059899129298 -0.0423175806242681 -1.0348617572905 -7.15724040517676 212
2.57692540369276 -5.29817778451084 -0.769841930300612 -0.379974508619226 -8.26682098211164 -9.07833763816394 212
6.98105382611761 -5.40377581331879 -5.292067140581 -6.49731958478335 -5.84911031111424 -5.50908173857151 203
5.45537505625801 -6.89580902746463 -2.41982409651133 -7.475270250235 -6.0479925641181 -4.33950346323253 202
9.30186648228718 -5.10099529481324 -7.96289277874257 -8.4850115393398 -6.31416298905882 -8.41091214179595 202
3.07400444732392 -7.98356393624198 -8.59967071234256 -3.94551939746801 -7.80344307974137 -3.55404681823606 201
7.29163622707101 -7.73406795728845 -3.38839714221449 -4.86814769689321 -8.93206586650086 -5.54015144811187 201
2.10260034696959 -5.70666877698434 -5.25645360823638 -4.04841394596556 -8.96567477279914 -6.33221438476757 198
1.13352824441861 -4.2653992810883 -8.15934719386229 -2.16077766455918 -1.60866836310148 -7.43995016177312 195
6.56264937947254 -2.26990026253076 -2.51280694987852 -5.51273929428086 -7.96561588644264 -9.37203940044625 194
0.283262166989082 -3.09077088528035 -6.01448931572418 -9.10855590431892 -5.29228505779829 -9.96853672467712 192
9.54652167856694 -6.71727967947808 -3.51640192548237 -9.4041371264492 -9.67634499183884 -8.31796243839719 191
7.34678375288067 -9.74681866995151 -8.23321985403403 -1.92655970270279 -5.81859893877114 -3.20620555294161 191
9.49419425860038 -2.29672059346354 -5.05825006004971 -0.92906601320398 -7.93373747737506 -9.63201000647456 190
1.12440800630166 -4.58197370217055 -3.64793850404807 -8.089545514861 -5.44130659328927 -6.60130420374943 188
1.93885159339943 -7.15677917071762 -6.05445961803148 -7.04860095326181 -2.62399593619985 -1.90360947724473 184
9.31029495032212 -4.38833577801937 -1.14212803611768 -8.28417993412139 -3.08651410960847 -3.33362977095271 184
6.04320874584712 -9.1045577495722 -6.83800166490412 -9.66786816295847 -9.22825689476079 -5.162780208895 176
5.44658864822622 -1.33546303948792 -7.50243089408908 -4.47308756057231 -3.88470614007943 -9.32292896668428 175
3.77088877161959 -6.71486006997354 -7.22323495336559 -8.38761369052899 -2.30506236350261 -5.43981625152154 174
2.31189296655337 -6.84482502358378 -9.18279852065571 -0.676766663427452 -5.38126664854984 -9.67161308593476 171
6.8418870909285 -8.89885669031205 -9.41012145879314 -6.19732887389445 -0.135182807207192 -1.94723374584163 169
9.79200382887259 -2.79488617750198 -0.621302907204148 -6.80053981349722 -9.8055087714505 -8.0833443762617 168
1.40215477223177 -3.16895287904276 -5.24998122302672 -7.56656069698263 -3.58128272767146 -5.04823265505251 168
4.96141638718064 -5.39769792905754 -1.616617225274 -2.12764377587887 -7.20151742282319 -2.63457366974558 167
1.91248595047069 -4.91796617712472 -2.99498932799763 -4.60786483098069 -5.11603417961757 -2.32270352608296 165
8.50820665853095 -6.00799510540663 -7.21584177609198 -8.93773315084054 -7.18066959399906 -5.32155700723597 165
5.18439414782556 -1.4339521442774 -1.24125909332299 -5.72673317906981 -2.63558632958532 -3.81207393591275 164
1.81384929799126 -6.8472215035279 -6.41873066137039 -8.51642821910633 -7.59247077447742 -6.35518333363644 164
9.28207633855895 -8.56170560330109 -4.88110081967231 -5.21086022425114 -0.837119963392614 -0.191278588326636 162
2.91456003603888 -6.81461809462 -7.99668468176882 -2.59142559882536 -4.06888130675306 -2.91458741254756 161
0.210411874962967 -6.73795887781759 -5.9859181504348 -8.27921016203905 -5.13142477682565 -4.47394956213272 159
1.69850972122691 -9.12270683154113 -0.807944840093658 -7.53640251174986 -6.09339284042336 -2.07295421840004 158
9.64803548840962 -5.17600977070123 -5.69548202660758 -5.64582125541556 -3.22075100498604 -1.44819609180935 156
9.62750338095431 -3.86666288769374 -7.74527522592135 -8.50085352202893 -3.34016795443371 -8.43945784748816 149
8.16773776452138 -7.09353582757745 -6.38288045976579 -9.89151264890254 -5.79986745107172 -5.02329217458779 147
1.80970459373381 -7.46223964713988 -8.77532283420605 -4.35278139927639 -4.74755595545421 -1.18933616777844 145
0.593401002537856 -5.96995467626369 -2.86190499252807 -1.1354522324708 -7.55686030881733 -3.31663822659461 145
3.20002587699265 -5.45033042224452 -7.86313174331855 -0.901387598982244 -3.65093042949744 -9.88869384025405 144
0.177837567723249 -6.92769125448958 -4.78495541126154 -1.20761356508788 -5.89188396374653 -3.19439223135817 144
1.94389756155539 -4.36489143033111 -9.19284722676236 -6.44329509403736 -3.18309567878531 -7.45397820898766 143
1.60978586014064 -8.96093742806617 -9.58624560321608 -3.15438885625158 -7.96800283800713 -5.92349800124506 142
4.98565587804423 -1.6896332063806 -2.05763106229857 -6.59784956470439 -2.38641173455273 -6.21638448115197 141
5.69581389574849 -6.9063410143658 -2.34994156036953 -0.155864587984408 -0.111561535940447 -4.62341350927025 141
5.13584592190654 -0.380202104330816 -2.42009483362557 -5.47878395803879 -1.61003644284778 -6.19288729419134 138
0.343994309084051 -4.61833030434323 -4.24827816712024 -8.80251057692651 -1.63891039427577 -4.53688899209328 138
5.10609614918759 -7.58973474056161 -5.0165884638208 -4.05739663712297 -9.78504044183614 -3.56870865443248 134
7.90570600022362 -3.10671877108544 -0.0663224930213568 -4.73596079526061 -7.46250211048202 -5.6223067275863 133
7.50226330924766 -9.25338322786194 -9.47163255015001 -2.79809042480946 -7.12548461906787 -3.46320703962126 132
9.93934079309345 -4.15404588017532 -6.77791521478096 -4.97122399346207 -4.8943500149076 -5.64098131638194 131
9.39148005821754 -8.49064550811587 -8.57319128335089 -0.562698103229398 -1.74275547049407 -3.50834235678352 131
2.75885632122905 -3.4926768711592 -9.76537276305771 -2.65596886959368 -1.23942851322188 -9.91874065894981 130
2.611120298977 -9.05030081470249 -7.7823525145644 -3.86222040837307 -8.90487462158961 -4.41423154048371 129
1.78072413457339 -8.41390895629691 -5.58901318713862 -0.432487616178378 -6.82722018742598 -2.52113483230494 126
2.22100231192733 -2.0733631363863 -7.14450384533582 -6.18913855555838 -7.41329463931074 -9.61249379397245 125
2.06687638344533 -9.27715651910263 -6.80731286568892 -8.05048678413186 -0.314714593820698 -0.343278877336243 125
8.22861783467266 -4.1363373147469 -6.8496355970124 -8.38508319455877 -2.00469941617793 -8.96821254173389 124
1.00155308163919 -5.79916321517749 -9.35247252468175 -4.51598105931453 -8.96979993796589 -7.16033167106382 123
0.366964852661478 -5.73926896511535 -5.39131742063615 -0.747987981764251 -8.77448616928455 -7.80582429351487 121
9.44021508649922 -7.39858530393321 -8.17742867100716 -2.02116683201654 -8.78492948995942 -8.06754697305985 120
0.252354780269619 -8.64401408424615 -7.48571567826494 -9.65927859565429 -1.00296021241803 -2.18196147280463 120
4.007615504692 -9.04166719544306 -3.93692795320609 -0.430950948869445 -5.98064046142216 -1.49029130433974 120
9.44667568744978 -2.11515106180875 -7.893377872179 -5.94737575250765 -1.82456025467994 -9.52078617716883 119
2.59537510078692 -2.10308477487732 -2.30073815879216 -9.49290093019304 -5.65342941393387 -6.3092320499868 119
3.27474307741555 -6.73351075106359 -3.61222922673884 -8.47785973470238 -6.45690334418703 -4.181140990316 119
5.71406900368335 -9.65956030090085 -1.01926370488254 -3.58582198535089 -9.62329088828698 -2.87658581096505 118
1.86955817009956 -6.78963311914785 -9.28124236642734 -4.07630635832843 -6.57401436508839 -4.80300877364042 118
6.60378941648377 -7.74102149739777 -1.71373679634951 -1.39408398416416 -4.57083899867898 -0.0253370336271274 118
3.50520888342564 -5.88738880251352 -7.46317384358541 -1.14434269961803 -8.41627451856339 -5.51835141214977 116
9.25743837076244 -4.66792692202893 -4.4541903046382 -5.07941833099004 -3.55705165645401 -1.96442515210986 116
6.62300551208277 -3.27139310358743 -8.11247659829991 -4.43168285812438 -2.34685225147534 -7.82590234726066 115
5.68885436116958 -8.0382468267796 -9.81153235488595 -0.248846734242323 -3.20024954937863 -7.7469706803913 115
9.71948620637841 -1.86619828416401 -0.770482460923033 -6.16607385193792 -5.45724725098912 -5.82758969349821 115
2.25109039709595 -4.26604025293565 -8.14823296680861 -5.15052580573328 -6.90149600248295 -7.80400671637194 112
7.03131968882995 -5.34796316873565 -8.19848119439776 -6.35438472166004 -7.42730724615064 -5.93854524563604 112
5.42178410095009 -7.44450836987152 -0.685087960133499 -4.03256460498162 -5.75877727033159 -1.58793242417633 112
8.80540713124351 -4.40507042938884 -1.51710720377693 -2.43744237493961 -7.17571398128677 -3.79254056506442 110
9.82035817365108 -8.48774574459497 -5.53824726062235 -1.82423716633117 -2.98251139396565 -0.190599059198713 109
8.87424052304791 -3.63621600661536 -0.195080405805267 -1.05666121927239 -7.62893258751987 -4.38051614330323 109
6.79257623055561 -3.6808303078209 -3.7101394860501 -2.03380121638777 -3.13502928119033 -1.79406459932922 109
2.53432856690525 -1.50300566650108 -7.1909242673693 -4.93444414361727 -5.52648675164231 -8.4011044483322 108
4.28576136303904 -0.902140668694096 -4.16466399159024 -6.3093220750049 -3.86410995991323 -8.56646496951876 108
4.04284230503918 -9.93408484336988 -2.57439670418758 -8.54501640299771 -8.46243407311419 -1.53420712559663 108
7.1830880028169 -6.7425348356964 -6.07073429309101 -5.22061265737039 -7.40676171531339 -2.95973018167923 107
6.83788815388429 -8.67861587420207 -1.66613194048777 -5.64100623000696 -5.37056702263309 -1.18472537959362 103
7.71978507856597 -0.753101137778347 -4.73985158955344 -3.14593218851465 -4.89827852935371 -6.54340155287736 99
9.46963082416452 -0.948751084280583 -0.465985789316537 -5.87853322191087 -7.39703595117539 -9.342097107326 99
4.2485133828511 -7.19842905829888 -9.97769321305033 -0.882669379459956 -1.20210790358408 -7.3618701061585 99
8.69178721111607 -5.07356592874547 -2.51866887861529 -9.59525608540443 -6.79720059358346 -6.67372336291974 99
6.92015570856843 -9.50674398937472 -4.11734840421755 -4.40118586071635 -7.07063677020063 -0.803666460292878 98
1.358347926005 -8.08333041638037 -3.9080057044196 -8.0842452410743 -3.27349860605134 -1.53198939245192 98
4.05956820092525 -4.03413655513631 -5.6958962971308 -1.29899865733502 -6.31579192187296 -4.16723262024947 98
5.66731501297766 -6.37504140557039 -5.52507213533843 -0.83402808289098 -0.670516260885502 -2.94523258229637 96
1.48234292038362 -8.79923599035284 -0.0219061098565931 -8.01831757283482 -6.13505524386378 -2.53094089254765 96
3.0519327756833 -1.03252674814261 -3.3561694258501 -7.39433382302531 -3.71518399656453 -9.13757869749329 96
5.62963117515842 -8.82575924695011 -6.84744815170185 -4.50036280343391 -0.215905687821591 -0.0868937351405252 96
8.11378958325732 -1.03172964753891 -6.00373682118783 -3.30618753295887 -6.44737387688867 -9.13558190844196 95
1.5539443254995 -5.79392965215484 -8.75848370554924 -8.22202802530325 -8.64572628684956 -8.88181974075534 95
8.46789307648231 -7.64685269132983 -3.70844932075001 -8.32579215620401 -0.168557199441767 -2.17808495843692 95
3.14777760486664 -7.20125731827015 -8.23188631342516 -3.98328818622181 -9.68003678812961 -5.54453481785062 94
6.23931236703831 -1.88268235743576 -9.02698463100409 -2.55668239985281 -3.75533429904182 -7.66546134621437 92
8.21686551243298 -2.09154989327691 -8.80674801767223 -3.65699555983842 -2.53392583761015 -5.49560433024091 91
4.53650238186461 -3.43789329528106 -6.0781611852788 -6.1056690085891 -5.86044831518606 -4.38375860899238 91
1.46036015846818 -7.75660933648555 -7.99377933450053 -1.61906604108245 -9.26913670296963 -5.29089865850062 90
9.5908401282445 -8.55700069460826 -3.4236826665537 -0.811099041141271 -6.15169913225286 -1.30764411910826 90
4.16553534165503 -5.73688008781985 -4.15080698557769 -0.0524302712055346 -8.65977120895803 -7.57044655872395 89
8.98103233281238 -0.619136427748306 -0.445409288855881 -2.66309680084895 -7.88964255998227 -6.85928566605434 89
4.64093206243716 -1.56962129816206 -5.53868096379427 -8.06805947088386 -6.33546142535466 -8.13725451608982 89
3.47345943290946 -4.84640302481706 -6.97650588165549 -3.21900154992315 -6.76563771693547 -4.16166930256765 89
3.26379688463971 -9.17470551829481 -5.3047607248773 -3.42227398217353 -9.51520381575711 -1.8965173659973 88
7.56772272751173 -7.75354185480068 -7.66878581657218 -0.294881807943567 -8.38963547509636 -6.6165797444661 88
7.11985939252862 -4.55880097459204 -9.14607327196452 -5.17394092325318 -8.83329518760721 -8.96821183632227 87
6.40758661806591 -0.197646679785921 -1.10396884967679 -9.76216214069292 -4.64937131532832 -9.47757000036982 86
6.25335878850057 -6.97787362981184 -9.89118172710534 -8.88506214295131 -7.11908650797135 -4.6458990518425 86
7.86481390552551 -9.30067473626129 -9.99098427401513 -0.480207923686242 -5.10569285880346 -5.7280762956796 85
8.36395223873683 -5.72300640770649 -0.72366098951114 -4.31452714951114 -9.74042017241632 -3.47521710585409 84
1.07804508806731 -0.813508120307763 -2.35897410642402 -9.26129386856842 -1.84859999383126 -6.47176459178694 84
7.65223968260412 -2.39315495061253 -6.68833331526739 -0.460441605476493 -2.8810063948078 -6.47406660783657 83
8.3355769816721 -6.44023419354748 -5.11930712984304 -8.04661069505028 -8.48310855276514 -3.94352178696984 83
6.5789507861581 -1.29404810458487 -5.98563890662701 -3.53873453353759 -2.96490165550643 -7.46258168202458 83
0.571801206167972 -6.20368811886594 -1.3817585200509 -8.75694869096483 -8.85663665896324 -2.82712848506769 83
6.80414711155754 -8.63739183011184 -1.19316832297953 -4.82396326627668 -8.05165019054359 -1.47309470801966 81
6.21469012833466 -6.18333029960174 -6.23667109379046 -3.1811696371454 -9.33204765344202 -5.1755856906212 81
7.94835616992314 -1.94749679764969 -0.81410038412678 -7.22447234720796 -5.15068797620375 -6.19535847327673 81
9.89448070643122 -5.30283190653245 -9.02127671768707 -4.64658804301185 -1.18538566235129 -4.28125818728475 81
5.11356926825373 -8.06708759398469 -7.97093693906398 -6.62924470240606 -4.53171222702347 -2.26605681640414 81
1.43178376373608 -0.422358550019381 -7.24841305789175 -2.65295102126225 -4.91430902663313 -6.89173981473281 80
6.65285495841215 -3.26328399717445 -5.38848057662325 -0.685095729461953 -2.45872183854092 -2.08493105590395 78
1.54939947351243 -5.69375327452436 -8.34468570018117 -7.00284864063686 -2.4505583390158 -4.69789422919003 78
2.01340335386782 -4.88075206509879 -8.38466519252666 -1.46471592670315 -4.30480395421205 -5.85713555123586 78
7.90192339216314 -1.82840191041884 -8.36056320485286 -4.48028205085533 -9.15410691940277 -7.38263256877128 78
2.13004798759357 -8.44612032479199 -4.19666790513825 -5.26094231793632 -6.36575389720242 -0.754083342743296 78
6.35199162457638 -7.82118046598769 -3.35246735333186 -7.90843518261389 -2.68323745442429 -1.02243209497481 78
2.46228171524628 -3.29716441774598 -6.38466763007195 -5.04303092884585 -1.52922229688743 -1.85421368931758 77
6.99109192027767 -2.70272740762829 -4.13410146777282 -5.9744195015107 -9.29981677686325 -8.30206103294012 77
5.45270486682862 -5.71676435238742 -0.926851925157146 -8.05542490987543 -9.96602219913589 -6.1165361670687 77
6.70582456888304 -7.55460685335744 -2.07505892755792 -4.79099649767676 -9.23106353516539 -1.94198259998984 77
4.86562074811734 -7.18178931635031 -9.70461329406948 -9.55020144151146 -8.16038404760466 -6.55663430701097 76
2.72597975953539 -7.97195017926045 -3.0795825538456 -6.03426849456686 -6.56937435850972 -1.75324658643956 76
4.7971062064708 -9.72888615400859 -6.795627590113 -9.43358148468398 -2.48180029256183 -0.0296703467727121 76
1.19829901404785 -9.71357430730193 -0.410949325027811 -9.82377434159458 -0.267464125892348 -2.26040677279316 75
5.02984076782675 -6.16817166527453 -3.50346673935926 -6.48936033025292 -5.67155975018837 -1.57631183575031 74
3.39990506928018 -6.99528907536823 -3.43071970130464 -9.94711093116999 -1.76685641211216 -2.22559107978051 74
4.03790587548592 -2.33966662572431 -5.35285696472677 -0.480002017199587 -1.82978912980366 -2.04750009769363 74
0.510413733304615 -1.44532325132159 -4.73151025930674 -0.259916652571188 -7.4542359369724 -9.08808335519921 74
5.36999780920269 -3.26045929615387 -9.01804181698738 -7.84613537811107 -9.70692784352213 -8.06775726070374 74
4.39297715665991 -2.69798378603585 -7.13549485304861 -6.13704742589607 -7.44174621504835 -7.13767259463209 74
4.21911329272345 -7.78146622234774 -4.940424972456 -8.35899305313986 -4.05557362032014 -0.363474441518433 74
9.68471356205607 -7.85487340260963 -0.137263807502923 -4.17091902539736 -0.312585267150714 -6.2194452945744 73
8.11680413599385 -7.44412398577919 -9.93891821898664 -0.963886209256915 -4.17595055795204 -4.23072975877405 73
3.49000712848773 -2.76608378654006 -5.96142890617302 -6.59041814597175 -4.42418167081075 -2.69274368133598 72
9.5702354620029 -2.48675197017941 -6.04340285917983 -0.218091622069258 -0.536625816902518 -7.43912679560757 71
4.71112925071346 -3.17093694295756 -6.34186969721041 -2.83017278289923 -2.26189420026104 -2.22070279989728 71
5.34134354166707 -3.26553530838588 -3.81210675317345 -2.04812576413389 -6.3359039882521 -2.85761006158685 71
5.96114860318427 -3.10909074446866 -4.69792931972806 -7.47348078007828 -2.79235623645825 -3.8783184419459 70
3.00794111022739 -4.90275146574255 -9.62399961374963 -6.4133299815248 -2.24764476484531 -6.29374908001755 69
9.34198155335867 -0.183879820492215 -3.11663038981179 -5.83077298852675 -2.95595011282842 -6.46165505830828 69
0.686915056340744 -6.75356522789734 -0.754921290899832 -5.47361416787086 -9.38384458046413 -1.29017713532705 69
8.19899768430593 -2.89641776837451 -4.10031995029594 -9.18053615483804 -8.23092539934089 -5.49783594386385 69
3.91759999905825 -3.3867416339749 -7.33747168179047 -2.30711406000086 -3.26979660499472 -3.02218250801928 69
7.44803486780297 -2.13312178426606 -2.56197447878466 -0.312203229514164 -5.31398294240636 -4.47818169800166 68
5.75866909134322 -2.92820958401113 -5.15723295085001 -4.83292490396267 -0.797369304961935 -2.47612089026214 68
3.82591623376688 -8.94661971786499 -8.91092622726095 -8.4156921071793 -2.31282604292113 -1.12858751694808 66
2.47604598564617 -0.587567831976324 -2.12323311666727 -6.97553034568952 -4.22677094577039 -5.2989652332518 65
7.64119308644293 -7.20157975410618 -7.24056505118143 -0.502439674610435 -8.59581437061316 -7.27350713266892 65
0.348457033168954 -7.12817632804317 -6.17250201643423 -8.81297460396734 -6.21924244126477 -4.08236690504256 64
1.47131907617766 -9.5760380555166 -3.84796069967678 -8.17770145004965 -4.99192203712135 -0.0227039773356096 64
1.662480165404 -3.98307252331923 -0.292970757818229 -9.54686188146615 -6.53439006053985 -6.61256105599 64
5.88959236698643 -3.7153833850378 -5.32576999294851 -3.35633373428227 -3.06579695428832 -2.11543782912396 63
5.00559473307616 -3.99259201204257 -1.40214429556608 -0.613908426001023 -6.51977756362768 -1.84275751588456 63
1.34586185313861 -5.36220924958363 -9.37731233167203 -9.21455859975361 -2.06481327266919 -5.96324428463918 63
4.82490584154383 -5.26448729170139 -9.58005541980151 -7.263965021745 -2.53067874070089 -6.34912296930016 62
3.24529739091447 -5.60003057118944 -6.43049100353491 -2.49772311591901 -8.1084221263483 -3.27793876074028 61
1.09481868377564 -1.32854919593007 -1.25263156845644 -6.91412257813703 -7.22721661130703 -5.16719630490743 60
9.33823433491863 -5.80093893770648 -5.6891816483172 -9.57181159312257 -6.0410445636714 -2.81662463383589 60
4.79540159377579 -5.17781010985303 -1.26348328154788 -4.26950886272568 -6.47226364733791 -0.100657287241656 59
4.69523281711851 -9.02387535886186 -1.46157251670262 -8.65524880397757 -8.02070618777345 -1.3773590746383 58
4.29054947767612 -5.19906163938751 -8.95918610538498 -9.64902508431658 -6.91462778477941 -4.04011114317471 58
8.70950680596159 -4.29739823510606 -5.74579536934289 -5.79664488183018 -9.7654612270522 -7.05570318440784 58
9.41029426672717 -5.5070592117787 -6.84354095175399 -6.52958437355471 -4.6326701245806 -2.79745262420309 57
4.27341113805065 -8.78978648306521 -7.7332801806544 -0.34390306528737 -1.01360132580706 -1.81558422528324 56
5.87128588877599 -5.50734419931926 -4.23687198336679 -1.55053329431082 -8.29425448696713 -1.87296083062721 56
7.93748851344283 -5.44389771802297 -5.80245134510605 -2.19566032151379 -5.01663848491148 -0.691249494571815 55
1.20335148796524 -1.99093764461561 -3.43642284222477 -6.69349568056449 -0.871733038218556 -4.58124906820767 55
9.95150053440442 -1.0429889634411 -1.67198125916266 -5.75398890158678 -7.97186276593111 -5.24992369491807 54
1.80153921970127 -5.13768203608087 -2.24163968053321 -3.19603511774349 -9.66801638400272 -2.44739662615801 54
9.0758857021185 -4.28825322402377 -7.24193494297401 -0.581044427181153 -7.54248752183567 -6.60626699530801 54
7.14952112654892 -3.4320524783431 -3.0505418522318 -2.05372622836668 -9.39341939337718 -6.10086271330685 54
7.3391809445336 -9.9367020757988 -6.04578040012295 -0.85466641707644 -8.58770943284344 -2.9172273711159 53
5.10516572308063 -0.220101182524333 -1.33806786668719 -9.35526738444121 -6.12251365791575 -9.21163252182854 53
8.35122638343979 -5.37328037481238 -2.82874584064111 -0.54073113996234 -3.02661266379801 -0.611803165033021 53
2.19723257885279 -2.76334526734989 -5.52211326704343 -7.33374622178433 -3.71886034558282 -3.91875747970255 52
5.28793436431849 -1.68285945102047 -6.25289523183496 -0.937888697752273 -4.65903583136454 -7.89682406746159 52
9.75487728625693 -5.72280340674406 -7.02715130011458 -3.17913310339454 -1.17455099160943 -0.355614492127126 52
0.273228362428257 -7.26396350787816 -0.632294394636373 -8.2193480071558 -3.82850231967208 -0.960251750564314 52
1.82319689295819 -0.337002083659775 -1.6949899592018 -8.64166139971389 -8.33768152592968 -7.83495630540677 52
0.530633181155097 -1.37950726248702 -8.91642612540441 -3.4552895271844 -2.6338230549129 -6.92642185552935 51
1.79464894920835 -5.42020424108354 -7.9063057014143 -7.73999103682646 -9.74286859465509 -2.07034774381265 50
5.01812989036076 -5.94999775835274 -9.36361422709819 -1.54545658265238 -3.66828822919832 -1.31910901987565 50
6.63037054811386 -6.9927728087523 -9.37853383295737 -6.56907801636888 -5.1435361309537 -1.85119181956678 50
4.05401052530362 -4.79653568333852 -0.529541042838268 -9.65686882948244 -9.76042874622661 -4.1807548089987 50
1.68900917414975 -2.65400664909717 -9.33694299249752 -7.59843128139575 -5.20373841778041 -4.92816184202926 49
8.6091609880076 -1.888222831584 -7.46426706491719 -1.19324481502676 -5.67152598455212 -8.6834027447324 49
6.03592828516917 -5.13587514430755 -7.94554594398791 -7.35638697478496 -7.72028671833275 -4.61663432862645 49
2.29092762281676 -9.89123812996386 -8.02707382399279 -9.1726406939909 -4.85964695068956 -1.5482883294191 49
7.29776542531497 -5.0233231711487 -8.93008934813113 -9.80006589268536 -5.32044870983502 -3.20414016201063 49
2.73671802041829 -6.62261910376301 -7.83824248044025 -6.36685086610869 -7.95988273985859 -1.62802655262595 47
6.04067912228665 -5.39072433143903 -5.43089663828532 -7.50257139856034 -2.08260607685891 -0.655607723796618 47
1.13601970675903 -6.11547629162164 -9.84205988605658 -9.89126851466089 -6.66914365102066 -4.79979517114975 46
6.36351781988133 -3.08333118813536 -1.19813028436013 -4.57896025330645 -5.72338004057497 -2.9264978176631 46
3.54767572026717 -4.72136715277348 -7.41391860363923 -5.47745422328801 -8.14105372657237 -3.30785999605086 46
4.4836412399147 -4.85335137747098 -4.81605555513164 -5.51872070621259 -9.31443077456885 -1.95493744353224 45
6.86548729033164 -7.43498024733943 -0.403110548878119 -6.79102471252602 -9.5941302380822 -4.52573896725127 45
1.33797989480334 -5.78415423331762 -7.46863676000392 -8.7089120608925 -0.922569328070459 -3.2555288698168 44
1.35520343146964 -7.20614336123525 -1.66899149718515 -5.08446445570316 -8.25262501984839 -0.376205611352914 44
8.51676954071882 -2.56232347327797 -0.577023545663737 -7.42367070067538 -1.68834626985962 -1.25245991649401 43
3.77293636525462 -6.81424430646822 -4.15959450227318 -9.1278329875233 -0.449643183127754 -0.151860331586837 43
5.30272853237869 -9.23071709414175 -4.88782349170018 -1.61100920616159 -8.49132320185191 -1.50587064934028 43
4.97676182109795 -3.86095522155807 -8.44145752541956 -6.1410093962248 -1.98258297946552 -5.01257261995218 43
6.57496503214981 -5.04134826596338 -6.26134954652286 -8.48099126340423 -5.89163110789252 -2.01131823503459 42
3.48478635589922 -1.41663713326756 -8.08407271494856 -4.71120443726696 -0.217255441037437 -9.62069372007885 42
4.37411362234728 -8.28639958023489 -2.88876422459022 -5.6507794310041 -9.17071171613215 -0.0733517457402899 42
5.81259739235626 -7.48750708439943 -8.28450215559013 -8.58917887216484 -5.22983850356987 -0.0517180977960141 42
6.34038586806629 -1.78938115716008 -9.10962204708977 -3.99546816954406 -7.69466332358685 -8.68871467140067 42
2.14829428026534 -1.89934077706635 -9.54974572397074 -1.57620023768463 -1.16225054458599 -7.55294360002764 42
3.00521173743217 -0.783582450045456 -4.45290991381862 -5.789727308133 -6.44223746184171 -4.24468418854557 41
2.53458276434212 -0.489869214087519 -9.24317440698184 -3.57556028466428 -7.47066768625545 -7.71121984837199 41
1.67041595784661 -2.70272135585821 -2.57933822613287 -2.22226072735838 -9.19626442746615 -2.29487552855138 41
3.4590570186444 -4.70030085982725 -3.42039583479126 -5.8757704653574 -7.56894712514116 -1.32379258931518 41
6.74897769924166 -3.575577166755 -4.62727594082197 -7.73711009205815 -6.95300919470405 -4.23703617975328 40
6.13940510443719 -1.59798737254592 -1.07599858683861 -7.76865144353699 -1.14862626787893 -3.3164941846686 40
4.61958038018765 -2.13668327104286 -6.82983139401174 -4.36473065576554 -1.16020698802455 -3.43130846993514 40
0.545157027386173 -5.03817949312563 -9.52158272902034 -1.89750770500252 -2.75007682119937 -1.47223834502935 40
0.108240914594499 -9.01674632828965 -2.09169356256042 -9.95415351180796 -9.84492080611311 -0.875429109240741 39
7.31030463836996 -6.51618663111283 -7.69605278409896 -8.63100300259929 -7.69097750711381 -2.75184450615735 39
5.88888173060548 -0.971576855100223 -6.03060859139735 -5.12171656524751 -7.9866688896057 -6.45417553681766 39
1.88772588810668 -2.37300337958701 -7.21926653594723 -9.51831786969398 -8.41123795202411 -5.97786349396358 38
3.60108838207667 -4.38426597340873 -1.6492776618809 -4.65184704163184 -4.89041944287267 -0.835546803472908 38
9.56451185223828 -2.59556536271765 -0.0369943598098232 -5.90510332334828 -1.01631706108315 -6.19290415762515 38
9.93563282060388 -5.58557204748232 -4.32098639512919 -7.57844665895493 -7.50970556922178 -2.75223485528836 38
1.51435485569529 -4.72714614365229 -7.78478000956367 -1.62852535264213 -9.52346421747052 -3.60169712058398 38
2.80727781837046 -1.37847803898391 -9.90614357743348 -3.0970483133245 -5.78135921758456 -7.9269518897001 38
7.00854917497508 -4.62501989539538 -1.06175347360732 -7.9786996457856 -6.07861487744373 -3.02019886807489 38
3.91097941747952 -5.14547118453391 -1.93545046675853 -7.59746583067023 -0.507688285454254 -2.01017754939945 38
8.01310397366313 -1.57502013001975 -2.70836277443666 -5.43676227951852 -9.20182181390228 -6.99616706625052 38
3.56020245290905 -1.95753543027261 -5.88820646986032 -1.94923230680492 -1.56679997008454 -2.26037175734508 37
8.17497270967848 -0.240551370667039 -1.07561204601546 -6.05059656936947 -2.82829482623914 -1.84724926973438 37
2.98575835636728 -5.28034853387116 -9.5617866546377 -1.80748689911011 -4.79276403808735 -0.223129500841151 37
0.375983228383107 -9.65364141965345 -6.59739390093701 -3.49857870844432 -9.67308286557293 -0.560857950116499 37
3.43925622597676 -3.30048235534085 -2.45692041627846 -6.23049207400764 -7.61262897877341 -2.03874529147925 37
8.19519425717632 -4.54142445769539 -2.09363265567995 -8.19289831127897 -6.2438369749585 -3.27445796567094 36
8.59181103502565 -4.78483243647929 -6.86766067809029 -4.34395089790568 -8.24782624417816 -2.40685688187425 36
7.14892631739373 -3.41372870631183 -7.66684837009805 -8.06397876284021 -2.99035772226125 -3.7580944387553 36
3.32170643579328 -8.07030631648402 -6.48915764080338 -2.5178486709124 -9.36952881440949 -0.562722879819881 36
3.84827118990168 -7.77852324804915 -8.27191089512351 -6.48936739721655 -9.8698358021671 -1.43284919486521 36
2.26318035242816 -7.78702095582338 -8.12545189798664 -0.136071316697519 -5.49946861800052 -3.27097326093887 35
2.16059815261304 -5.10281567048209 -2.70294869160159 -7.6955380892023 -3.78353978835295 -2.36692413169723 35
5.43224457901446 -1.36944064712726 -6.46386214835563 -5.60722446930798 -1.50982958768517 -9.38488405702497 34
9.35939974664446 -2.93955615281532 -1.0074941990077 -9.94748040167299 -3.79086271936445 -3.47809038207465 34
5.52577044234171 -3.4839249287822 -5.92410754001424 -1.07920186608037 -7.37189627872738 -4.76144802304616 34
7.91450600560529 -4.87835551394681 -1.58316745319755 -0.12032855567492 -9.84095298530656 -4.65221529084484 34
7.65542060074543 -8.22052259206346 -7.97901959904018 -6.2515656550433 -7.59335660988159 -0.227214011540151 34
3.05087766707452 -3.1826787730986 -0.172436168357688 -7.18909531158327 -1.78242694134073 -0.596417144821628 34
2.22614292058055 -2.91385705585901 -8.82313064000287 -8.09730191722455 -3.54075763339841 -3.94513017838877 34
6.7651495382885 -6.27576991127644 -1.70251224951072 -9.16540057788648 -1.1857271767231 -0.259674740357687 34
2.69204752073987 -9.77209692674874 -7.52431151849112 -0.182956882598819 -0.0979120819160639 -1.79332703476624 34
0.19906653593732 -6.03713011154475 -2.29173878329018 -9.89695558304042 -3.72254107732862 -1.08966274653704 33
8.04165745627747 -0.761901465752694 -3.62667876168501 -5.51066420096157 -3.83042411249163 -3.17829349178783 33
4.88420870402797 -0.18881696965271 -1.91586874945588 -2.95635454465714 -9.41426451907747 -8.58532128924729 33
6.54066042594723 -6.18838182774896 -9.28140467650146 -0.514574584300082 -3.43039006375421 -2.60180622563369 33
2.93014589111944 -1.47903787583493 -0.612080333020198 -3.08068628092738 -8.68813773113763 -4.90867276733484 33
8.75869827557114 -5.25788227673192 -9.70975903352336 -9.96133595109511 -1.18556286566674 -3.42132445941968 32
5.78733033375035 -3.93695612348607 -8.71363571445449 -0.352896773044001 -4.62855331581592 -5.13641737836507 32
6.60901195643857 -6.72619830642543 -0.360995456457596 -8.23284528356326 -7.88210785254088 -2.17798296297417 32
7.46656751885217 -0.0969940879031494 -9.4785440237614 -3.9787136200543 -7.35182428356211 -6.55171462455704 32
2.10069637005538 -2.69323072347672 -3.56210629293891 -4.46820320013412 -9.49098233404488 -4.35874349375716 32
2.58121481672531 -2.72910352799909 -4.34447181318659 -3.94569924332301 -9.38989630624184 -2.29658849705946 32
9.26255271617901 -0.364756322938649 -9.13389105333766 -9.48528415473175 -4.73156189505918 -7.04966617083324 31
7.95214791474498 -0.382466474540871 -1.50456068376386 -0.680857785041635 -5.4936265800607 -2.98391217766637 31
4.2749584124175 -0.92997968082805 -2.33236411274323 -7.20414036031495 -3.63315130891229 -1.90649192218154 31
0.832204320145691 -2.35678657397818 -1.97876417256999 -4.53187592153351 -7.56569681687546 -1.28711740901622 30
2.24742693297374 -1.99537482297326 -7.35178670261465 -5.10004259097948 -1.17812693532636 -3.49242599930334 30
5.16831473388507 -9.30468020590966 -5.78887262319155 -1.39391252325173 -7.6452549553112 -1.0876206414171 30
3.61427970528879 -3.68784278305044 -5.99269640610674 -2.25867232921756 -6.06170033542374 -3.23410940803076 28
2.23989693982261 -6.32831691540901 -8.77137352401464 -4.03537918872367 -7.87919603943017 -0.626622699011432 28
3.48901893004838 -5.93781940671515 -8.72855569133178 -8.90234581579333 -8.45767962717854 -3.99996373848793 28
1.3564556135267 -3.07044295785092 -9.75495664387038 -1.90351232063354 -3.83597891192983 -1.50728144179402 28
2.38981066590545 -4.00836798015982 -7.56301477770042 -2.30324233297612 -7.16387423075315 -5.1086375373309 28
5.22321374393066 -0.903540199285378 -7.46799876381986 -2.71407902279563 -8.27713544818441 -3.56843093794554 28
7.87999484110936 -3.37910547071056 -1.65169504771263 -2.48963294632646 -6.82653973737828 -1.85571909777002 27
2.80614811689107 -3.82076317918886 -8.44469309140207 -7.36977224638854 -7.20141210659127 -2.532681089431 27
5.47925429859966 -3.32669146945793 -7.03576273182564 -0.533106242802987 -2.542041592273 -2.99635603609686 27
2.0143051655585 -0.690127599037557 -3.40590638474718 -8.80775942686515 -4.3945381959679 -3.77385005937601 26
8.46469673423777 -5.03740168098563 -9.95600076870222 -9.79215248648608 -3.3627338161813 -1.30096238541832 26
8.38467797626532 -4.50961452006897 -5.24260370361903 -8.00204893057586 -7.10316482036904 -2.06696496534031 26
9.23176608155073 -5.43380553475816 -7.59526693037313 -0.800700092576158 -5.79605167386966 -1.93453019341813 26
9.73038175960548 -0.582988884365522 -9.53411510242501 -9.17127466248344 -3.62624217737005 -5.71271040636088 26
3.70658871665481 -4.40504446460896 -5.08047817663978 -3.34555846156933 -4.66498552608126 -0.271435931390612 25
7.40000041383354 -2.68257264937345 -0.877156815855195 -4.87296789905437 -7.76529919643154 -0.932734476899836 25
3.43939516017739 -7.37841126093276 -9.91159150910964 -2.09587113331963 -8.23945758162844 -0.00362426368445523 25
1.42901422791271 -2.75472710564598 -9.80740812321632 -7.73329173925092 -6.21491028137333 -6.64380994395831 25
4.61547945616097 -0.919337547815491 -7.61671735962098 -9.21942233009332 -8.49129170138097 -4.21255245136322 24
7.99535012739368 -4.42625792567262 -8.95369854599097 -3.85122607702972 -7.19940429364467 -2.5289826724386 24
0.0288542747250353 -0.762200293943738 -3.91674028618132 -6.68488942242589 -8.04735726053049 -5.1056488020684 24
3.87709178852225 -3.23737328700994 -5.3595841243424 -4.11318085801965 -7.60843771398017 -1.72085825502858 24
7.03892700254552 -2.77322718159619 -1.6485154379882 -9.91834525720846 -9.9574852394677 -3.4468687829463 23
9.37018506768093 -1.48834995489221 -7.35235200370351 -2.59047571918425 -4.60061405793861 -2.80563708189647 23
9.74632808368944 -0.904967419347182 -7.03325065944727 -0.585537223660401 -8.54730876692778 -9.16089514810903 23
8.03054448015195 -1.284627691322 -8.94683203223332 -9.41657887672564 -8.89085660793112 -7.17635933483423 23
8.21536637625247 -2.95593229755483 -6.6807027628718 -2.41670731313579 -7.1046184186086 -1.48846238850466 23
0.258868158729389 -5.04255157209394 -9.41222903418149 -6.60054223423997 -4.04661322261037 -0.308827714156137 23
1.85867519087978 -1.12922006457739 -9.49634766651121 -9.26945981167233 -7.45854348560568 -6.46460215572761 22
