FilledLines | Holes | WellSums | LandingHeight | RowTransitions | ColTransitions | Fitness

3.41812681013926000	-7.89926542735165000	-3.38559722472636000	-4.50015882508276000	-3.21788828684877000	-9.34869530544519000	2000000
5.46929761381319000	-7.34127329421442000	-3.55865251669756000	-3.20991073321908000	-2.87696417225140000	-6.83309092157359000	2000000
5.55038925179594000	-7.41146794378565000	-1.79797310538765000	-2.34693225584963000	-2.34928050916088000	-3.38413380562948000	2000000
8.88586220355063000	-7.90363468342270000	-3.42413657927332000	-3.22370469851948000	-2.93743993537614000	-6.46474213313206000	2000000
3.68812908691088000	-7.13063563519121000	-2.68211738135261000	-3.70791524370609000	-2.16272651868459000	-6.02282645258367000	2000000
7.76395915436323000	-7.29179070633966000	-3.80016869693878000	-3.44504753477481000	-2.61164726660980000	-6.62456885900091000	2000000
7.95967387484209000	-7.55758356177552000	-2.59614107227491000	-3.52850483262922000	-2.34203624303530000	-7.64237674976480000	2000000
4.13669545738103000	-8.67752502580510000	-3.56095190764583000	-2.85285037473182000	-3.06083441597422000	-6.81069342087812000	2000000
3.68812908691088000	-7.13063563519121000	-2.68211738135261000	-3.70791524370609000	-2.16272651868459000	-6.02282645258367000	2000000
3.68812908691088000	-7.13063563519121000	-2.68211738135261000	-3.70791524370609000	-2.16272651868459000	-6.02282645258367000	2000000
4.42828036042990000	-7.25918050899252000	-2.11533212570873000	-2.33899619161218000	-1.41263870223387000	-2.36911855812611000	2000000
3.30128733564148000	-6.87720290976673000	-3.03498143750535000	-3.45860122216480000	-2.02610049963905000	-6.18564107180828000	2000000
4.81510002002968000	-6.39619501714593000	-1.27666886659350000	-1.82781515897398000	-1.02770908119234000	-1.66796434597248000	2000000
1.67337557808559000	-8.13719131272949000	-2.67295480388645000	-2.63401218752651000	-2.67136281670385000	-4.54890352701537000	2000000
4.10069979969590000	-5.20114917911606000	-2.37693597060166000	-2.92298936229972000	-2.71406401275558000	-7.61374590209684000	2000000
6.34039425345881000	-7.39061053332802000	-2.76966366996561000	-2.25169008167755000	-1.60507093793791000	-3.56929185014320000	2000000
1.16328529073674000	-7.84970513978389000	-3.77346444118337000	-2.55821735734033000	-3.14775116620646000	-7.98828251476124000	2000000
1.78410796859225000	-7.65243647078118000	-3.22722343068574000	-3.28222332422400000	-1.80076060081777000	-7.62380201366974000	2000000
3.56095990614158000	-8.19149500565483000	-2.87750862812037000	-4.08039914335412000	-2.91069709239632000	-5.67142561456058000	2000000
6.34039425345881000	-7.39061053332802000	-2.76966366996561000	-2.25169008167755000	-1.60507093793791000	-3.56929185014320000	2000000
9.72567855796055000	-9.66237652500159000	-3.33881074178693000	-2.86073999529125000	-3.16842062512207000	-6.20120062780752000	2000000
3.79624715898809000	-7.64343312728075000	-2.82702089716586000	-3.43120171496915000	-2.99364699458121000	-5.94363145905930000	2000000
5.27973052560096000	-6.64276572292883000	-1.82876769461470000	-3.10984405223435000	-1.22640286993557000	-3.96475480069313000	2000000
8.88586220355063000	-7.90363468342270000	-3.42413657927332000	-3.22370469851948000	-2.93743993537614000	-6.46474213313206000	2000000
4.66951746919377000	-8.72966956734646000	-2.60059003893038000	-2.22714639370397000	-2.94102947993608000	-5.51265384897289000	2000000
3.12942246491342000	-7.67353000037835000	-1.94085426999200000	-2.16851239265568000	-1.84495192938277000	-2.84798508384899000	2000000
8.30965928318884000	-7.61694693580039000	-4.00573226049955000	-3.08731292957470000	-3.08545491525598000	-6.71027885341061000	1989492
7.94335055168061000	-8.15011368252122000	-2.46993272781812000	-2.99630429258423000	-2.80790556249805000	-5.55539513262886000	1978480
6.31394461692141000	-5.50031605695148000	-2.94264013570963000	-4.40335395515855000	-2.31667083759800000	-8.55045098627045000	1919600
7.66973117053056000	-7.01642165988142000	-4.08654060003641000	-2.66884261379916000	-2.58489496791744000	-6.55705884102614000	1918349
2.83915532761280000	-7.54186488773103000	-1.88692949515328000	-1.70227128180716000	-1.87410602360516000	-3.82724871804086000	1906848
7.31885245063716000	-6.20065614885055000	-2.42397868416546000	-4.23022464119480000	-1.83301370628157000	-7.23605293039925000	1905460
3.79624715898809000	-7.64343312728075000	-2.82702089716586000	-3.43120171496915000	-2.99364699458121000	-5.94363145905930000	1880577
3.34019654682029000	-8.16015061488406000	-3.01935531059427000	-3.98599698708735000	-3.16966036071727000	-7.52983686362141000	1880136
5.32838237710110000	-7.50196723829485000	-3.34179046801384000	-3.42147371152529000	-2.68690835724750000	-5.39392040351561000	1855726
4.24578972545311000	-8.59677480818811000	-3.24010285835779000	-3.25032305056784000	-2.73635508974067000	-4.69039389837452000	1849855
8.66265126260527000	-8.29081197536116000	-3.61214432595610000	-2.32921714571990000	-2.75428529029549000	-6.24036455875585000	1838391
4.46117501066391000	-7.24944878522262000	-1.27124894438100000	-1.74274963564986000	-1.08908698232499000	-1.29226425693537000	1795744
3.79624715898809000	-7.64343312728075000	-2.82702089716586000	-3.43120171496915000	-2.99364699458121000	-5.94363145905930000	1785343
7.44353130350828000	-6.91087765448746000	-2.96885475559229000	-4.40032807514062000	-3.18312136336082000	-9.36804283369591000	1781279
4.57571175467063000	-2.76862474268942000	-1.52748449786890000	-1.37426065048066000	-1.17162645532496000	-5.93249650679782000	1759796
6.29518987775016000	-8.12722976900853000	-1.70460272681625000	-1.67721803567620000	-1.91036288594371000	-3.36893540330239000	1736669
6.34039425345881000	-7.39061053332802000	-2.76966366996561000	-2.25169008167755000	-1.60507093793791000	-3.56929185014320000	1716216
4.24578972545311000	-8.59677480818811000	-3.24010285835779000	-3.25032305056784000	-2.73635508974067000	-4.69039389837452000	1705555
4.32932918107373000	-6.97760463033223000	-1.59560116074970000	-1.81393750821257000	-1.23336626597840000	-1.65561977777078000	1700004
3.47342548559577000	-7.18251834255405000	-3.64145863160453000	-4.01836870922312000	-1.90835535547713000	-9.23731441912098000	1698758
2.83915532761280000	-7.54186488773103000	-1.88692949515328000	-1.70227128180716000	-1.87410602360516000	-3.82724871804086000	1696100
7.08734979047541000	-8.80983661974598000	-2.85428594324856000	-4.02321027224577000	-3.24528630267864000	-6.93336675182773000	1685599
5.41035632119465000	-5.18602965009889000	-3.45262026673438000	-2.08763461689135000	-1.73896786773479000	-6.28613517005289000	1684512
7.54416132084664000	-6.82507347691530000	-3.63607381871615000	-3.70217869410665000	-1.84975355722812000	-6.67782675952553000	1648099
3.75739266089515000	-7.37602791793748000	-3.15634989202564000	-4.90947290379544000	-3.56206901805942000	-7.20089037936534000	1645687
7.31255376793587000	-6.45665889479398000	-2.92022524026491000	-4.84972228285229000	-3.03532930278814000	-8.60679238098687000	1634245
3.68812908691088000	-7.13063563519121000	-2.68211738135261000	-3.70791524370609000	-2.16272651868459000	-6.02282645258367000	1613662
8.77006535473593000	-9.55742229488968000	-2.75871767197861000	-2.39211280758187000	-3.20249453045713000	-7.21624672572234000	1608911
6.74284745290992000	-6.88191151129704000	-2.82208195895208000	-4.74208238205396000	-3.53232749216433000	-8.02417894103859000	1582997
1.07346828306938000	-8.04332586140313000	-2.32765427470800000	-3.53841603533069000	-1.88956661881075000	-3.82226553968850000	1578893
8.88586220355063000	-7.90363468342270000	-3.42413657927332000	-3.22370469851948000	-2.93743993537614000	-6.46474213313206000	1575635
4.62107159596971000	-7.40935110020654000	-3.87899912872814000	-3.29911808445645000	-1.59595027562567000	-8.01087592670682000	1543425
6.45968085907031000	-8.18968656715835000	-4.14591687622857000	-3.74334600099434000	-2.91824477194424000	-6.67829691917681000	1530879
6.08917580713458000	-5.75215365535078000	-2.56995227614987000	-3.99406540100459000	-3.07766991173496000	-7.21655697748533000	1527079
3.32422953487167000	-7.69006424326043000	-3.40154694246258000	-4.47007454682222000	-1.98392812740724000	-8.58088571115309000	1506519
7.48210540085227000	-6.20600838027580000	-1.96606351724427000	-1.73840511456161000	-1.74183673696393000	-6.45271909837988000	1501220
1.78410796859225000	-7.65243647078118000	-3.22722343068574000	-3.28222332422400000	-1.80076060081777000	-7.62380201366974000	1498369
1.16328529073674000	-7.84970513978389000	-3.77346444118337000	-2.55821735734033000	-3.14775116620646000	-7.98828251476124000	1489933
4.80404362979564000	-7.15400124708841000	-3.74954319286237000	-3.89743024808159000	-1.86303581187055000	-8.14895562004278000	1486053
3.27065699404475000	-7.43394062632153000	-3.55635334245797000	-3.81067516446218000	-2.19196460700657000	-9.70538501488590000	1456593
7.99251972125314000	-6.92436780035298000	-3.61411282727758000	-4.30742914041738000	-2.98582347084864000	-6.83970889609832000	1449348
0.92410962999544500	-6.80893460230498000	-2.68299483881456000	-1.90650685443359000	-2.96210448212570000	-7.06877214516169000	1427571
7.68241310655054000	-7.24866120310607000	-3.16710797652613000	-4.46425675345119000	-4.42448714836984000	-8.61804980883350000	1412232
6.29518987775016000	-8.12722976900853000	-1.70460272681625000	-1.67721803567620000	-1.91036288594371000	-3.36893540330239000	1408562
8.29331756190880000	-7.82710292146327000	-4.12519690655502000	-3.74006102890974000	-3.49398539007107000	-6.78851009796437000	1398473
8.51451236583113000	-6.94823188719655000	-3.92482559877815000	-4.10791696992343000	-2.70045966252290000	-6.13053561635888000	1390733
4.44693605831231000	-4.28786326884694000	-2.37282366009765000	-2.33136257831621000	-2.01261055984297000	-6.02756086716655000	1380656
0.02621612610206760	-9.34974679110082000	-1.66156804442608000	-4.08895103519012000	-1.74055379663487000	-3.67601824232877000	1377864
1.32091612425191000	-7.53941474682994000	-3.39433311015883000	-3.07783283039174000	-1.81773480413146000	-9.22553905564662000	1376261
8.24546005830478000	-7.40187813030915000	-4.12193605308999000	-2.97873137099774000	-2.04674727793544000	-6.02854779909840000	1371728
8.16383074818956000	-7.52758203579760000	-4.22359944959787000	-2.74552313840553000	-2.10573842469736000	-5.77872815135354000	1366022
4.12379482000840000	-5.12458237161145000	-1.12800982691999000	-3.11684332499781000	-1.69283283011567000	-4.84992170452712000	1352139
4.24578972545311000	-8.59677480818811000	-3.24010285835779000	-3.25032305056784000	-2.73635508974067000	-4.69039389837452000	1351510
9.27734932205621000	-9.63777007562341000	-2.43287501757464000	-1.69451413422824000	-3.49200312787967000	-7.04299353374675000	1347257
6.84057319074708000	-5.47904884091905000	-2.39553628947268000	-4.30286607900062000	-2.82481383821811000	-8.64200876863118000	1336865
0.09155728949341060	-8.49688055030267000	-2.47288611519259000	-2.50194536063646000	-2.67557513799718000	-6.51431653516593000	1334220
6.53653675420022000	-7.09522179351342000	-2.62991490023991000	-2.95374624720888000	-1.91413087135611000	-3.76952247759505000	1333670
6.13781349477466000	-7.69945223030845000	-3.07921812066599000	-5.20849716139271000	-3.29162957392954000	-7.33883572470877000	1327695
4.46117501066391000	-7.24944878522262000	-1.27124894438100000	-1.74274963564986000	-1.08908698232499000	-1.29226425693537000	1325473
3.68812908691088000	-7.33063563519121000	-2.68211738135261000	-3.70791524370609000	-2.16272651868459000	-6.02282645258367000	1318444
1.72064169680552000	-6.55332738350576000	-2.52219714907999000	-1.78928817844639000	-2.58114684843602000	-6.97564687278911000	1302226
7.08596170820975000	-7.95409193849843000	-3.05975446816404000	-5.45382204938980000	-4.34378176472283000	-9.52970087068728000	1289663
2.48747486924860000	-6.61181956097788000	-1.52881372137435000	-3.41133009922826000	-1.35748065045779000	-3.65091826161105000	1285513
0.47158183772057000	-9.09861782094296000	-1.60826679397839000	-4.08078706752951000	-2.10407655710287000	-4.56329331480178000	1274841
8.16202877928043000	-7.66623162306637000	-4.15732347536544000	-2.93988180956807000	-1.98473096367783000	-5.89242324616602000	1266081
8.05532727460539000	-9.12343185573131000	-2.56764855508040000	-3.43863038150444000	-3.03368894044218000	-7.93591137794873000	1255391
1.04196096518739000	-8.12849510236429000	-2.92582709402922000	-2.42355457846153000	-3.51285908150049000	-8.27843078149478000	1243997
4.24578972545311000	-8.59677480818811000	-3.24010285835779000	-3.25032305056784000	-2.73635508974067000	-4.69039389837452000	1227734
3.85792279365340000	-8.01099840695387000	-2.09853572695644000	-3.06965863207208000	-2.23101283918021000	-3.58861778293900000	1226663
7.62182403813776000	-9.44626308045843000	-2.11388458040943000	-2.15415408577986000	-3.24247178962613000	-6.89016600254724000	1224743
3.45694971428174000	-6.82276994071797000	-2.80167640015202000	-3.70024082458248000	-2.28125992192472000	-8.09259934796680000	1211370
6.97070466693686000	-6.86707479195817000	-3.18310796502447000	-4.57987788285304000	-3.43623687713024000	-7.75786682382096000	1196455
2.50210028550016000	-6.93510330767836000	-3.60028792192469000	-3.50469424849265000	-1.73991497130647000	-9.72692787303889000	1193881
5.11205336364966000	-7.81421706461896000	-3.49449461223032000	-2.69309128438262000	-2.37169199535300000	-5.20047117597328000	1193333
1.67337557808559000	-8.13719131272949000	-2.67295480388645000	-2.63401218752651000	-2.67136281670385000	-4.54890352701537000	1193088
8.34074327692262000	-7.23531037211534000	-4.07287344969144000	-3.43282616696207000	-2.40576452467535000	-5.95620864970369000	1187506
7.94142942898630000	-8.95360396569161000	-3.75860536786764000	-5.59782231076324000	-2.66900847075068000	-6.88251195443984000	1178750
5.32756298432221000	-6.05368899114682000	-3.75351406108932000	-3.65034765366359000	-3.83655645983044000	-9.13277423136017000	1175270
5.27973052560096000	-6.64276572292883000	-1.82876769461470000	-3.10984405223435000	-1.22640286993557000	-3.96475480069313000	1161581
3.58403606466240000	-7.45881605892224000	-2.99012450225069000	-3.14124394509722000	-3.33794553872819000	-8.07971876201848000	1161369
3.79624715898809000	-7.64343312728075000	-2.82702089716586000	-3.43120171496915000	-2.99364699458121000	-5.94363145905930000	1158113
3.99563616917944000	-7.45277189573079000	-1.22093382550409000	-2.08600602598482000	-1.34035886090611000	-2.02285527709207000	1153819
3.56095990614158000	-8.19149500565483000	-2.87750862812037000	-4.08039914335412000	-2.91069709239632000	-5.67142561456058000	1148679
1.79697692420567000	-7.46884234117859000	-3.29989080416596000	-3.76928273247841000	-1.38310729320931000	-9.34274342199073000	1145376
6.53653675420022000	-7.09522179351342000	-2.62991490023991000	-2.95374624720888000	-1.91413087135611000	-3.76952247759505000	1144987
6.44571325960487000	-9.71393039969327000	-3.13881240053939000	-3.55436456580475000	-4.01418427373775000	-7.83616634325102000	1136431
4.80111736146656000	-7.73883303297247000	-4.18719315558818000	-6.31610337064974000	-2.63881180796041000	-8.81250349880781000	1134408
7.95967387484209000	-7.55758356177552000	-2.59614107227491000	-3.52850483262922000	-2.34203624303530000	-7.64237674976480000	1133475
4.50613243884230000	-8.74228533007244000	-3.38154691767677000	-5.73895679751257000	-3.70884068206031000	-7.47921097263985000	1133218
3.57831462302778000	-9.15048824327513000	-4.61640128742767000	-2.57747356374634000	-2.57620920593942000	-4.85004886453140000	1132092
1.06207216000685000	-8.09511072303502000	-2.76916841425683000	-2.23886021130393000	-2.87507648676984000	-5.93931919043633000	1129150
5.56305351262158000	-7.50645037875234000	-3.19435997714765000	-4.84147133470537000	-3.45738497878037000	-7.46851802016550000	1123522
1.50624294701136000	-8.24001022329665000	-1.85122531717576000	-4.42560215178887000	-3.00175739397726000	-6.89081524433068000	1108759
5.21254047599073000	-7.71236598332517000	-3.74351533686312000	-2.33755364959237000	-2.50266452814379000	-6.61852060898226000	1103432
4.80404362979564000	-7.15400124708841000	-3.74954319286237000	-3.89743024808159000	-1.86303581187055000	-8.14895562004278000	1096623
7.68241310655054000	-7.24866120310607000	-3.16710797652613000	-4.46425675345119000	-4.42448714836984000	-8.61804980883350000	1080935
7.54416132084664000	-6.82507347691530000	-3.63607381871615000	-3.70217869410665000	-1.84975355722812000	-6.67782675952553000	1078719
3.74574664429262000	-5.73948962918448000	-2.83042296541197000	-3.38407578270564000	-2.79853437595037000	-5.34321880395550000	1074691
0.77283050782591900	-7.45903302569508000	-3.09378520697164000	-1.76542725245299000	-2.99810842878891000	-7.29891407138360000	1073034
2.02030310930886000	-7.92260518702091000	-3.69953416388523000	-4.31604278265891000	-2.10447536085484000	-9.50417350772969000	1065468
7.49645063929678000	-7.63957366163087000	-3.89112505443396000	-3.69003186604871000	-2.16517327737884000	-6.61305149152552000	1064023
6.93959728595535000	-7.86013674969567000	-3.69962462517852000	-4.05282991239378000	-2.59180611766105000	-6.26530356573032000	1055309
7.95721083090765000	-6.56034885399219000	-3.84954321215660000	-3.75950965977328000	-3.05371561819609000	-6.82735733728209000	1041121
8.24771002516243000	-4.93800784334193000	-1.42250037328407000	-1.60320363585554000	-1.92455227018143000	-3.98563775113088000	1039031
3.32422953487167000	-7.69006424326043000	-3.40154694246258000	-4.47007454682222000	-1.98392812740724000	-8.58088571115309000	1038634
7.92334782325461000	-6.65166480259928000	-3.76197887087145000	-2.66987739709381000	-1.88511406402302000	-5.43551933151178000	1032064
0.29559555179742000	-9.03629421108618000	-2.11387643270287000	-4.29757868539591000	-1.99163627890847000	-4.36898217591793000	1021705
2.53001906894576000	-7.98249159808784000	-2.57485735051919000	-1.46514426374666000	-3.16944677112477000	-7.14644263284463000	1013612
3.78429732661152000	-7.86472314368434000	-3.82055446692607000	-3.94018281144085000	-1.60017695370564000	-8.61615732299346000	1007058
5.32838237710110000	-7.50196723829485000	-3.34179046801384000	-3.42147371152529000	-2.68690835724750000	-5.39392040351561000	991771
6.06075907671006000	-7.94167567021926000	-2.21529327383113000	-2.58328131965558000	-1.81422928392597000	-2.38036924136791000	985525
4.35355187772508000	-6.92945228188570000	-2.34697023768868000	-4.84846387776381000	-1.54110487078916000	-6.62150423045487000	978793
1.94210399263169000	-8.65686963071920000	-3.09475123641880000	-3.75344460800807000	-3.36864337346006000	-5.92669606750232000	970660
4.03233547145162000	-8.54506938870715000	-2.70382415501136000	-5.17484441479796000	-2.77563368342877000	-5.98053010547030000	970024
6.08917580713458000	-5.75215365535078000	-2.56995227614987000	-3.99406540100459000	-3.07766991173496000	-7.21655697748533000	961371
4.62107159596971000	-7.40935110020654000	-3.87899912872814000	-3.29911808445645000	-1.59595027562567000	-8.01087592670682000	956504
5.21254047599073000	-7.71236598332517000	-3.74351533686312000	-2.33755364959237000	-2.50266452814379000	-6.61852060898226000	953382
6.20424631069734000	-7.96636979644521000	-3.60664754131825000	-3.06902830812524000	-2.01779986441947000	-5.27238350299655000	952400
5.35517807153288000	-8.66328526822246000	-4.18836665290369000	-4.17435355699955000	-1.76521270185047000	-5.65564895009368000	938182
0.70628108398216500	-8.01350491957070000	-2.66640126325151000	-1.63436062447154000	-3.16113167361276000	-7.47215882408045000	919242
3.26398785032274000	-9.69851225292782000	-3.99211926745035000	-5.17387818240224000	-4.12008718296912000	-7.74011807417315000	912565
6.29518987775016000	-8.12722976900853000	-1.70460272681625000	-1.67721803567620000	-1.91036288594371000	-3.36893540330239000	886786
6.05181496764884000	-9.57157464752252000	-2.17868267196204000	-2.49451920265096000	-2.77620304999571000	-5.83049335393040000	872942
6.55174898620981000	-5.69999270278032000	-2.69514038344495000	-5.23428070137780000	-1.43978893940575000	-8.11775022425200000	852954
4.24578972545311000	-8.59677480818811000	-3.24010285835779000	-3.25032305056784000	-2.73635508974067000	-4.69039389837452000	850380
1.94210399263169000	-8.65686963071920000	-3.09475123641880000	-3.75344460800807000	-3.36864337346006000	-5.92669606750232000	839205
4.80404362979564000	-7.15400124708841000	-3.74954319286237000	-4.09743024808160000	-1.86303581187055000	-8.14895562004278000	823078
3.11797589079872000	-8.08380301584913000	-2.47186001857935000	-2.33568354173900000	-2.75041134090530000	-4.51475116026120000	813186
5.16442046435058000	-8.04667829261307000	-4.47914692615484000	-2.82106065632278000	-2.07271428740420000	-5.28720655939123000	808030
8.66658152424557000	-8.12531161178072000	-4.30008564939294000	-3.28038459259921000	-2.32790063582230000	-5.55580304323708000	803317
3.56095990614158000	-8.19149500565483000	-2.87750862812037000	-4.08039914335412000	-2.91069709239632000	-5.67142561456058000	793009
0.12726837799494700	-8.03076118198497000	-2.91629804611449000	-1.63459471741335000	-3.18659496285446000	-8.06553962744866000	792785
7.95721083090765000	-6.56034885399219000	-3.84954321215660000	-3.75950965977328000	-3.05371561819609000	-6.82735733728209000	787544
7.06927794249483000	-6.88215969222205000	-3.06455908390054000	-4.66030378929232000	-3.49054282413551000	-8.09401469338370000	786308
0.77283050782591900	-7.45903302569508000	-3.09378520697164000	-1.76542725245299000	-2.99810842878891000	-7.29891407138360000	762958
2.48747486924860000	-6.61181956097788000	-1.52881372137435000	-3.41133009922826000	-1.35748065045779000	-3.65091826161105000	748165
3.12942246491342000	-7.67353000037835000	-1.94085426999200000	-2.16851239265568000	-1.84495192938277000	-2.84798508384899000	747944
9.58471655516308000	-9.70163574297804000	-2.48187495817134000	-1.55967921404747000	-3.38342018932443000	-7.09369535960581000	738993
4.78256690419638000	-7.86176272188120000	-3.08367969011396000	-6.83530430805516000	-2.56409006479579000	-9.51425997552488000	737494
8.51451236583113000	-6.94823188719655000	-3.92482559877815000	-4.10791696992343000	-2.70045966252290000	-6.13053561635888000	730684
5.05279236630894000	-7.64718393181909000	-3.28192509860399000	-6.24661531006940000	-2.41869173033491000	-9.04248813439012000	724314
2.85370302242463000	-3.85021667834463000	-2.11803873732219000	-2.56495652881771000	-2.41848886585337000	-4.65504677291149000	717559
3.68812908691088000	-7.13063563519121000	-2.68211738135261000	-3.70791524370609000	-2.16272651868459000	-6.02282645258367000	711890
4.15104631959353000	-8.02426480266942000	-3.27583402888692000	-3.08676983456378000	-1.84655242970789000	-8.96240109665232000	706207
6.08417162410554000	-9.67148144962338000	-4.21903517268210000	-5.36005103054212000	-3.87528461581735000	-6.94804295906615000	704408
6.91894867683427000	-8.68264418778749000	-3.53649338525832000	-5.26716407913403000	-3.06922256894857000	-6.24780610946377000	697484
7.02102527661622000	-7.14098446966112000	-3.05345152259184000	-5.03232515092068000	-3.77667388648098000	-8.30443814760138000	691888
7.14168652217450000	-7.54256504793828000	-3.54255661957034000	-4.77948409222552000	-2.90982577053156000	-6.45150911013714000	679776
8.34074327692262000	-7.23531037211534000	-4.07287344969144000	-3.43282616696207000	-2.40576452467535000	-5.95620864970369000	675762
7.31885245063716000	-6.20065614885055000	-2.42397868416546000	-4.23022464119480000	-1.83301370628157000	-7.23605293039925000	675427
4.32932918107373000	-6.97760463033223000	-1.59560116074970000	-1.81393750821257000	-1.23336626597840000	-1.65561977777078000	671038
4.13669545738103000	-8.67752502580510000	-3.56095190764583000	-2.85285037473182000	-3.06083441597422000	-6.81069342087812000	664320
6.93959728595535000	-7.86013674969567000	-3.69962462517852000	-4.05282991239378000	-2.59180611766105000	-6.26530356573032000	664140
5.95050142957892000	-7.17467067917323000	-2.92314985958322000	-5.43219570802394000	-2.43447164296735000	-7.37368360546432000	652858
6.79999310982065000	-6.26704504775870000	-2.87234017183621000	-4.95896007673811000	-2.42347805413792000	-8.10636495587758000	652317
2.65538933525436000	-3.82113231871664000	-3.00818315170266000	-3.00649440421719000	-2.05926837433395000	-8.64742405492782000	620627
7.10406040611094000	-6.67778583095606000	-2.50923266548114000	-1.72536510429982000	-2.73768274033438000	-4.26878056485162000	611708
2.85370302242463000	-3.85021667834463000	-2.11803873732219000	-2.56495652881771000	-2.41848886585337000	-4.65504677291149000	591879
1.86067913227863000	-7.31722974237270000	-3.61049876281467000	-3.73045966071317000	-1.19874140414628000	-9.75008642117953000	589108
6.22496000658954000	-6.15502517447014000	-2.78452610320136000	-4.34999693420493000	-3.23407828354865000	-8.32703486236145000	584552
1.79697692420567000	-7.46884234117859000	-3.29989080416596000	-3.76928273247841000	-1.38310729320931000	-9.34274342199073000	584006
0.92410962999544500	-6.80893460230498000	-2.68299483881456000	-1.90650685443359000	-2.96210448212570000	-7.06877214516169000	579766
8.88586220355063000	-7.90363468342270000	-3.42413657927332000	-3.22370469851948000	-2.93743993537614000	-6.46474213313206000	579125
4.89801411775729000	-7.34327499883230000	-3.21312693360635000	-5.57256247179464000	-2.81330411388499000	-8.38384472098078000	575300
6.00952400346065000	-6.08102931662396000	-3.55858006063583000	-5.25513309789323000	-1.81699536741809000	-8.03227855418193000	571511
4.11186602346107000	-6.12574001027214000	-2.45099306298737000	-4.97320208515105000	-2.39361387307476000	-7.30716187603134000	565971
6.08832418309426000	-7.54835294952196000	-2.77344271789072000	-6.70261087692773000	-2.13933839855744000	-9.40231184513198000	552999
3.43362259349483000	-3.00066712169756000	-1.75952489113194000	-2.14667889677716000	-1.91877610357255000	-4.05887343873309000	552860
1.83760020353977000	-7.10923164176680000	-3.10935452939300000	-1.85843259692804000	-3.77661290651792000	-8.53699216801881000	550300
9.91504744911165000	-9.60963554212594000	-4.49002153555058000	-4.60859000149693000	-2.87958939214457000	-5.00221980769478000	550090
5.66345066946742000	-5.51109464912765000	-3.36798271360632000	-3.10518893097291000	-4.36912841493580000	-9.52861613505606000	547017
4.82279776835118000	-7.74809536547941000	-1.33280724235299000	-5.20935103455817000	-5.02297420200934000	-9.75244022322130000	542958
9.40358913256201000	-8.33847472233908000	-1.92972817107222000	-2.20943838844666000	-2.36004034402665000	-5.18525919335577000	530893
5.83896918991349000	-8.20544995954759000	-1.25389638304061000	-2.40883185848040000	-2.96380561119947000	-5.23612923352688000	506615
3.11567603294502000	-4.51348067245369000	-2.77736670125578000	-2.90467437400163000	-2.71338701867601000	-5.05534018572258000	504137
7.94142942898630000	-8.95360396569161000	-3.75860536786764000	-5.59782231076324000	-2.66900847075068000	-6.88251195443984000	499056
5.00321340627328000	-7.75828773726145000	-5.54139976622268000	-3.99885952092252000	-2.43735681061775000	-6.28026039462893000	497805
3.39600099739189000	-6.78793057069730000	-3.31091470672067000	-4.22263935465121000	-1.27763290713795000	-9.21584550548341000	473903
6.13781349477466000	-7.69945223030845000	-3.07921812066599000	-5.20849716139271000	-3.29162957392954000	-7.33883572470877000	471505
7.09081744721309000	-7.67309172221150000	-4.45326178065782000	-4.56642410903635000	-4.93479053079673000	-8.87501253684005000	465925
7.31255376793587000	-6.45665889479398000	-2.92022524026491000	-4.84972228285229000	-3.03532930278814000	-8.60679238098687000	452918
8.75132414740423000	-7.88760271949558000	-3.34588689833798000	-4.12247756115846000	-6.05268180795066000	-9.53162801073294000	451032
6.49817344137075000	-7.51869595226416000	-3.38720365745619000	-4.10341173691065000	-2.47244033961698000	-5.54748116323353000	449926
2.89311067991888000	-7.38447781564843000	-3.34185471514134000	-3.37008928130178000	-1.44747790203601000	-9.05081413080555000	441415
3.39600099739189000	-6.78793057069730000	-3.31091470672067000	-4.22263935465121000	-1.27763290713795000	-9.21584550548341000	439164
2.49671389391886000	-9.72939759962852000	-3.96526758358356000	-6.06376339312645000	-4.80771226167277000	-8.77022635128099000	427306
7.43561554555074000	-6.63440820314567000	-3.43432750610121000	-3.35809608515309000	-5.36075997893576000	-9.56591801110116000	426670
3.07494924455352000	-9.27098030414896000	-3.97888769394371000	-5.74390702238642000	-4.53476115496682000	-8.23354700882165000	425676
6.23962644564997000	-8.13661597216450000	-2.53059002906045000	-4.10320839952718000	-4.95102452619068000	-8.41901596533886000	419756
7.31885245063716000	-6.20065614885055000	-2.42397868416546000	-4.23022464119480000	-1.83301370628157000	-7.23605293039925000	412969
7.49645063929678000	-7.63957366163087000	-3.89112505443396000	-3.69003186604871000	-2.16517327737884000	-6.61305149152552000	402975
7.87039391214062000	-7.23284229943989000	-3.39885756762577000	-4.98896680024750000	-2.00429000355420000	-6.89624745823471000	401745
6.80585978115668000	-6.23496295833223000	-3.98901339825882000	-3.32742879114500000	-3.27874958575610000	-6.31836156955321000	398004
2.48747486924860000	-6.61181956097788000	-1.52881372137435000	-3.41133009922826000	-1.35748065045779000	-3.65091826161105000	393607
5.16518373350853000	-8.03077856503094000	-2.72973809647759000	-6.98935396097268000	-2.37278885246183000	-9.52747816644780000	391056
3.59312451301957000	-8.85766214414501000	-3.76691952836028000	-5.22671440304955000	-4.07741054617418000	-8.84688004268209000	390710
5.11205336364966000	-7.81421706461896000	-3.49449461223032000	-2.69309128438262000	-2.37169199535300000	-5.20047117597328000	387682
0.02621612610206760	-9.34974679110082000	-1.66156804442608000	-4.08895103519012000	-1.74055379663487000	-3.67601824232877000	374139
6.55174898620981000	-5.69999270278032000	-2.69514038344495000	-5.23428070137780000	-1.43978893940575000	-8.31775022425200000	371380
5.83004778849663000	-5.99087551883141000	-2.78631552825447000	-4.04434569163991000	-3.17539681985236000	-7.08307957148799000	366705
4.80404362979564000	-7.15400124708841000	-3.74954319286237000	-3.89743024808159000	-1.86303581187055000	-8.14895562004278000	365730
9.16964706373221000	-9.33094668990751000	-4.58015530923434000	-4.72662037557528000	-2.97160982751877000	-5.43320113583326000	357507
6.41278225592095000	-8.14761459535359000	-3.16041199762090000	-5.17228668358853000	-3.96243008207221000	-7.58229921152040000	354155
1.94210399263169000	-8.65686963071920000	-3.09475123641880000	-3.75344460800807000	-3.36864337346006000	-5.92669606750232000	351759
2.19067589990919000	-7.61347635098988000	-3.56805506311588000	-3.97433139596185000	-1.49329627300435000	-9.73995914003069000	349488
6.93959728595535000	-7.86013674969567000	-3.69962462517852000	-4.05282991239378000	-2.59180611766105000	-6.26530356573032000	348418
5.73145359681923000	-5.01121716668521000	-3.54887955680640000	-2.36803656597953000	-4.46455328784718000	-9.61033188341848000	348222
1.68049705254602000	-7.19403966203680000	-2.37987032290529000	-2.42995029632263000	-2.48935517957061000	-4.39167319321117000	341134
7.99251972125314000	-6.92436780035298000	-3.61411282727758000	-4.30742914041738000	-2.98582347084864000	-6.83970889609832000	331137
3.36858894961871000	-7.76687327212184000	-1.36740704170936000	-2.32075430542611000	-1.24958081757253000	-1.87952029361880000	324167
6.53317502047288000	-4.38165663749537000	-2.32047490072182000	-2.02682700515689000	-0.94774108260088200	-3.60899371463673000	323980
5.11205336364966000	-7.81421706461896000	-3.49449461223032000	-2.69309128438262000	-2.37169199535300000	-5.20047117597328000	320457
7.48548016633861000	-6.22175041898477000	-2.88724832086071000	-1.76064823323281000	-3.88722870453013000	-7.35868743888990000	318056
4.80111736146656000	-7.73883303297247000	-4.18719315558818000	-6.31610337064974000	-2.63881180796041000	-8.81250349880781000	312847
5.21329872862878000	-8.92944495074406000	-3.69624999363657000	-5.22059852157866000	-5.34844385837131000	-9.10092836425414000	311004
6.24551564396641000	-6.96582318921680000	-3.59732528090556000	-4.30239329434869000	-1.62653872586664000	-8.54788219513950000	307856
3.23611287601605000	-5.00908223280235000	-3.22452171785393000	-2.17335189580829000	-3.03562061497942000	-5.14371369583769000	294069
6.29848112702132000	-8.17264980122399000	-2.80653276821555000	-4.73352591232505000	-3.15077115769015000	-6.38120001941820000	292603
5.83413110620733000	-2.54541796190549000	-1.33921467714184000	-2.17058115884532000	-1.67173141975365000	-4.51679737629345000	289435
7.68241310655054000	-7.24866120310607000	-3.16710797652613000	-4.46425675345119000	-4.42448714836984000	-8.61804980883350000	289007
6.81614398563372000	-6.85941963135766000	-3.37351369575633000	-4.62670493698298000	-3.35048842109567000	-8.18767233018319000	285516
5.71599823990878000	-7.12365147262157000	-2.76859211882395000	-4.98193486684108000	-2.71865529672106000	-6.25334103040460000	283803
3.04591103001344000	-8.97676072388209000	-4.70293842702882000	-5.83329983639277000	-4.25564773603375000	-8.45532954201759000	273864
8.57231792366846000	-8.10074982887625000	-2.45886302552240000	-1.18614336733282000	-2.48687551840828000	-4.08795095027200000	266605
4.26369436151850000	-7.30787248371799000	-6.33864116152052000	-5.32227263056024000	-3.03150628835756000	-7.75708102566144000	264913
7.43584766923845000	-6.35790647035698000	-3.58054316785861000	-3.81390654577828000	-2.64673025293029000	-5.84938187506624000	262833
9.82441062954116000	-7.83595236422608000	-1.53829449038798000	-0.95071804224125300	-3.11738742701403000	-4.35620168689143000	261141
4.49197611174003000	-5.66140580040939000	-2.93756743268794000	-3.89935103653198000	-0.39570605131623400	-6.19879794808152000	251281
7.14168652217450000	-7.54256504793828000	-3.54255661957034000	-4.77948409222552000	-2.90982577053156000	-6.65150911013714000	247255
4.46881051167515000	-7.89669883559621000	-5.92235289355229000	-4.43508728683341000	-2.79236238501705000	-7.00459305085154000	246191
7.14168652217450000	-7.54256504793828000	-3.54255661957034000	-4.77948409222552000	-2.90982577053156000	-6.45150911013714000	230708
5.32838237710110000	-7.50196723829485000	-3.34179046801384000	-3.42147371152529000	-2.68690835724750000	-5.39392040351561000	229967
6.29324692471711000	-8.33969972421280000	-5.07189690255829000	-3.45380569905335000	-2.87404920537756000	-6.23639828357065000	226922
5.54138945217543000	-2.95947528911926000	-2.48763295884086000	-2.68274353801526000	-0.92773364166193300	-4.79928006052397000	226882
0.87440231475832700	-8.86298411808936000	-1.53699147615035000	-4.33683903198866000	-2.15458941737130000	-4.43126781840414000	217968
9.82441062954116000	-7.83595236422608000	-1.53829449038798000	-0.95071804224125300	-3.11738742701403000	-4.35620168689143000	214205
4.76371481793717000	-7.43269510058647000	-4.90933602633229000	-4.46235786794608000	-3.00326727452302000	-6.32871989816601000	209725
6.20135275073497000	-5.12170286072564000	-2.34351455398310000	-2.05137003364918000	-4.27524169063307000	-9.10224572109190000	209326
1.55015137618656000	-9.21000283089653000	-1.96270198587815000	-4.82511831388804000	-2.60495666660465000	-5.02413518264395000	208165
3.84817749425700000	-6.47849654972969000	-5.25064762155971000	-4.43207222539364000	-3.00136054113000000	-8.08379351090089000	200642
3.75739266089515000	-7.37602791793748000	-3.15634989202564000	-4.90947290379544000	-3.56206901805942000	-7.20089037936534000	199580
5.83896918991349000	-8.20544995954759000	-1.25389638304061000	-2.40883185848040000	-2.96380561119947000	-5.23612923352688000	189491
5.21329872862878000	-8.92944495074406000	-3.69624999363657000	-5.22059852157866000	-5.34844385837131000	-9.10092836425414000	186776
7.90550689164648000	-7.39573047997941000	-2.95468525793689000	-6.56785457143733000	-3.54781808025605000	-9.30527082042487000	179843
6.91894867683427000	-8.68264418778749000	-3.53649338525832000	-5.26716407913403000	-3.06922256894857000	-6.24780610946377000	179417
1.72933924623502000	-0.72549219238222600	-0.36976847295006800	-1.03040439187521000	-1.24106701745869000	-3.31331863895142000	176764
4.27817185389081000	-8.76224584408117000	-4.28519671755685000	-6.98205638922972000	-2.20489115029150000	-7.89198093527105000	171946
9.64730211897470000	-9.21449459668098000	-2.23550042542131000	-1.40067579113949000	-3.31395743575091000	-6.37891930441090000	156888
7.28045717743526000	-7.46079418952437000	-3.60503385796632000	-3.84610958124656000	-2.70755261169232000	-4.87268941733857000	156719
7.83435673475029000	-7.00577647664761000	-4.31105014325975000	-4.30222094621201000	-2.75342905017566000	-6.39079235240908000	146144
3.85688697869302000	-7.18692800421237000	-3.60959150714706000	-5.89954049569287000	-2.41547178253720000	-7.85425927888669000	144040
4.50613243884230000	-8.74228533007244000	-3.38154691767677000	-5.73895679751257000	-3.70884068206031000	-7.47921097263985000	143468
8.08411213457086000	-5.28696237925687000	-2.95446966218043000	-1.79809323906390000	-1.08603495461716000	-9.16085983568235000	143409
6.41772522786044000	-5.09165217828881000	-3.37548990363478000	-2.20178382241852000	-3.47903785930385000	-9.47922067014310000	139927
2.82559190881230000	-3.99448165542673000	-2.00999427435685000	-2.43579888992939000	-2.92027395356465000	-5.22441784309333000	139889
5.31159925021879000	-6.83467425629760000	-2.63411127668160000	-4.51435091140113000	-0.46106850352516700	-8.42977405907475000	139810
4.27817185389081000	-8.76224584408117000	-4.28519671755685000	-6.98205638922972000	-2.20489115029150000	-7.89198093527105000	134024
6.00952400346065000	-6.08102931662396000	-3.55858006063583000	-5.25513309789323000	-1.81699536741809000	-8.03227855418193000	133595
6.08634006840895000	-6.63384024783156000	-2.74950819201351000	-3.94533764468756000	-4.95069317068704000	-8.70024929453715000	127931
6.72374366755180000	-8.73558748074457000	-2.98501854301435000	-7.32432512599878000	-5.53950918414874000	-9.60084368117551000	127628
3.06525632472081000	-4.31789330243979000	-2.75034182836982000	-2.46769070194575000	-2.34635793350438000	-4.46790377849020000	124532
5.48548262557693000	-8.17848430992186000	-3.10312003514925000	-5.52215832148878000	-2.09758397114535000	-7.91471660055961000	119367
2.70619002812656000	-3.03758618923041000	-0.61761312103670700	-2.65188972387795000	-2.21787121544492000	-4.88909801878801000	118149
9.20956517301460000	-5.91721804866274000	-2.92121292540881000	-5.73310047588429000	-1.35001633367674000	-8.97911052964005000	115659
4.66944695156171000	-6.33881615031252000	-5.16532914130312000	-3.71327611086106000	-2.57525764989613000	-7.38828007891488000	114652
9.46606438974937000	-9.52683835177243000	-4.69934639533359000	-4.64500140741991000	-3.02538009601442000	-5.22435578568586000	110250
6.24689013668553000	-6.75630775153485000	-4.05360153660188000	-3.98931782121486000	-3.03747328427024000	-5.28956381851540000	107084
4.32962745512377000	-6.88007677100655000	-1.02950845371554000	-5.34665132319098000	-3.84123122421532000	-7.50790046982725000	106362
2.27587940223248000	-8.16486294769658000	-2.93884023665268000	-5.27526843104715000	-4.98665264283105000	-7.04388848663467000	104808
5.43451741799471000	-4.69072643438160000	-3.86170021125911000	-3.81903953535899000	-1.88955576783960000	-5.71581315003040000	103612
5.95050142957892000	-7.17467067917323000	-2.92314985958322000	-5.43219570802394000	-2.43447164296735000	-7.37368360546432000	101518
2.62447225016875000	-7.62537136851362000	-3.30418604868205000	-4.81161934131475000	-3.95266310361767000	-7.29749640903812000	98968
6.08917580713458000	-5.75215365535078000	-2.56995227614987000	-3.99406540100459000	-3.07766991173496000	-7.21655697748533000	97065
7.15463492494064000	-7.05541595084478000	-3.48879491686552000	-3.57706535267990000	-4.90516095768070000	-7.91880683513487000	96480
5.12245899260655000	-5.55543783878312000	-3.02934941920996000	-3.73795394231776000	-0.42156840634639600	-7.29805434539193000	91311
0.51970409540145200	-6.85082828172712000	-1.28726301636695000	-3.20272269727695000	-1.59582514288475000	-3.57092431892386000	91309
4.43122675737143000	-5.69807296024749000	-3.90508093595876000	-2.90450320066356000	-2.71426352841473000	-4.55692821901150000	90181
5.07869125476631000	-9.64748175912943000	-4.68458493615501000	-1.79718063599940000	-2.08130544794191000	-4.76718792749231000	89096
2.11316533816460000	-7.28494103917937000	-3.63600536476762000	-3.74536047481948000	-1.30458547676104000	-9.49332257031058000	88281
7.52800869438251000	-7.01016061808382000	-5.46565243051040000	-5.13799140180621000	-3.67998153852627000	-7.73005133230699000	87638
2.73326702577904000	-6.58726164492972000	-1.76981194812537000	-3.97453253946249000	-5.01781311348521000	-6.97902467146716000	87535
8.35056237785647000	-8.19935060390817000	-2.82362380761317000	-1.81858643461055000	-3.72969422880492000	-7.89974402853982000	80780
6.40947027125558000	-7.84353329684772000	-0.20495505452172700	-1.63205484375081000	-2.91032205514659000	-1.62744601085258000	80487
0.41935104215487000	-6.69889598726233000	-2.45202573654495000	-1.52444133815823000	-2.83189468288931000	-7.19913515401748000	66961
2.68604568279299000	-4.71062664264415000	-1.47365134404750000	-1.79464815798096000	-5.41118257527669000	-8.05082967238511000	65951
4.76757445192798000	-7.56591965991122000	-2.34859351204997000	-4.85428841707004000	-0.45424322347231700	-7.87262783436849000	63817
4.68237874527892000	-6.60466336833673000	-3.94224910470181000	-2.00202476255706000	-1.85251434771241000	-3.91721270735705000	62249
8.07810095873853000	-8.86145798070344000	-5.09090689545057000	-4.84056927803094000	-2.92896928488910000	-5.89767485489731000	61993
0.58917765335921600	-8.84559058646222000	-3.04336870363224000	-3.04258595298293000	-4.41558806337788000	-4.52902248868512000	61315
6.67581051574348000	-2.27860954244675000	-1.47567358508967000	-2.41982617916571000	-0.90979769381776800	-3.74318255022807000	59555
2.26189427151236000	-6.74828945651682000	-5.41544039769102000	-5.82042802861455000	-3.82437893237219000	-9.42717877689357000	59359
5.43451741799471000	-4.69072643438160000	-3.86170021125911000	-3.81903953535899000	-1.88955576783960000	-5.71581315003040000	58480
6.31006506154591000	-6.17038091068313000	-4.40891123270004000	-5.17827119992202000	-1.49556675342829000	-9.08488640368247000	58055
3.82343451642549000	-4.08403131779652000	-1.46631219270014000	-3.66937162969592000	-3.04335346667653000	-5.94960423807681000	54656
5.57655989128152000	-7.12999235009300000	-3.60837050838016000	-6.02409039736872000	-1.34409309881499000	-5.78500282150474000	52023
8.04584787795293000	-5.07843980131970000	-3.84573455739191000	-1.85912988295805000	-3.81398391348877000	-8.60059098561496000	48272
0.55954515692556800	-5.42163795202691000	-3.66078011321905000	-2.87886548863578000	-0.20252165166873000	-5.84378293276778000	47236
2.63075160087528000	-9.68474487851898000	-4.13732402631046000	-7.59661922669942000	-6.64207660712855000	-8.33751128951314000	45820
5.12145997645734000	-9.49517230107140000	-1.92621528935829000	-8.98037308429336000	-3.60858184710838000	-8.87733277403761000	43691
3.76267882792969000	-9.13678124018359000	-5.60952219986430000	-6.22589980449135000	-5.52914765828422000	-7.92080211241290000	43530
5.15291494875988000	-5.81004614419311000	-0.43817709234485300	-1.64960158128797000	-3.00744854382715000	-3.45058549843383000	41987
0.26692329846248200	-8.05360364646682000	-4.46591724355710000	-4.29961131029794000	-3.66848162345153000	-5.03292627161195000	40369
5.67810116265194000	-8.03948207530098000	-2.91106655870253000	-8.43865904457985000	-1.55517872559929000	-8.70239011424696000	40089
6.09268540437269000	-5.41314302864472000	-3.93428345050087000	-2.92498903214339000	-4.30680011259140000	-9.23226547003274000	38984
2.89697753189242000	-5.50030966407014000	-4.63416847098620000	-2.81000775025172000	-2.09772926554049000	-5.48889581662056000	38280
2.96626505945317000	-8.32643443295171000	-1.42677312817519000	-4.46304132628033000	-5.72150582332445000	-6.00194731671856000	35991
2.21887467484887000	-1.06188018957425000	-0.98274750598772800	-1.69057298436758000	-3.23423762692645000	-7.70759240115945000	34470
4.12173691146478000	-2.63629136114632000	-1.45052420539808000	-4.28151236619977000	-3.03038188537337000	-7.14100948045372000	34270
8.30057847198840000	-6.46348151634066000	-2.91860128548478000	-6.42950195430094000	-1.40282442835393000	-8.90788364561782000	32945
0.00308769473787551	-4.34758812671343000	-1.63274600270857000	-4.11305547648792000	-0.75693117364147600	-3.68448259689418000	32861
2.68091463147068000	-5.96579867017333000	-2.67392376302288000	-3.58846422609392000	-0.32141646089975200	-3.04118498423317000	31788
9.26885206117658000	-9.01409813440062000	-2.80934457721064000	-2.53100676102687000	-4.39509843673286000	-8.01769749359726000	30705
3.99454970548658000	-8.91990115040597000	-1.27590352254711000	-3.07463260858841000	-1.47675842161668000	-8.83019629645346000	30460
8.52299395398530000	-8.18317962719531000	-4.20875707052215000	-7.18289577424427000	-2.31664618653132000	-6.54762361323812000	29422
4.49243234744949000	-8.21708260276905000	-5.36305388226925000	-2.41088357693229000	-6.17970236670525000	-9.86436824197468000	29273
5.09631352272739000	-6.48166188480890000	-1.65760060735998000	-2.87698473159345000	-0.99814669049213500	-9.08224787120099000	27369
0.90185714560646500	-3.56041087291684000	-3.28620229205390000	-2.44967225643176000	-5.16198328279832000	-9.10431297980124000	24936
0.46989801083221800	-3.66569904003503000	-2.56298632049116000	-4.65722173644043000	-0.83481098747827700	-8.77012179758777000	23104
4.29407240683352000	-5.18868847705270000	-2.67653463039666000	-6.40337049474865000	-3.14589470750283000	-7.11153890606867000	22490
0.47783669533038700	-9.02646450338967000	-5.62266954797220000	-7.22608104496415000	-6.97743054977045000	-9.50302820009920000	22197
1.05258288495583000	-9.75618638363765000	-3.67253146567716000	-6.04788911289352000	-3.10841614921764000	-4.30645622337791000	21725
5.47737777064367000	-4.60247720962820000	-0.46631707114970500	-3.02710196029970000	-2.48891797697682000	-5.39873776691736000	18213
0.67447142468823200	-6.49689550391367000	-1.66620562474949000	-1.42457795763211000	-5.45290958582097000	-8.72247758198072000	18103
5.88318145542678000	-9.62144605729490000	-0.87519404355170500	-0.29177947897641500	-6.44459265538591000	-9.87704155117589000	17432
0.42575527875682100	-8.21656476283015000	-5.97409245112401000	-4.21982383223870000	-3.03294489531981000	-4.02057723882719000	17002
2.81702648964327000	-5.22290649313943000	-2.44813839944209000	-3.60201896540015000	-6.85046535226781000	-9.33478570854985000	16215
5.15308859454515000	-3.87571294694530000	-2.28979226549855000	-1.39680915188725000	-3.90127375903222000	-6.63764221129312000	14572
6.71987931785507000	-8.63185610492428000	-2.06272883884856000	-7.23287752715513000	-4.83313643815132000	-6.93403984355403000	13912
0.68433635105230200	-5.69606785814744000	-1.37169044551873000	-0.88910098518525600	-5.64979541370104000	-6.57183860377404000	13713
5.34027305001380000	-4.47660803936570000	-2.74915573036309000	-0.27276910452083300	-2.23992907181045000	-9.22734932492537000	12435
4.37890949595854000	-7.37150762493148000	-6.17669832223591000	-5.49515923126995000	-3.25316099888704000	-7.99429362284064000	12406
2.05671743078382000	-1.53727634330008000	-2.76588376489235000	-2.55606382253139000	-2.97452111511296000	-9.81613569000338000	12395
8.30412537527102000	-8.07463240723741000	-3.46629455317287000	-4.82867014575985000	-5.93949756222676000	-9.54689406953646000	12104
3.74585930090277000	-7.99086178454615000	-4.63858362322739000	-2.35300313868252000	-4.81488301418867000	-6.33670987874089000	11690
6.38590888214190000	-4.93785156621180000	-3.89547606035497000	-5.36085832413884000	-1.04525378630726000	-6.95277224229741000	11116
8.77553572405763000	-8.37403432658046000	-3.30037341282896000	-2.10163794729572000	-4.58891035527232000	-3.27037198748498000	11010
6.83038569192578000	-7.95623812983333000	-1.47336483031593000	-8.28585537220281000	-2.82867978960019000	-8.79889714094847000	10282
4.20059280214615000	-9.23076654645698000	-1.80148690918528000	-1.64969456741703000	-3.87239767750268000	-2.17239165801110000	10065
7.52347865984005000	-9.80804989333719000	-5.92093647833592000	-6.38729513677414000	-6.08574178588249000	-7.24316182178139000	9872
6.20195918905079000	-8.18119927769136000	-0.50571793985748900	-4.07356445702141000	-2.01712563864324000	-9.82886064934997000	9825
9.30106326102352000	-9.98168917988518000	-0.98181550624533400	-5.91473234828070000	-1.19427078444620000	-4.30640475582706000	9576
0.32530928038956700	-7.12298339231908000	-0.76823115944609300	-1.42290204492573000	-6.42718207269889000	-8.31847852626676000	9567
8.81041465706513000	-4.61873451771062000	-2.33161209593326000	-0.51531228148159400	-2.60835143566323000	-5.29507161305260000	8972
3.83038357713195000	-4.73966514587232000	-1.35618328766329000	-3.46296245114193000	-2.88843172596531000	-3.22617507827017000	8919
8.03674277518524000	-9.37912673115338000	-1.95273014318809000	-8.01839684539867000	-2.92345265891870000	-5.80560291374891000	8621
7.49917601833450000	-6.57135806333759000	-6.36570333969185000	-4.89989597337387000	-4.01299094269383000	-7.02914126052302000	8537
6.57672667094250000	-7.37012547046077000	-0.44784896677532800	-6.29677976734925000	-6.87876463994477000	-8.91075134829245000	8329
3.77359968405189000	-9.48470770715297000	-3.27047900519222000	-5.40347155576965000	-4.07124703909355000	-3.14100626329348000	8206
3.26147002685969000	-5.85872378369684000	-5.15356513226207000	-8.28213223397338000	-3.17052028197426000	-9.92147769622795000	8063
8.16144327785224000	-9.63637551793861000	-6.65625557348763000	-4.71102907867323000	-3.87693220880876000	-3.43963201026205000	7080
7.07055971112868000	-9.19138574118978000	-4.53517789331328000	-6.58352591868051000	-5.58401048427143000	-7.29548437014732000	6709
9.52727997725685000	-5.32202404967432000	-0.23991502069105800	-4.22777997276811000	-1.34754304501593000	-7.33890886900644000	6471
5.50204896935557000	-8.15244955220493000	-0.41175358993092400	-4.44251423972692000	-8.06588628858970000	-8.84859379858732000	6224
8.41159496619619000	-8.29307085333173000	-3.96071979542754000	-4.70713097737389000	-6.19456096981187000	-6.29616255328410000	6171
9.17549223227397000	-8.58582827114844000	-6.92571798120226000	-2.97643876075076000	-0.87827299019490900	-9.43006850361327000	6170
0.01660128272348290	-8.01555141645973000	-2.88999005852253000	-3.88142313725448000	-3.33606992000913000	-3.63371629800316000	5686
8.83358672234540000	-1.99091511627273000	-2.09260520435973000	-4.81961133616906000	-4.76781536139314000	-9.98077244783307000	5680
0.85059450820727100	-7.69929574710386000	-6.93659444633558000	-7.10291418426064000	-5.54278474513637000	-8.05146965145551000	5679
8.61715423766495000	-3.77672345726852000	-7.18213015225923000	-4.24848783597621000	-3.86290925042445000	-9.11932818060778000	5318
2.74516204218018000	-7.67354996723932000	-5.83752491297009000	-2.11724992848654000	-1.13491496167210000	-4.01970991725900000	5193
3.44692467072479000	-5.07983103657845000	-1.96275619463366000	-5.94562718556084000	-2.83773445437962000	-5.25978190759804000	4758
4.95901776884530000	-7.01452262830460000	-8.10523698428689000	-5.28800376867428000	-6.73471174902355000	-8.96750293733423000	4694
0.16650723025397100	-7.51163124661155000	-1.53018497130471000	-0.67743389365177400	-7.09032830692200000	-5.76401552439533000	4463
9.08983413460678000	-8.15342156267293000	-0.86778868802204600	-9.24318356311291000	-4.19447714256079000	-9.12871967465998000	4260
8.06079685796593000	-9.83111754257210000	-1.26176047634829000	-3.51852500870079000	-0.01555961801466990	-7.82098363939368000	4085
4.65610303087819000	-1.45926121016532000	-2.66805342789096000	-2.69531601907375000	-4.36454570646275000	-9.24580917870307000	4043
8.15817546218194000	-5.02206794194969000	-5.59055708915621000	-4.74168015459076000	-2.34123629190243000	-6.13084807505844000	4023
1.40424005225963000	-8.00510521379611000	-6.34525900531905000	-7.95355517361695000	-1.48911784765181000	-7.13307970935626000	3911
2.05726682105236000	-1.57906420114222000	-1.67522057116892000	-4.19502958223344000	-1.06257233248579000	-7.54257626970250000	3678
2.94660186089035000	-9.65842771159269000	-1.03883633829783000	-3.47458055819748000	-9.76449798282359000	-9.02187711247068000	3508
5.12279775226258000	-8.16403510457817000	-3.82440081206033000	-9.56202449512654000	-0.72895444505978900	-8.66023503640269000	3471
0.60714456039606300	-4.32096476861113000	-7.03808686173809000	-5.40832928310847000	-1.70946491292614000	-9.15824462003426000	3424
4.78497793337363000	-5.61449479603189000	-4.75828181843929000	-4.26757096997685000	-5.50208852300708000	-7.90231934385827000	3383
4.13456768544156000	-5.83473708611597000	-1.80054578210568000	-2.53916230739905000	-3.18401278746263000	-2.77486668982517000	3317
4.84660065339142000	-8.01938998222062000	-0.05349769556386660	-6.19075329376320000	-7.81347888806268000	-8.91990761431250000	3258
7.36779509735150000	-8.76567161984870000	-7.15553210189349000	-3.03752044341478000	-2.19664551090986000	-4.34937251205988000	2807
7.20055546973275000	-5.87509846547591000	-2.45690755455024000	-4.54856018290373000	-4.70901473641848000	-5.23413780654451000	2773
3.41377349560130000	-9.28482219795800000	-8.66013019425043000	-3.74078208518362000	-2.96172176275303000	-4.93519130657272000	2728
0.64328828315020600	-8.16094345376511000	-6.32587536081818000	-9.17025642767077000	-2.15199276548713000	-7.35263619380937000	2705
6.64091811958580000	-8.99771404924392000	-2.09546142995207000	-6.58641670838828000	-4.89991829301136000	-3.77143140551313000	2692
4.76914062872435000	-9.29203912932586000	-1.40475434937774000	-6.59073575849407000	-0.00589457906474244	-9.20298136142664000	2690
5.30483062328211000	-6.48388661808032000	-1.66569844685600000	-1.68069182734858000	-3.27469270485956000	-1.02836078126777000	2601
9.05395411269339000	-6.07791778174775000	-2.62138293163647000	-1.59605219576737000	-9.26619023517314000	-9.49867212046607000	2539
7.71951595740295000	-6.86079894408165000	-4.48201231480220000	-4.71469022175427000	-2.85494972150157000	-2.57945132628665000	2446
3.03045599316011000	-7.22378746346225000	-3.08115804211351000	-6.81374251135208000	-7.93607448185969000	-9.09422902541770000	2345
0.90391516075833200	-8.63697708339315000	-6.59638947087128000	-6.52694264841957000	-4.92402420194148000	-5.78870340645854000	2294
3.19852481500662000	-7.40505346425404000	-7.13463031484645000	-6.25179341929554000	-2.11660010385620000	-4.78048336805705000	2255
2.62852658418590000	-3.29783839005771000	-3.61566328318658000	-2.82340820468079000	-5.56334338543340000	-7.13109860906566000	2227
0.81037414777994000	-7.49291077474457000	-1.11177983918646000	-7.73572908409656000	-1.69658103900106000	-7.48725533822639000	2215
9.08233024393184000	-8.14484603123743000	-8.73883830148521000	-5.75529815341900000	-6.66221585195041000	-7.61148842979884000	2099
8.45472620537326000	-9.18198086846448000	-6.92159025060824000	-5.51462171611867000	-4.75373800116774000	-4.60102124160824000	2017
8.74385609527738000	-1.91715694205992000	-1.23097071035337000	-4.08855811819173000	-4.58173815628632000	-7.00530911887295000	2007
2.31202506385861000	-9.83728094631422000	-6.38688458778468000	-2.98404296903301000	-7.79854910320250000	-8.42198944968945000	2000
3.10921743395049000	-9.73615241236068000	-1.93004326397535000	-9.41297879031132000	-6.93094585046360000	-8.74234232355142000	1971
3.75299113455043000	-7.11730130940289000	-6.47986359477723000	-4.29058087900724000	-6.14841569940100000	-5.84602492128037000	1948
1.76928228201035000	-9.07484774129533000	-8.55139662380198000	-6.18901182500583000	-2.82755566979896000	-8.00334502447587000	1833
2.59409240599303000	-3.27361361916247000	-0.31508843562234900	-1.16429931057483000	-5.18715268167931000	-7.60630240602319000	1796
2.45347331048773000	-2.85530186965937000	-4.14271370198861000	-6.03332927943726000	-5.27330016194227000	-9.96934552878977000	1750
2.63311068188442000	-7.98650696625916000	-2.59048508701567000	-9.64885497075888000	-7.40014756410649000	-9.12495351319832000	1606
0.11457697067017000	-8.78375201532945000	-4.84022003030196000	-2.72724375187665000	-2.10484886276343000	-0.40782484272073400	1493
7.76870626037299000	-2.96145762842588000	-4.61522060858413000	-3.88555354220515000	-2.96157541547284000	-5.73550960050209000	1446
3.28927347673105000	-4.00845601969865000	-4.87019289953226000	-4.55696830441426000	-0.53811641219978200	-9.63921356123498000	1444
0.03722805745061230	-7.66357829835869000	-6.01245319022657000	-2.60215351518999000	-3.79486216297509000	-3.78829564791781000	1442
6.57557137414414000	-3.32168445554928000	-3.36304837711294000	-2.84698654726231000	-2.45588478357762000	-2.71287520918212000	1412
5.43108317101394000	-6.08879637539964000	-1.85709032888890000	-3.13557607859835000	-0.66925937750825700	-0.05654513803934440	1377
9.94025539008162000	-9.66568570249524000	-8.08410742700758000	-6.91928814479024000	-7.70583213799923000	-7.23299689015629000	1341
0.02245880289398980	-4.70363686470215000	-5.75485175963233000	-7.27301118297318000	-4.38203189341067000	-8.44944234545035000	1242
0.47830995356621000	-9.58130157627561000	-6.54630818903875000	-7.46948787441931000	-9.80571471279155000	-9.83137601913251000	1206
3.24460092677468000	-8.07534691324094000	-9.84890441866542000	-6.71652567174401000	-6.77684626189988000	-9.89228671138244000	1202
4.93584793959636000	-9.18885431915678000	-1.45510038271096000	-5.34566429974353000	-7.54992724956382000	-4.68910534285465000	1158
6.49408064018265000	-5.55484302806056000	-3.29053330088665000	-3.99736486104795000	-3.71743377638217000	-3.07006414353435000	1133
3.89315694326425000	-6.48227789187117000	-0.40317909688621000	-1.96680333864905000	-8.82053225047242000	-6.09526323753846000	1119
2.56002893769739000	-9.46222271899168000	-2.31557670181894000	-0.62264114307362400	-0.22668519340527000	-7.52485282963335000	1106
8.84070066222708000	-8.40880247237490000	-8.80622907587489000	-7.69367071241446000	-0.06725888961090270	-8.49345116017937000	1100
4.30046079692074000	-8.41797195064699000	-5.29506868834054000	-6.93508690398077000	-0.09611828876610940	-2.89086064898736000	1051
5.75263625114744000	-7.21249395991848000	-4.09624867344621000	-9.94569076739922000	-7.80642321186157000	-9.93830024567403000	1048
9.39203750192632000	-2.73880826359245000	-1.30350796116958000	-4.06361392759331000	-7.17949982044229000	-8.61818034010439000	997
1.72955529722687000	-9.57135939483679000	-2.29831240055376000	-8.14309949558813000	-6.84833700196395000	-6.57445875757091000	961
4.59636308457033000	-6.54233960413461000	-8.35646302262678000	-8.00116924220322000	-5.41897466928176000	-7.99069617445129000	960
2.88445149042236000	-5.54734868030510000	-2.18527471791841000	-5.36859404750956000	-8.24225980923692000	-7.25782131364940000	955
9.95364362676353000	-8.63279438082791000	-5.21260731015603000	-6.94890188982831000	-4.81716474861424000	-4.82391903264191000	952
3.80515159231796000	-3.80792387246886000	-4.92210753588165000	-2.77403925721528000	-0.92414345001118700	-6.86387979336717000	943
8.66861033099022000	-7.41073630371242000	-1.38661748372367000	-0.44536677753982400	-6.54391031733229000	-4.09819233696737000	925
5.44093282663974000	-7.72771490704678000	-0.05831157903753100	-9.28110460781649000	-5.38240286721545000	-6.30535556462284000	924
8.60612146525861000	-6.31385067741782000	-5.73697811292824000	-1.90934050105913000	-0.04500640563148690	-9.20385752184318000	908
9.99750495827255000	-9.61732156000547000	-8.02899880589726000	-3.75042519006846000	-9.42750318840948000	-8.00621523155254000	892
5.15231388655264000	-5.25739963010409000	-9.61581863793946000	-5.88045500492679000	-4.10730253592763000	-9.23712102363616000	883
8.95299380297695000	-6.25799898730265000	-7.32893276979002000	-7.82301017774836000	-3.82740778014576000	-6.52521455169809000	881
7.48573562328175000	-2.04698014438134000	-3.53862945220869000	-6.26359899878934000	-2.43420097776206000	-7.80279555577120000	868
6.75073877112495000	-9.13931050769009000	-8.06846795015629000	-9.28140049236776000	-4.47361737850486000	-6.77374091056388000	856
8.42994242294016000	-9.54490449599466000	-1.46074361949431000	-9.18532711014717000	-0.67430334080998900	-9.87074299348698000	851
7.61701827952031000	-5.19172997507760000	-2.61017123413524000	-3.37727466682007000	-4.32238344555347000	-3.24986094601548000	847
6.05920873424928000	-7.77812191550329000	-5.33958998124554000	-1.79266052774861000	-4.92227937083367000	-3.74312535798886000	839
0.93144888913190700	-8.80483563651282000	-1.00021377805921000	-6.57176891750950000	-2.82423940386340000	-3.33278082800617000	828
9.63499699055242000	-4.89978414605767000	-1.55717281788549000	-5.97882901298204000	-6.20215859736477000	-6.97345617291284000	820
7.77274033367083000	-5.89778627387540000	-0.65703153352429000	-5.68627869847414000	-6.51107398451167000	-5.59968065961355000	784
9.24901010427644000	-4.00887609336228000	-0.98659453472174200	-5.68725985974556000	-0.47378038140173100	-7.14778279226349000	775
3.72253141407639000	-2.98331734020000000	-2.99655057652350000	-6.86336001415547000	-1.37057074966590000	-7.36256720950194000	753
6.67236024281080000	-8.93834952637464000	-8.22893118443440000	-9.16836679302537000	-5.53677727667318000	-8.57964073303253000	753
1.55483471001506000	-8.46210036172314000	-4.34143614065658000	-4.64092929105482000	-6.79164136225027000	-4.62307839070672000	752
8.60419061115517000	-4.28147128978894000	-1.11470462766733000	-0.04376736665676720	-6.53804204156903000	-7.19137985613278000	749
7.74149470375427000	-6.41466046255220000	-1.30951463911206000	-3.81960515286062000	-7.70588044575900000	-5.80695322305015000	739
5.69549915831718000	-2.83427379163050000	-2.24774956381416000	-4.65465402053014000	-6.24041360514558000	-8.43051379450334000	734
0.64140376559642200	-8.49622299256892000	-2.81595928908613000	-5.97212756062577000	-4.34525319138417000	-3.64605203550054000	709
8.06394620337846000	-0.52830956279924700	-0.85088809854608800	-0.14363313861648200	-0.21713480106234800	-3.10100835455195000	706
5.50480153051037000	-6.15266622879149000	-3.47044206991594000	-8.52990372558852000	-1.01228886189294000	-4.63049131704308000	699
1.40735124306339000	-7.13505639568751000	-2.88627822420045000	-9.48859480263908000	-3.34995129912834000	-4.89175385881746000	698
3.08499060047860000	-5.94645801408144000	-1.03297735832235000	-9.67854701952005000	-1.35803133944303000	-9.56694759925574000	681
9.51357302858768000	-3.44666799704123000	-6.62330652132079000	-4.69605206113849000	-5.85930828312216000	-9.64213794823976000	667
1.47099587930451000	-7.95122050326873000	-7.47810019991391000	-1.22409876109050000	-4.39333535097604000	-5.08686905728131000	638
9.15967947177770000	-4.13186125513808000	-6.46234500381879000	-2.33765262783870000	-7.69721127357524000	-9.67582594622323000	632
9.82342427320040000	-7.50372695432136000	-4.69465554969817000	-2.64780412108325000	-9.43686870323374000	-8.37922048812709000	627
6.56161316200483000	-7.09135527521444000	-4.74239637758364000	-4.60150629966980000	-8.13307155980463000	-6.91082768907108000	624
0.91231543519445900	-5.13197201805032000	-1.43608524791401000	-4.92337038444774000	-6.62405184064254000	-5.45318094403876000	613
9.12130421177547000	-8.42992497201143000	-5.77317561039361000	-8.78613303923843000	-4.87310115857499000	-4.68040602364286000	608
6.94234347246570000	-6.83801596545485000	-8.26252416523693000	-6.11979871953868000	-7.71619859321093000	-8.50397752600817000	607
0.76215111692075200	-4.95612333594400000	-5.77426355809365000	-9.79304013340193000	-4.76964379379592000	-7.46492861040279000	603
1.64863462111491000	-5.28229178628419000	-2.37893605619318000	-9.08386598587479000	-7.87674755573021000	-9.98593765112540000	597
0.79328919262904200	-7.75906502328506000	-3.61687158942394000	-6.22632842608656000	-4.22173314536166000	-2.80649567821327000	590
6.22059286251415000	-1.02537236172228000	-4.26009202592093000	-3.89784465294635000	-1.40394477875943000	-9.15311071656328000	583
6.22652551672563000	-5.07923073643079000	-9.06312553562004000	-6.17255802451917000	-3.73204037290868000	-9.36054211420646000	583
7.53332961136384000	-9.68044817565985000	-3.62742485325996000	-4.60139441005901000	-4.57887948192773000	-1.68872985375316000	580
8.41395371197490000	-3.43714785519278000	-4.81679839183040000	-0.60883688130720400	-4.30915285790005000	-8.84250765067833000	574
2.50118811301482000	-5.03241583135526000	-6.87173632931837000	-5.14918517899876000	-1.10265021112727000	-6.21604634288585000	568
3.21264397553712000	-9.34810263690382000	-6.14530510090955000	-4.56737791052860000	-3.61838450372045000	-1.93648213802301000	561
3.58163336597251000	-5.22653973958067000	-3.90572217476964000	-1.91954923416342000	-4.27290377793462000	-2.67406368110669000	560
6.83373170011999000	-4.32470533317256000	-2.97829584618348000	-4.11280250932796000	-5.27375045858881000	-4.68664955570628000	556
3.25991671799554000	-4.53649207081211000	-5.69816689994046000	-0.73512478051535000	-1.35814374805541000	-6.78862465144458000	552
6.12246583064763000	-7.49088091498170000	-5.73120360288915000	-8.06129224759642000	-5.87829706029307000	-4.55524979273786000	550
4.16950500624812000	-7.19221111956038000	-1.28847316701225000	-3.93530323700907000	-6.13534675660004000	-3.04970684842594000	538
2.05117707076768000	-4.97828388365969000	-2.91883944039541000	-7.61997921941943000	-8.67714617135510000	-8.55063056279851000	530
9.43694643970455000	-6.83300019577859000	-3.40090251250050000	-0.45602901806067300	-4.39986958047242000	-3.01591329567954000	522
3.38277322583925000	-6.23682281751560000	-0.58451963091978900	-8.27648252091962000	-7.10212345302183000	-8.62013556643542000	508
8.62041659848838000	-6.66315069703245000	-7.17412617481451000	-0.72681630731406700	-4.51046875234587000	-9.86943681999068000	479
3.29409401958326000	-5.37151553567433000	-7.08406127447611000	-7.16485114691839000	-3.30510546654994000	-5.09266388426894000	479
2.17066988397181000	-9.62186424097760000	-1.66912699119984000	-8.24837216190672000	-0.35599972010201300	-2.66433366629318000	477
2.32650291027406000	-1.68156514524600000	-2.54690822600317000	-6.42247289528059000	-1.43510607827610000	-8.51490768827338000	470
2.41373888072356000	-8.82496676233566000	-3.90994713368654000	-1.42403667259391000	-6.41624848508671000	-3.54864379541190000	467
3.29283160246027000	-6.90063111068403000	-4.66852722709273000	-1.11760854899109000	-9.26097290981920000	-8.67972826745299000	455
1.21416906180006000	-9.74190201989118000	-2.18459686077861000	-7.39181061030286000	-7.39972120812716000	-4.40183913245851000	452
6.39108513928383000	-9.19363445799476000	-8.48574519679193000	-2.60347606120351000	-3.49693091782456000	-2.46260763743592000	443
7.38091365679734000	-2.86437059765485000	-8.33255890160284000	-2.84838059520071000	-3.31181513772979000	-9.51063415203280000	440
0.32123527193796600	-9.62276340860613000	-0.19012286353962200	-1.38879173409397000	-1.69171619852351000	-7.62836523748255000	435
3.38495448526268000	-8.36165262281239000	-2.64889060670094000	-7.16726872695451000	-6.58950283514971000	-6.63626723475308000	431
3.53985080142939000	-2.27468210949894000	-1.84490855918251000	-0.71273267456107800	-6.03734002979372000	-6.02278697270942000	430
6.35715110699004000	-9.53935694997008000	-9.32394812799417000	-7.71598549868900000	-9.30414799516125000	-8.37285616946806000	425
2.38947368608688000	-2.56451676263968000	-6.16110268631107000	-3.61293877035548000	-4.54389441723432000	-8.11682012709669000	414
2.70220220537438000	-7.55879306490709000	-4.42606897442162000	-9.66462911432017000	-7.32809456706514000	-8.57668986714088000	409
4.82035342033325000	-8.25070404719607000	-9.90016677067810000	-6.94636951094260000	-8.72173337193264000	-7.13668793673135000	402
2.40124672513929000	-1.80871837197129000	-6.68675563969946000	-3.65668626979545000	-5.38398999930763000	-9.02634042435957000	396
9.80149685981482000	-7.00405560520938000	-1.70942813366180000	-5.65844895703209000	-9.72004479662653000	-6.75534251038470000	396
7.84715827796383000	-2.28159476693804000	-4.08486394963477000	-7.01713309837524000	-4.08788554082938000	-8.03291075264820000	392
2.77699206961776000	-7.43076864047809000	-6.60417904266196000	-0.53700474179297300	-7.34756268367355000	-8.29511832656951000	384
1.17854607978204000	-2.27455534307462000	-1.55469222404225000	-3.27520724664328000	-9.33853697199098000	-9.80894764338539000	381
4.62216695482973000	-5.04226926473852000	-8.61670171962044000	-6.50789263330865000	-3.69976309155580000	-5.61186072034566000	381
7.48779187089382000	-5.69156728265420000	-0.83236067447719700	-0.20368595424104800	-8.21445008414244000	-6.64705437850251000	380
3.18579004774392000	-7.78363688110361000	-7.56045160467890000	-8.73991976324430000	-2.58267666876276000	-4.41686884612294000	368
0.66784293220667000	-9.51827497693082000	-8.63214248544597000	-9.12847826913046000	-2.29954123392296000	-3.78318367168642000	361
9.53245618896833000	-9.20053392704987000	-8.52681827399701000	-1.68409995972234000	-1.12219804362477000	-3.73833292668182000	356
0.92191037514070600	-7.48816921109662000	-9.23860514580442000	-9.62264929798232000	-6.56971666137071000	-8.57089202550884000	354
7.77746595411971000	-5.11419753286270000	-1.54727858869543000	-4.22807593810966000	-9.49197229735868000	-7.78177831948097000	352
5.15349272893745000	-4.42784642922563000	-5.39416468837310000	-2.37524438281129000	-6.84236944140911000	-5.49434060834803000	351
4.66501613646016000	-2.95603096075723000	-3.60245756047543000	-0.17747896998723300	-1.96193477982356000	-9.87844994741082000	348
2.22589270431740000	-9.15411945895590000	-8.66304665973155000	-3.90421542947590000	-8.72325965200852000	-7.73592991424199000	348
1.14338281199103000	-1.67771428674418000	-1.65051973609854000	-3.59710204455684000	-0.06577878885191230	-4.92922693716179000	338
2.59086363478446000	-8.69104516145516000	-2.88437105943607000	-9.64583126246209000	-3.51587273212756000	-2.54354712430537000	330
2.46163058660677000	-4.98299929770565000	-2.81877748749470000	-7.62914373141134000	-7.41898549461989000	-7.17906500308016000	327
6.93600087217561000	-3.17524277122264000	-4.42313648952486000	-8.30503524142838000	-2.41321453431432000	-7.70012073660630000	322
0.37470748381028200	-4.40776462851252000	-4.50449300235709000	-9.36347008527763000	-1.49343660565803000	-7.79646255808739000	320
6.13662104447530000	-7.06471427475058000	-4.56918564320869000	-9.17483946829400000	-8.03606293085885000	-6.76432155852321000	313
3.89877336010822000	-3.47604675571402000	-5.28515017337513000	-1.11358161511150000	-1.78253992917516000	-3.47346117271696000	312
5.77001157817428000	-6.16809935435176000	-6.93699378380946000	-4.19419439063765000	-4.61436583177233000	-4.96890940558207000	310
0.07337346706255960	-8.49155827497224000	-1.85746766829558000	-7.92951574611229000	-6.42042897014695000	-3.78983527512746000	310
7.49915685953241000	-3.01028614661265000	-1.28074575547868000	-4.43152823364112000	-8.28262201574970000	-7.18939617591475000	308
4.65141366155077000	-3.98099305006383000	-2.04151175634455000	-5.68075060702046000	-0.69146652491834600	-3.12083571525822000	305
4.24890204776778000	-5.90127844684057000	-2.78232698915418000	-7.31291366866249000	-0.08880675873525470	-3.04523389420666000	299
1.69043548506780000	-5.53116993890377000	-2.86959977935505000	-3.46481565294594000	-6.27948104599993000	-4.84279372220256000	291
5.98882395584180000	-8.44978012289975000	-2.46893863233999000	-8.75554201783047000	-8.55227679881706000	-5.91294363699759000	287
8.98638816194552000	-6.35991882388358000	-8.72679404114551000	-9.50129876223965000	-6.79492498186432000	-8.33901043297377000	287
8.20043532658808000	-4.60307105439114000	-5.23937275903419000	-9.94104079866740000	-7.17704431524064000	-8.60341939221375000	284
3.96319693030779000	-5.32474629220286000	-4.43300922184550000	-4.74176466851858000	-2.32395412768325000	-2.18551330883038000	283
7.12212703880856000	-7.12341547148654000	-5.64670109769560000	-6.38759277779471000	-8.98984830194961000	-6.76304620998207000	278
8.82592908859105000	-7.07153304042532000	-4.31715905084820000	-7.29673198985316000	-1.80615258615495000	-2.46896453706388000	275
1.61602876660237000	-7.50585707276926000	-5.34195432241931000	-7.97849687587566000	-0.85143184289479000	-2.67586594781408000	273
7.50615258367687000	-4.90572560581619000	-8.57039259605559000	-1.94284762022433000	-2.37804445180777000	-6.52547656021190000	273
3.46157205718227000	-9.33965198383604000	-9.84349108325734000	-6.51955842729886000	-2.17810583502143000	-3.24158756593980000	272
4.78617171676779000	-0.79784283633737500	-2.25492697800985000	-5.96376071320099000	-5.09758935920308000	-8.52713307324933000	271
3.90387842886817000	-6.67614405963379000	-8.10670910113350000	-2.05304152684059000	-6.35034911947127000	-7.98979377395299000	271
0.15728463139537500	-6.35835551469722000	-7.66969639364926000	-9.89327182525892000	-7.79501274777220000	-9.53749601828501000	270
0.10744062225915200	-8.75280626785936000	-9.64353793188149000	-3.33649442802068000	-9.67498722988970000	-8.67066846122578000	266
0.03353414478956090	-5.61894259536161000	-2.85795816364001000	-7.26900697850502000	-0.67293227470970000	-5.08173444330949000	261
1.02995463684139000	-7.38396109826711000	-2.81864925798753000	-9.20011387940338000	-9.87690206391705000	-6.75888375721945000	259
3.45477448550207000	-2.97816470557757000	-3.21583452604787000	-7.13429444270850000	-9.12674362821868000	-8.19265869916639000	259
6.83872905723750000	-1.66639673506181000	-2.03950719742246000	-0.96094966626055900	-2.84340257933767000	-2.36366041779280000	255
4.94548828252968000	-4.54925737925828000	-8.57172946946038000	-3.64422724509740000	-3.12373598108178000	-6.10693386051187000	253
7.63170062779840000	-8.09301927581566000	-4.53912339943728000	-6.43303931491833000	-4.68957383077697000	-2.46017477365485000	251
7.92513121385370000	-4.92011082610632000	-5.31372857961867000	-3.25732067101000000	-0.84212564041733600	-2.39126007225219000	250
8.58490245244606000	-8.94592403401702000	-7.35622630459518000	-1.93165813650709000	-3.73758020614801000	-1.32987850702259000	247
4.59584052015234000	-7.55187513996350000	-2.84026505164377000	-3.57558253510021000	-8.78290177413173000	-5.84192902447144000	246
3.87742222992992000	-2.51561833044606000	-0.45573002558787100	-2.08001253426884000	-5.02194393723557000	-3.88804483568519000	240
3.70162761885689000	-6.37150212728911000	-8.96432346569669000	-2.83844670265235000	-6.30005254314149000	-9.12329950826611000	232
6.42702671970706000	-5.82762380792800000	-7.81463797017928000	-1.58329094361990000	-6.94890636860521000	-7.42119507916008000	228
2.62402061070410000	-9.70568243258018000	-2.94851303413948000	-9.62730846369863000	-4.71600270588292000	-2.96362987732210000	224
2.21494926241149000	-8.56435657991031000	-7.29220603621953000	-4.37865752976584000	-5.26766314553231000	-3.05701411617757000	220
7.57914848042113000	-4.54278020097155000	-5.90406681475540000	-0.58267985337918300	-4.18197828103287000	-7.72089500158598000	220
6.80314435088865000	-7.21848200086892000	-4.73720008691086000	-5.90119347720490000	-2.71720120244747000	-1.66425660251370000	220
8.49275150010644000	-9.29953674853715000	-4.07503542504888000	-5.46412883167292000	-3.10360298100171000	-0.92115325558683900	217
4.84581407956620000	-2.61358387250366000	-3.27612166720969000	-2.99816886539408000	-9.03062565217259000	-8.34868647421633000	216
8.05765898783247000	-5.93119142991954000	-6.43936790210635000	-4.71465208594587000	-7.73475008499665000	-7.79568784673067000	213
8.85223986927721000	-6.42159764234470000	-6.40598991292980000	-0.04231758062426810	-1.03486175729050000	-7.15724040517676000	212
2.57692540369276000	-5.29817778451084000	-0.76984193030061200	-0.37997450861922600	-8.26682098211164000	-9.07833763816394000	212
6.98105382611761000	-5.40377581331879000	-5.29206714058100000	-6.49731958478335000	-5.84911031111424000	-5.50908173857151000	203
5.45537505625801000	-6.89580902746463000	-2.41982409651133000	-7.47527025023500000	-6.04799256411810000	-4.33950346323253000	202
9.30186648228718000	-5.10099529481324000	-7.96289277874257000	-8.48501153933980000	-6.31416298905882000	-8.41091214179595000	202
3.07400444732392000	-7.98356393624198000	-8.59967071234256000	-3.94551939746801000	-7.80344307974137000	-3.55404681823606000	201
7.29163622707101000	-7.73406795728845000	-3.38839714221449000	-4.86814769689321000	-8.93206586650086000	-5.54015144811187000	201
2.10260034696959000	-5.70666877698434000	-5.25645360823638000	-4.04841394596556000	-8.96567477279914000	-6.33221438476757000	198
1.13352824441861000	-4.26539928108830000	-8.15934719386229000	-2.16077766455918000	-1.60866836310148000	-7.43995016177312000	195
6.56264937947254000	-2.26990026253076000	-2.51280694987852000	-5.51273929428086000	-7.96561588644264000	-9.37203940044625000	194
0.28326216698908200	-3.09077088528035000	-6.01448931572418000	-9.10855590431892000	-5.29228505779829000	-9.96853672467712000	192
9.54652167856694000	-6.71727967947808000	-3.51640192548237000	-9.40413712644920000	-9.67634499183884000	-8.31796243839719000	191
7.34678375288067000	-9.74681866995151000	-8.23321985403403000	-1.92655970270279000	-5.81859893877114000	-3.20620555294161000	191
9.49419425860038000	-2.29672059346354000	-5.05825006004971000	-0.92906601320398000	-7.93373747737506000	-9.63201000647456000	190
1.12440800630166000	-4.58197370217055000	-3.64793850404807000	-8.08954551486100000	-5.44130659328927000	-6.60130420374943000	188
1.93885159339943000	-7.15677917071762000	-6.05445961803148000	-7.04860095326181000	-2.62399593619985000	-1.90360947724473000	184
9.31029495032212000	-4.38833577801937000	-1.14212803611768000	-8.28417993412139000	-3.08651410960847000	-3.33362977095271000	184
6.04320874584712000	-9.10455774957220000	-6.83800166490412000	-9.66786816295847000	-9.22825689476079000	-5.16278020889500000	176
5.44658864822622000	-1.33546303948792000	-7.50243089408908000	-4.47308756057231000	-3.88470614007943000	-9.32292896668428000	175
3.77088877161959000	-6.71486006997354000	-7.22323495336559000	-8.38761369052899000	-2.30506236350261000	-5.43981625152154000	174
2.31189296655337000	-6.84482502358378000	-9.18279852065571000	-0.67676666342745200	-5.38126664854984000	-9.67161308593476000	171
6.84188709092850000	-8.89885669031205000	-9.41012145879314000	-6.19732887389445000	-0.13518280720719200	-1.94723374584163000	169
9.79200382887259000	-2.79488617750198000	-0.62130290720414800	-6.80053981349722000	-9.80550877145050000	-8.08334437626170000	168
1.40215477223177000	-3.16895287904276000	-5.24998122302672000	-7.56656069698263000	-3.58128272767146000	-5.04823265505251000	168
4.96141638718064000	-5.39769792905754000	-1.61661722527400000	-2.12764377587887000	-7.20151742282319000	-2.63457366974558000	167
1.91248595047069000	-4.91796617712472000	-2.99498932799763000	-4.60786483098069000	-5.11603417961757000	-2.32270352608296000	165
8.50820665853095000	-6.00799510540663000	-7.21584177609198000	-8.93773315084054000	-7.18066959399906000	-5.32155700723597000	165
5.18439414782556000	-1.43395214427740000	-1.24125909332299000	-5.72673317906981000	-2.63558632958532000	-3.81207393591275000	164
1.81384929799126000	-6.84722150352790000	-6.41873066137039000	-8.51642821910633000	-7.59247077447742000	-6.35518333363644000	164
9.28207633855895000	-8.56170560330109000	-4.88110081967231000	-5.21086022425114000	-0.83711996339261400	-0.19127858832663600	162
2.91456003603888000	-6.81461809462000000	-7.99668468176882000	-2.59142559882536000	-4.06888130675306000	-2.91458741254756000	161
0.21041187496296700	-6.73795887781759000	-5.98591815043480000	-8.27921016203905000	-5.13142477682565000	-4.47394956213272000	159
1.69850972122691000	-9.12270683154113000	-0.80794484009365800	-7.53640251174986000	-6.09339284042336000	-2.07295421840004000	158
9.64803548840962000	-5.17600977070123000	-5.69548202660758000	-5.64582125541556000	-3.22075100498604000	-1.44819609180935000	156
9.62750338095431000	-3.86666288769374000	-7.74527522592135000	-8.50085352202893000	-3.34016795443371000	-8.43945784748816000	149
8.16773776452138000	-7.09353582757745000	-6.38288045976579000	-9.89151264890254000	-5.79986745107172000	-5.02329217458779000	147
1.80970459373381000	-7.46223964713988000	-8.77532283420605000	-4.35278139927639000	-4.74755595545421000	-1.18933616777844000	145
0.59340100253785600	-5.96995467626369000	-2.86190499252807000	-1.13545223247080000	-7.55686030881733000	-3.31663822659461000	145
3.20002587699265000	-5.45033042224452000	-7.86313174331855000	-0.90138759898224400	-3.65093042949744000	-9.88869384025405000	144
0.17783756772324900	-6.92769125448958000	-4.78495541126154000	-1.20761356508788000	-5.89188396374653000	-3.19439223135817000	144
1.94389756155539000	-4.36489143033111000	-9.19284722676236000	-6.44329509403736000	-3.18309567878531000	-7.45397820898766000	143
1.60978586014064000	-8.96093742806617000	-9.58624560321608000	-3.15438885625158000	-7.96800283800713000	-5.92349800124506000	142
4.98565587804423000	-1.68963320638060000	-2.05763106229857000	-6.59784956470439000	-2.38641173455273000	-6.21638448115197000	141
5.69581389574849000	-6.90634101436580000	-2.34994156036953000	-0.15586458798440800	-0.11156153594044700	-4.62341350927025000	141
5.13584592190654000	-0.38020210433081600	-2.42009483362557000	-5.47878395803879000	-1.61003644284778000	-6.19288729419134000	138
0.34399430908405100	-4.61833030434323000	-4.24827816712024000	-8.80251057692651000	-1.63891039427577000	-4.53688899209328000	138
5.10609614918759000	-7.58973474056161000	-5.01658846382080000	-4.05739663712297000	-9.78504044183614000	-3.56870865443248000	134
7.90570600022362000	-3.10671877108544000	-0.06632249302135680	-4.73596079526061000	-7.46250211048202000	-5.62230672758630000	133
7.50226330924766000	-9.25338322786194000	-9.47163255015001000	-2.79809042480946000	-7.12548461906787000	-3.46320703962126000	132
9.93934079309345000	-4.15404588017532000	-6.77791521478096000	-4.97122399346207000	-4.89435001490760000	-5.64098131638194000	131
9.39148005821754000	-8.49064550811587000	-8.57319128335089000	-0.56269810322939800	-1.74275547049407000	-3.50834235678352000	131
2.75885632122905000	-3.49267687115920000	-9.76537276305771000	-2.65596886959368000	-1.23942851322188000	-9.91874065894981000	130
2.61112029897700000	-9.05030081470249000	-7.78235251456440000	-3.86222040837307000	-8.90487462158961000	-4.41423154048371000	129
1.78072413457339000	-8.41390895629691000	-5.58901318713862000	-0.43248761617837800	-6.82722018742598000	-2.52113483230494000	126
2.22100231192733000	-2.07336313638630000	-7.14450384533582000	-6.18913855555838000	-7.41329463931074000	-9.61249379397245000	125
2.06687638344533000	-9.27715651910263000	-6.80731286568892000	-8.05048678413186000	-0.31471459382069800	-0.34327887733624300	125
8.22861783467266000	-4.13633731474690000	-6.84963559701240000	-8.38508319455877000	-2.00469941617793000	-8.96821254173389000	124
1.00155308163919000	-5.79916321517749000	-9.35247252468175000	-4.51598105931453000	-8.96979993796589000	-7.16033167106382000	123
0.36696485266147800	-5.73926896511535000	-5.39131742063615000	-0.74798798176425100	-8.77448616928455000	-7.80582429351487000	121
9.44021508649922000	-7.39858530393321000	-8.17742867100716000	-2.02116683201654000	-8.78492948995942000	-8.06754697305985000	120
0.25235478026961900	-8.64401408424615000	-7.48571567826494000	-9.65927859565429000	-1.00296021241803000	-2.18196147280463000	120
4.00761550469200000	-9.04166719544306000	-3.93692795320609000	-0.43095094886944500	-5.98064046142216000	-1.49029130433974000	120
9.44667568744978000	-2.11515106180875000	-7.89337787217900000	-5.94737575250765000	-1.82456025467994000	-9.52078617716883000	119
2.59537510078692000	-2.10308477487732000	-2.30073815879216000	-9.49290093019304000	-5.65342941393387000	-6.30923204998680000	119
3.27474307741555000	-6.73351075106359000	-3.61222922673884000	-8.47785973470238000	-6.45690334418703000	-4.18114099031600000	119
5.71406900368335000	-9.65956030090085000	-1.01926370488254000	-3.58582198535089000	-9.62329088828698000	-2.87658581096505000	118
1.86955817009956000	-6.78963311914785000	-9.28124236642734000	-4.07630635832843000	-6.57401436508839000	-4.80300877364042000	118
6.60378941648377000	-7.74102149739777000	-1.71373679634951000	-1.39408398416416000	-4.57083899867898000	-0.02533703362712740	118
3.50520888342564000	-5.88738880251352000	-7.46317384358541000	-1.14434269961803000	-8.41627451856339000	-5.51835141214977000	116
9.25743837076244000	-4.66792692202893000	-4.45419030463820000	-5.07941833099004000	-3.55705165645401000	-1.96442515210986000	116
6.62300551208277000	-3.27139310358743000	-8.11247659829991000	-4.43168285812438000	-2.34685225147534000	-7.82590234726066000	115
5.68885436116958000	-8.03824682677960000	-9.81153235488595000	-0.24884673424232300	-3.20024954937863000	-7.74697068039130000	115
9.71948620637841000	-1.86619828416401000	-0.77048246092303300	-6.16607385193792000	-5.45724725098912000	-5.82758969349821000	115
2.25109039709595000	-4.26604025293565000	-8.14823296680861000	-5.15052580573328000	-6.90149600248295000	-7.80400671637194000	112
7.03131968882995000	-5.34796316873565000	-8.19848119439776000	-6.35438472166004000	-7.42730724615064000	-5.93854524563604000	112
5.42178410095009000	-7.44450836987152000	-0.68508796013349900	-4.03256460498162000	-5.75877727033159000	-1.58793242417633000	112
8.80540713124351000	-4.40507042938884000	-1.51710720377693000	-2.43744237493961000	-7.17571398128677000	-3.79254056506442000	110
9.82035817365108000	-8.48774574459497000	-5.53824726062235000	-1.82423716633117000	-2.98251139396565000	-0.19059905919871300	109
8.87424052304791000	-3.63621600661536000	-0.19508040580526700	-1.05666121927239000	-7.62893258751987000	-4.38051614330323000	109
6.79257623055561000	-3.68083030782090000	-3.71013948605010000	-2.03380121638777000	-3.13502928119033000	-1.79406459932922000	109
2.53432856690525000	-1.50300566650108000	-7.19092426736930000	-4.93444414361727000	-5.52648675164231000	-8.40110444833220000	108
4.28576136303904000	-0.90214066869409600	-4.16466399159024000	-6.30932207500490000	-3.86410995991323000	-8.56646496951876000	108
4.04284230503918000	-9.93408484336988000	-2.57439670418758000	-8.54501640299771000	-8.46243407311419000	-1.53420712559663000	108
7.18308800281690000	-6.74253483569640000	-6.07073429309101000	-5.22061265737039000	-7.40676171531339000	-2.95973018167923000	107
6.83788815388429000	-8.67861587420207000	-1.66613194048777000	-5.64100623000696000	-5.37056702263309000	-1.18472537959362000	103
7.71978507856597000	-0.75310113777834700	-4.73985158955344000	-3.14593218851465000	-4.89827852935371000	-6.54340155287736000	99
9.46963082416452000	-0.94875108428058300	-0.46598578931653700	-5.87853322191087000	-7.39703595117539000	-9.34209710732600000	99
4.24851338285110000	-7.19842905829888000	-9.97769321305033000	-0.88266937945995600	-1.20210790358408000	-7.36187010615850000	99
8.69178721111607000	-5.07356592874547000	-2.51866887861529000	-9.59525608540443000	-6.79720059358346000	-6.67372336291974000	99
6.92015570856843000	-9.50674398937472000	-4.11734840421755000	-4.40118586071635000	-7.07063677020063000	-0.80366646029287800	98
1.35834792600500000	-8.08333041638037000	-3.90800570441960000	-8.08424524107430000	-3.27349860605134000	-1.53198939245192000	98
4.05956820092525000	-4.03413655513631000	-5.69589629713080000	-1.29899865733502000	-6.31579192187296000	-4.16723262024947000	98
5.66731501297766000	-6.37504140557039000	-5.52507213533843000	-0.83402808289098000	-0.67051626088550200	-2.94523258229637000	96
1.48234292038362000	-8.79923599035284000	-0.02190610985659310	-8.01831757283482000	-6.13505524386378000	-2.53094089254765000	96
3.05193277568330000	-1.03252674814261000	-3.35616942585010000	-7.39433382302531000	-3.71518399656453000	-9.13757869749329000	96
5.62963117515842000	-8.82575924695011000	-6.84744815170185000	-4.50036280343391000	-0.21590568782159100	-0.08689373514052520	96
8.11378958325732000	-1.03172964753891000	-6.00373682118783000	-3.30618753295887000	-6.44737387688867000	-9.13558190844196000	95
1.55394432549950000	-5.79392965215484000	-8.75848370554924000	-8.22202802530325000	-8.64572628684956000	-8.88181974075534000	95
8.46789307648231000	-7.64685269132983000	-3.70844932075001000	-8.32579215620401000	-0.16855719944176700	-2.17808495843692000	95
3.14777760486664000	-7.20125731827015000	-8.23188631342516000	-3.98328818622181000	-9.68003678812961000	-5.54453481785062000	94
6.23931236703831000	-1.88268235743576000	-9.02698463100409000	-2.55668239985281000	-3.75533429904182000	-7.66546134621437000	92
8.21686551243298000	-2.09154989327691000	-8.80674801767223000	-3.65699555983842000	-2.53392583761015000	-5.49560433024091000	91
4.53650238186461000	-3.43789329528106000	-6.07816118527880000	-6.10566900858910000	-5.86044831518606000	-4.38375860899238000	91
1.46036015846818000	-7.75660933648555000	-7.99377933450053000	-1.61906604108245000	-9.26913670296963000	-5.29089865850062000	90
9.59084012824450000	-8.55700069460826000	-3.42368266655370000	-0.81109904114127100	-6.15169913225286000	-1.30764411910826000	90
4.16553534165503000	-5.73688008781985000	-4.15080698557769000	-0.05243027120553460	-8.65977120895803000	-7.57044655872395000	89
8.98103233281238000	-0.61913642774830600	-0.44540928885588100	-2.66309680084895000	-7.88964255998227000	-6.85928566605434000	89
4.64093206243716000	-1.56962129816206000	-5.53868096379427000	-8.06805947088386000	-6.33546142535466000	-8.13725451608982000	89
3.47345943290946000	-4.84640302481706000	-6.97650588165549000	-3.21900154992315000	-6.76563771693547000	-4.16166930256765000	89
3.26379688463971000	-9.17470551829481000	-5.30476072487730000	-3.42227398217353000	-9.51520381575711000	-1.89651736599730000	88
7.56772272751173000	-7.75354185480068000	-7.66878581657218000	-0.29488180794356700	-8.38963547509636000	-6.61657974446610000	88
7.11985939252862000	-4.55880097459204000	-9.14607327196452000	-5.17394092325318000	-8.83329518760721000	-8.96821183632227000	87
6.40758661806591000	-0.19764667978592100	-1.10396884967679000	-9.76216214069292000	-4.64937131532832000	-9.47757000036982000	86
6.25335878850057000	-6.97787362981184000	-9.89118172710534000	-8.88506214295131000	-7.11908650797135000	-4.64589905184250000	86
7.86481390552551000	-9.30067473626129000	-9.99098427401513000	-0.48020792368624200	-5.10569285880346000	-5.72807629567960000	85
8.36395223873683000	-5.72300640770649000	-0.72366098951114000	-4.31452714951114000	-9.74042017241632000	-3.47521710585409000	84
1.07804508806731000	-0.81350812030776300	-2.35897410642402000	-9.26129386856842000	-1.84859999383126000	-6.47176459178694000	84
7.65223968260412000	-2.39315495061253000	-6.68833331526739000	-0.46044160547649300	-2.88100639480780000	-6.47406660783657000	83
8.33557698167210000	-6.44023419354748000	-5.11930712984304000	-8.04661069505028000	-8.48310855276514000	-3.94352178696984000	83
6.57895078615810000	-1.29404810458487000	-5.98563890662701000	-3.53873453353759000	-2.96490165550643000	-7.46258168202458000	83
0.57180120616797200	-6.20368811886594000	-1.38175852005090000	-8.75694869096483000	-8.85663665896324000	-2.82712848506769000	83
6.80414711155754000	-8.63739183011184000	-1.19316832297953000	-4.82396326627668000	-8.05165019054359000	-1.47309470801966000	81
6.21469012833466000	-6.18333029960174000	-6.23667109379046000	-3.18116963714540000	-9.33204765344202000	-5.17558569062120000	81
7.94835616992314000	-1.94749679764969000	-0.81410038412678000	-7.22447234720796000	-5.15068797620375000	-6.19535847327673000	81
9.89448070643122000	-5.30283190653245000	-9.02127671768707000	-4.64658804301185000	-1.18538566235129000	-4.28125818728475000	81
5.11356926825373000	-8.06708759398469000	-7.97093693906398000	-6.62924470240606000	-4.53171222702347000	-2.26605681640414000	81
1.43178376373608000	-0.42235855001938100	-7.24841305789175000	-2.65295102126225000	-4.91430902663313000	-6.89173981473281000	80
6.65285495841215000	-3.26328399717445000	-5.38848057662325000	-0.68509572946195300	-2.45872183854092000	-2.08493105590395000	78
1.54939947351243000	-5.69375327452436000	-8.34468570018117000	-7.00284864063686000	-2.45055833901580000	-4.69789422919003000	78
2.01340335386782000	-4.88075206509879000	-8.38466519252666000	-1.46471592670315000	-4.30480395421205000	-5.85713555123586000	78
7.90192339216314000	-1.82840191041884000	-8.36056320485286000	-4.48028205085533000	-9.15410691940277000	-7.38263256877128000	78
2.13004798759357000	-8.44612032479199000	-4.19666790513825000	-5.26094231793632000	-6.36575389720242000	-0.75408334274329600	78
6.35199162457638000	-7.82118046598769000	-3.35246735333186000	-7.90843518261389000	-2.68323745442429000	-1.02243209497481000	78
2.46228171524628000	-3.29716441774598000	-6.38466763007195000	-5.04303092884585000	-1.52922229688743000	-1.85421368931758000	77
6.99109192027767000	-2.70272740762829000	-4.13410146777282000	-5.97441950151070000	-9.29981677686325000	-8.30206103294012000	77
5.45270486682862000	-5.71676435238742000	-0.92685192515714600	-8.05542490987543000	-9.96602219913589000	-6.11653616706870000	77
6.70582456888304000	-7.55460685335744000	-2.07505892755792000	-4.79099649767676000	-9.23106353516539000	-1.94198259998984000	77
4.86562074811734000	-7.18178931635031000	-9.70461329406948000	-9.55020144151146000	-8.16038404760466000	-6.55663430701097000	76
2.72597975953539000	-7.97195017926045000	-3.07958255384560000	-6.03426849456686000	-6.56937435850972000	-1.75324658643956000	76
4.79710620647080000	-9.72888615400859000	-6.79562759011300000	-9.43358148468398000	-2.48180029256183000	-0.02967034677271210	76
1.19829901404785000	-9.71357430730193000	-0.41094932502781100	-9.82377434159458000	-0.26746412589234800	-2.26040677279316000	75
5.02984076782675000	-6.16817166527453000	-3.50346673935926000	-6.48936033025292000	-5.67155975018837000	-1.57631183575031000	74
3.39990506928018000	-6.99528907536823000	-3.43071970130464000	-9.94711093116999000	-1.76685641211216000	-2.22559107978051000	74
4.03790587548592000	-2.33966662572431000	-5.35285696472677000	-0.48000201719958700	-1.82978912980366000	-2.04750009769363000	74
0.51041373330461500	-1.44532325132159000	-4.73151025930674000	-0.25991665257118800	-7.45423593697240000	-9.08808335519921000	74
5.36999780920269000	-3.26045929615387000	-9.01804181698738000	-7.84613537811107000	-9.70692784352213000	-8.06775726070374000	74
4.39297715665991000	-2.69798378603585000	-7.13549485304861000	-6.13704742589607000	-7.44174621504835000	-7.13767259463209000	74
4.21911329272345000	-7.78146622234774000	-4.94042497245600000	-8.35899305313986000	-4.05557362032014000	-0.36347444151843300	74
9.68471356205607000	-7.85487340260963000	-0.13726380750292300	-4.17091902539736000	-0.31258526715071400	-6.21944529457440000	73
8.11680413599385000	-7.44412398577919000	-9.93891821898664000	-0.96388620925691500	-4.17595055795204000	-4.23072975877405000	73
3.49000712848773000	-2.76608378654006000	-5.96142890617302000	-6.59041814597175000	-4.42418167081075000	-2.69274368133598000	72
9.57023546200290000	-2.48675197017941000	-6.04340285917983000	-0.21809162206925800	-0.53662581690251800	-7.43912679560757000	71
4.71112925071346000	-3.17093694295756000	-6.34186969721041000	-2.83017278289923000	-2.26189420026104000	-2.22070279989728000	71
5.34134354166707000	-3.26553530838588000	-3.81210675317345000	-2.04812576413389000	-6.33590398825210000	-2.85761006158685000	71
5.96114860318427000	-3.10909074446866000	-4.69792931972806000	-7.47348078007828000	-2.79235623645825000	-3.87831844194590000	70
3.00794111022739000	-4.90275146574255000	-9.62399961374963000	-6.41332998152480000	-2.24764476484531000	-6.29374908001755000	69
9.34198155335867000	-0.18387982049221500	-3.11663038981179000	-5.83077298852675000	-2.95595011282842000	-6.46165505830828000	69
0.68691505634074400	-6.75356522789734000	-0.75492129089983200	-5.47361416787086000	-9.38384458046413000	-1.29017713532705000	69
8.19899768430593000	-2.89641776837451000	-4.10031995029594000	-9.18053615483804000	-8.23092539934089000	-5.49783594386385000	69
3.91759999905825000	-3.38674163397490000	-7.33747168179047000	-2.30711406000086000	-3.26979660499472000	-3.02218250801928000	69
7.44803486780297000	-2.13312178426606000	-2.56197447878466000	-0.31220322951416400	-5.31398294240636000	-4.47818169800166000	68
5.75866909134322000	-2.92820958401113000	-5.15723295085001000	-4.83292490396267000	-0.79736930496193500	-2.47612089026214000	68
3.82591623376688000	-8.94661971786499000	-8.91092622726095000	-8.41569210717930000	-2.31282604292113000	-1.12858751694808000	66
2.47604598564617000	-0.58756783197632400	-2.12323311666727000	-6.97553034568952000	-4.22677094577039000	-5.29896523325180000	65
7.64119308644293000	-7.20157975410618000	-7.24056505118143000	-0.50243967461043500	-8.59581437061316000	-7.27350713266892000	65
0.34845703316895400	-7.12817632804317000	-6.17250201643423000	-8.81297460396734000	-6.21924244126477000	-4.08236690504256000	64
1.47131907617766000	-9.57603805551660000	-3.84796069967678000	-8.17770145004965000	-4.99192203712135000	-0.02270397733560960	64
1.66248016540400000	-3.98307252331923000	-0.29297075781822900	-9.54686188146615000	-6.53439006053985000	-6.61256105599000000	64
5.88959236698643000	-3.71538338503780000	-5.32576999294851000	-3.35633373428227000	-3.06579695428832000	-2.11543782912396000	63
5.00559473307616000	-3.99259201204257000	-1.40214429556608000	-0.61390842600102300	-6.51977756362768000	-1.84275751588456000	63
1.34586185313861000	-5.36220924958363000	-9.37731233167203000	-9.21455859975361000	-2.06481327266919000	-5.96324428463918000	63
4.82490584154383000	-5.26448729170139000	-9.58005541980151000	-7.26396502174500000	-2.53067874070089000	-6.34912296930016000	62
3.24529739091447000	-5.60003057118944000	-6.43049100353491000	-2.49772311591901000	-8.10842212634830000	-3.27793876074028000	61
1.09481868377564000	-1.32854919593007000	-1.25263156845644000	-6.91412257813703000	-7.22721661130703000	-5.16719630490743000	60
9.33823433491863000	-5.80093893770648000	-5.68918164831720000	-9.57181159312257000	-6.04104456367140000	-2.81662463383589000	60
4.79540159377579000	-5.17781010985303000	-1.26348328154788000	-4.26950886272568000	-6.47226364733791000	-0.10065728724165600	59
4.69523281711851000	-9.02387535886186000	-1.46157251670262000	-8.65524880397757000	-8.02070618777345000	-1.37735907463830000	58
4.29054947767612000	-5.19906163938751000	-8.95918610538498000	-9.64902508431658000	-6.91462778477941000	-4.04011114317471000	58
8.70950680596159000	-4.29739823510606000	-5.74579536934289000	-5.79664488183018000	-9.76546122705220000	-7.05570318440784000	58
9.41029426672717000	-5.50705921177870000	-6.84354095175399000	-6.52958437355471000	-4.63267012458060000	-2.79745262420309000	57
4.27341113805065000	-8.78978648306521000	-7.73328018065440000	-0.34390306528737000	-1.01360132580706000	-1.81558422528324000	56
5.87128588877599000	-5.50734419931926000	-4.23687198336679000	-1.55053329431082000	-8.29425448696713000	-1.87296083062721000	56
7.93748851344283000	-5.44389771802297000	-5.80245134510605000	-2.19566032151379000	-5.01663848491148000	-0.69124949457181500	55
1.20335148796524000	-1.99093764461561000	-3.43642284222477000	-6.69349568056449000	-0.87173303821855600	-4.58124906820767000	55
9.95150053440442000	-1.04298896344110000	-1.67198125916266000	-5.75398890158678000	-7.97186276593111000	-5.24992369491807000	54
1.80153921970127000	-5.13768203608087000	-2.24163968053321000	-3.19603511774349000	-9.66801638400272000	-2.44739662615801000	54
9.07588570211850000	-4.28825322402377000	-7.24193494297401000	-0.58104442718115300	-7.54248752183567000	-6.60626699530801000	54
7.14952112654892000	-3.43205247834310000	-3.05054185223180000	-2.05372622836668000	-9.39341939337718000	-6.10086271330685000	54
7.33918094453360000	-9.93670207579880000	-6.04578040012295000	-0.85466641707644000	-8.58770943284344000	-2.91722737111590000	53
5.10516572308063000	-0.22010118252433300	-1.33806786668719000	-9.35526738444121000	-6.12251365791575000	-9.21163252182854000	53
